above:-0.077717,-0.065075,-0.030195,-0.021061,-0.028827,0.014611,0.013649,0.102124,0.049588,-0.005525,0.004109,-0.014535,0.028025,0.003644,0.057555,0.028863,0.016139,-0.043844,-0.079994,-0.008701,0.007139,-0.000199,0.013335,-0.028921,0.007132,-0.077280,0.017245,0.088482,0.075132,-0.075563,-0.053792,-0.004131
achievement:-0.029512,0.143714,0.002088,-0.010369,-0.044974,0.022017,0.099584,0.031554,-0.035666,0.004104,0.046881,-0.031262,0.084304,-0.001381,-0.035623,0.047857,-0.046163,0.039386,-0.103010,-0.111987,-0.007001,0.002897,0.015662,0.017117,0.016180,0.065445,-0.035890,-0.024820,0.070554,-0.025974,0.004467,-0.119091
action:-0.041159,0.008662,-0.017181,0.003741,-0.028200,0.063975,0.158444,-0.016044,0.020740,0.049822,0.056433,-0.010060,-0.040484,0.033748,0.007042,0.016186,-0.025397,0.009477,-0.102764,0.038514,-0.004790,-0.029891,0.019967,-0.009002,-0.092693,0.041904,-0.017657,-0.039592,-0.041768,-0.122216,0.100937,0.015975
adapted:0.015157,-0.027885,-0.024736,0.015375,0.057802,0.005249,0.019670,-0.011614,-0.033607,-0.020193,0.009493,-0.048809,0.025781,-0.014054,-0.031084,-0.004213,0.033493,0.086022,-0.087694,-0.004337,-0.011582,0.081897,0.020345,0.020451,-0.051252,0.049419,-0.009076,0.088652,0.047023,-0.126529,-0.005559,0.017799
additional:-0.024472,-0.039732,-0.048177,0.006354,0.021621,-0.014851,0.064107,0.093990,0.000236,-0.026959,0.013362,-0.078654,-0.063914,0.018314,0.016842,-0.004170,0.052711,0.018869,-0.158444,-0.084778,-0.086567,-0.064689,0.010770,0.003832,-0.037659,-0.035003,-0.025972,0.066221,0.051633,-0.085617,-0.011403,0.069189
additive:-0.079080,-0.054791,0.006452,0.063849,-0.003063,-0.002583,0.135214,-0.015660,0.014989,-0.010885,0.069287,-0.106590,-0.016741,-0.025111,-0.013747,-0.043255,0.017495,0.064530,-0.068846,-0.065451,0.041915,-0.070087,0.007473,0.057796,0.103466,0.091352,-0.034504,0.009524,0.167368,-0.051303,-0.062757,0.072364
advanced:0.006547,-0.012928,-0.027461,0.044702,-0.060676,-0.062570,0.041370,0.081711,-0.096793,0.079496,0.025407,-0.016723,-0.008448,-0.000037,-0.030364,0.027247,0.019177,-0.069932,-0.091628,-0.083051,-0.091656,-0.035478,0.081566,-0.025844,0.018519,0.065249,-0.047981,0.022979,0.015363,-0.021804,-0.056319,0.025794
aeolipile:-0.061742,0.047994,-0.033092,-0.017013,0.048097,-0.098907,0.029832,-0.009316,-0.056214,-0.089431,0.074122,-0.127933,-0.018414,-0.033715,-0.039969,-0.032838,-0.066870,0.007324,0.004335,-0.029222,-0.003064,0.034674,0.008375,0.083675,0.049943,0.080648,-0.005696,0.046222,0.086066,-0.136064,0.003586,0.041960
aerospace:-0.005765,-0.007011,-0.032849,0.030433,-0.083028,-0.011960,0.078730,-0.006309,-0.057605,0.059189,-0.026603,0.006860,-0.011401,0.010120,-0.074396,-0.002006,-0.008135,-0.068242,-0.042044,-0.062614,-0.023356,0.087978,-0.045606,0.044935,0.032390,0.072006,-0.031657,0.052989,-0.009535,-0.096826,0.009105,0.052795
afterburners:-0.064084,0.025250,-0.074060,0.073034,0.022245,-0.036740,0.057956,0.007938,0.030012,-0.081798,0.073555,0.012713,-0.069168,0.005803,-0.025651,0.027654,0.041930,-0.035140,-0.029809,-0.122625,-0.083528,0.053868,-0.010423,0.060918,-0.017566,0.017039,-0.044853,0.013872,-0.058103,-0.064285,0.056396,-0.079656
ago:-0.050082,-0.010862,-0.041602,0.053229,0.054449,0.029779,0.089491,0.079320,-0.046257,-0.034031,0.024457,0.063624,0.013288,0.096505,-0.012450,0.028246,-0.044379,-0.012636,-0.096018,-0.021266,-0.077491,0.052521,-0.013150,0.044669,0.070314,0.016297,-0.010766,0.043254,0.040582,-0.049139,-0.080959,-0.006058
air:-0.032276,-0.001255,-0.021389,0.096856,0.031923,-0.077822,0.163450,-0.051117,-0.005422,-0.011791,0.056974,0.001232,-0.047624,-0.035065,-0.016137,0.052540,-0.024789,-0.074015,-0.098689,0.025534,-0.002552,0.085166,-0.010056,-0.008166,-0.005992,0.025698,-0.025264,0.045495,0.033488,-0.109411,0.030258,0.025823
airbus:-0.014002,0.063660,-0.057647,0.007436,-0.053535,-0.005644,0.014942,0.027342,0.043874,-0.015875,0.008337,-0.060921,0.002845,-0.002090,-0.063085,-0.020158,-0.003326,-0.125338,-0.015486,0.014942,-0.019118,0.004779,-0.087421,0.038922,0.007089,0.063731,0.049956,0.058741,0.000351,-0.138709,-0.041120,-0.012015
aircraft:0.013685,0.061133,-0.084731,0.060625,-0.039681,-0.000494,0.096226,0.021603,-0.009505,0.073939,0.043449,0.042545,-0.028403,0.017371,-0.036730,0.051432,-0.017585,-0.099676,-0.058711,-0.031615,-0.011232,0.104580,-0.024331,0.061214,-0.031038,0.059432,-0.021706,0.059852,0.032897,-0.116831,0.015029,0.042058
airflow:-0.045771,-0.004599,0.016183,0.029559,0.042589,-0.101654,0.082989,-0.028098,0.000854,-0.066075,0.028533,0.042004,-0.036238,-0.038710,-0.026384,0.052876,-0.034057,-0.010391,-0.113032,-0.082448,-0.028415,0.063621,-0.059373,0.015558,-0.017262,0.020344,-0.020881,0.025286,0.035324,-0.078963,0.028570,0.047270
airliners:0.013338,-0.002803,-0.043733,0.073136,-0.024840,-0.016217,0.081183,-0.014734,0.018821,0.021280,0.046053,0.066687,-0.043515,0.053823,-0.015671,-0.019295,-0.011754,-0.061765,-0.111204,-0.084542,-0.074771,0.025132,-0.072973,0.037194,-0.023403,-0.007964,0.021716,0.020365,0.041847,-0.047799,0.025776,-0.014336
alexandria:-0.010462,0.077291,-0.044355,-0.000899,-0.134636,-0.016079,0.066475,-0.044545,0.023253,0.017885,-0.013332,-0.106579,0.000416,-0.046310,-0.058847,-0.026908,0.004904,-0.022608,-0.037037,-0.012894,0.010057,0.032469,-0.002176,0.028892,0.068800,0.160058,-0.001026,-0.004430,0.017812,-0.023918,0.019474,-0.051385
all:-0.079548,-0.048391,-0.016113,-0.060323,0.072990,0.012197,0.015523,0.025048,0.011118,0.018683,0.020505,-0.077020,-0.018099,-0.003795,-0.093251,0.066321,-0.058232,0.024796,-0.071225,0.021298,-0.029563,0.011653,0.003450,0.010181,-0.098768,0.071130,-0.008029,0.010490,-0.029573,-0.140895,-0.098622,0.003176
allowing:0.016814,0.095076,-0.003175,-0.006864,0.030974,0.009745,0.057685,-0.089797,-0.064547,0.021835,0.009219,0.071275,-0.002948,0.054523,0.018664,0.030293,0.049000,-0.073004,-0.108083,-0.004611,0.038044,-0.041304,0.000007,-0.027477,-0.052300,-0.001581,-0.057540,0.000486,0.197177,-0.077892,0.013727,-0.028241
also:-0.120259,0.014052,-0.007198,0.038485,0.045057,-0.001393,0.033082,0.023928,-0.041192,-0.047277,0.022872,0.049140,0.000288,0.061420,0.006533,-0.051957,-0.006541,0.045876,0.026790,-0.040584,-0.103649,-0.003873,0.046606,-0.024643,-0.046165,-0.056783,-0.023527,0.024377,0.066357,-0.045397,0.007506,0.065224
altitude:-0.014155,0.062065,-0.002306,0.027513,-0.068019,-0.021886,0.044853,0.056525,-0.009605,-0.021580,0.038471,-0.033309,0.040596,-0.013201,0.011484,0.085265,0.005201,0.026210,-0.061732,-0.044910,0.026627,0.073992,0.053320,0.092268,-0.000539,-0.012093,-0.033210,0.074845,0.047127,-0.071324,-0.053526,0.005229
altitudes:-0.038163,0.041392,0.015594,0.044256,-0.058895,-0.029361,0.007136,0.031355,-0.017629,-0.030494,0.032742,-0.090520,0.020292,-0.009605,0.021241,0.064208,-0.003481,0.030400,-0.006657,-0.049690,-0.000780,0.050442,0.054909,0.090979,0.011359,-0.012773,-0.031977,0.048647,0.070653,-0.073105,-0.024979,0.047754
ancient:-0.096481,0.102386,-0.037865,0.040729,-0.080164,-0.073249,0.043869,-0.043284,-0.011049,0.019202,0.004132,-0.018527,-0.007678,-0.032682,-0.067023,-0.043996,-0.034791,-0.036528,-0.014195,-0.039800,-0.026864,0.015467,0.013483,0.017173,0.042845,0.078921,-0.015195,-0.080500,0.092108,-0.042226,-0.001913,0.045293
and:-0.065812,0.048193,0.030481,0.024876,0.007960,-0.010989,0.084759,0.040410,-0.016874,-0.033569,0.001822,0.054537,0.053650,0.053299,0.048857,-0.007685,-0.048268,0.011920,-0.012056,-0.008387,-0.044324,0.046915,0.030332,-0.005409,-0.035903,-0.061400,-0.045282,0.002754,0.067023,-0.022492,0.007773,-0.070706
applications:-0.048402,-0.013124,-0.039783,-0.095866,-0.007917,-0.019945,0.080247,0.114736,-0.018546,-0.008980,-0.012802,0.020840,0.012122,0.006063,0.024946,0.018922,0.067416,-0.008407,-0.012060,-0.062716,-0.019535,-0.021849,-0.045806,0.026448,-0.062148,0.017433,-0.034964,0.003454,0.101549,-0.088295,-0.017513,0.076217
are:-0.007909,0.044889,0.008580,0.033900,-0.058339,0.016323,0.062847,-0.039255,0.050137,0.047331,-0.018946,-0.112179,-0.056990,0.007539,0.061761,-0.027065,-0.016845,-0.033914,-0.107125,0.050318,-0.113639,0.032366,-0.032105,0.024115,-0.019241,0.006726,-0.011641,0.009982,0.072957,0.051496,-0.078809,0.025513
article:0.013187,0.112155,0.007560,0.135874,-0.007394,0.013926,-0.014620,0.069166,-0.047890,0.056738,0.049669,0.091236,-0.049314,0.031291,-0.023695,0.002963,-0.030058,-0.003495,-0.066445,0.024200,-0.053385,0.001451,0.037612,0.012152,-0.029114,0.031336,-0.062548,-0.033725,0.017606,-0.045047,-0.041039,0.030488
atmosphere:-0.031824,0.037792,0.020299,0.057684,0.061323,-0.045291,0.131216,-0.031620,0.041521,-0.010858,0.006809,-0.024288,-0.002119,-0.044383,0.019189,0.028284,0.028340,-0.060525,-0.104185,-0.004783,-0.051108,0.083255,-0.064429,0.041592,-0.035310,0.038624,-0.078052,0.081337,0.032130,-0.090677,0.010216,0.040946
atr:-0.132191,-0.019452,-0.042285,0.007871,0.071108,-0.024782,0.023855,0.022974,-0.003547,-0.038845,0.007022,-0.027793,-0.020359,0.008311,-0.016720,0.035268,-0.029768,-0.066677,0.004286,-0.034690,-0.133364,0.074132,-0.030502,0.040340,0.084042,-0.073280,-0.042335,0.031779,-0.036710,-0.049630,0.114161,0.027985
audience:0.038421,-0.027984,-0.066556,-0.038063,-0.016408,0.023662,0.097723,0.028655,0.053241,-0.011739,-0.000732,-0.039597,0.023444,-0.037053,-0.017370,-0.089041,0.109572,-0.037951,-0.024122,0.002590,-0.044523,0.005021,0.016213,0.013707,-0.029809,-0.054136,0.001403,0.032294,0.069227,-0.049360,-0.000623,0.011562
aviation:0.029613,0.006996,-0.029697,0.032694,-0.017708,0.003904,0.126676,0.014437,-0.044461,0.054492,0.011912,0.046287,-0.057102,0.036105,-0.047898,0.027674,0.008435,-0.076368,-0.030108,-0.077737,-0.025008,0.112068,-0.039615,0.080449,0.026834,0.025821,0.008072,0.032818,0.026569,-0.100672,-0.014934,0.085872
axial:0.061789,-0.017656,-0.026139,-0.032828,-0.121509,-0.077968,-0.001786,0.061479,0.043523,0.005297,0.100001,0.046716,0.008265,0.007268,-0.048654,-0.043243,-0.071065,-0.008721,-0.032111,0.068202,-0.036583,-0.012486,-0.012788,0.023058,0.064534,0.024515,0.015163,0.028757,0.057042,-0.078325,-0.018074,0.047034
back:-0.029908,-0.016124,-0.036955,0.053799,-0.000641,0.024212,0.065581,0.020548,0.024068,-0.047454,0.008990,-0.011510,0.044630,-0.030768,-0.012163,-0.005082,-0.035263,0.044835,-0.093856,-0.035375,-0.134977,0.076325,-0.020385,0.032898,0.008375,0.037235,0.026860,0.067005,-0.027081,-0.118177,-0.046820,-0.033227
based:-0.024290,-0.017385,-0.061866,-0.038081,0.012967,-0.021722,0.126982,-0.039661,0.046373,0.003763,-0.017961,0.007151,0.049755,0.017422,-0.004534,0.010439,0.040037,-0.027476,-0.065036,-0.009198,-0.037751,-0.012130,-0.009793,0.009021,0.019250,0.098898,0.029920,0.056759,0.035325,-0.093210,0.038894,-0.029790
behind:0.014446,0.052122,-0.084157,0.061771,0.009668,0.046238,0.036455,-0.013009,0.067135,-0.010664,0.032659,0.027208,0.054535,-0.087085,0.033997,0.001915,0.000933,-0.019508,-0.120473,-0.032248,-0.085091,0.062429,0.025322,-0.000173,-0.038637,0.029327,0.015657,0.009925,0.015716,-0.048451,-0.019897,-0.097966
better:-0.078098,0.013994,-0.013776,0.029964,-0.024093,-0.077277,0.004114,0.047908,0.002340,-0.022377,-0.038367,0.065466,-0.012468,0.089240,0.000439,0.010613,0.054275,0.077462,-0.138760,-0.020754,-0.149430,0.021379,0.086533,0.030007,0.010171,-0.009190,-0.023098,0.044826,0.023936,0.042187,-0.011226,0.023546
beyond:-0.039114,-0.067368,0.020218,-0.021613,0.051567,0.026951,-0.034641,0.055072,0.036599,-0.032142,0.043611,-0.047795,0.003321,-0.007307,0.053580,0.000632,0.072629,-0.049365,-0.072730,-0.092462,0.004958,0.001142,0.029413,-0.014401,-0.018750,0.039587,-0.040373,-0.014166,0.047643,-0.024009,0.008595,0.121319
biofuels:-0.025099,-0.022084,-0.053205,-0.009035,0.071152,-0.001295,-0.029104,-0.008988,-0.014589,-0.072345,-0.001118,-0.016992,-0.100463,-0.055256,-0.050275,-0.031584,-0.035367,0.019852,-0.119756,-0.087559,0.084405,-0.040194,-0.004353,0.056175,0.019971,0.056066,-0.069777,0.028265,-0.025419,-0.061371,0.040200,0.105181
boeing:0.008282,0.007403,-0.059665,0.037185,-0.028432,0.022680,0.028541,0.017338,0.008742,-0.024628,0.006573,0.034586,-0.015964,0.026186,-0.042282,-0.018820,0.034379,-0.088087,-0.025416,-0.111821,-0.047977,0.011304,-0.040830,0.044129,0.026832,0.072707,0.025279,0.067036,-0.001046,-0.156774,-0.029406,-0.000831
brayton:-0.106361,-0.073571,-0.047577,0.021305,0.021587,0.039943,0.051283,0.058368,-0.061350,-0.065969,0.028559,-0.081480,0.006561,0.018063,-0.087918,0.023059,-0.001056,0.067419,-0.034745,-0.081979,-0.117991,0.062044,-0.016086,0.046132,0.065837,-0.019900,0.058568,0.063931,-0.008243,-0.046819,0.020127,-0.076071
breakthroughs:-0.034040,0.015319,0.026505,0.033845,0.049106,0.021531,0.058545,0.085437,-0.027543,0.001172,0.032390,0.065434,-0.053692,0.009090,0.003428,0.038669,0.001261,0.069248,-0.087530,-0.067077,-0.122170,-0.028846,0.024296,0.042213,0.014728,0.121231,0.012798,-0.085616,0.036314,-0.057367,0.026214,0.041575
burst:-0.018006,-0.032822,-0.000342,-0.009790,0.003746,-0.004740,0.137866,0.043882,0.002907,-0.045004,0.051305,-0.014790,0.004201,-0.000662,0.047890,-0.024987,0.020238,0.036824,-0.016078,-0.044313,-0.010500,0.024047,-0.097275,0.047481,0.039331,0.023110,0.012854,0.033420,0.026387,-0.101779,0.087706,-0.045294
but:-0.075923,0.019866,-0.027377,-0.063091,-0.002386,-0.063560,0.041820,-0.032333,0.000813,-0.032929,-0.060675,0.004089,0.014480,0.060184,0.063957,-0.013929,-0.039551,0.027292,-0.055607,0.048171,0.055499,0.002448,-0.052658,-0.014136,-0.019508,-0.080650,0.007454,0.054674,0.116922,0.030149,0.009701,-0.027316
bypass:-0.065635,0.066787,0.021070,0.026957,-0.018801,-0.003414,0.058815,-0.085975,0.018789,-0.011334,0.030894,0.015257,0.022551,-0.062679,0.066633,-0.006471,0.061102,-0.003805,0.008232,-0.045040,-0.056040,-0.029309,-0.078719,0.037441,-0.020609,0.042096,-0.070715,0.052360,0.029739,-0.096447,-0.060046,-0.056892
bypasses:-0.073926,0.036890,0.025843,0.044184,-0.056107,-0.005608,0.067452,-0.087453,0.017123,-0.018180,0.056787,0.026810,0.023123,-0.045003,0.052274,-0.022753,0.040050,0.032376,-0.029974,-0.028640,-0.063433,-0.027814,-0.092728,0.052666,-0.047767,0.039777,-0.086444,0.013715,0.033140,-0.080501,-0.066546,-0.052268
centrifugal:0.016772,-0.021388,-0.047774,-0.021605,0.018676,-0.045366,0.022327,0.040203,0.015824,-0.064605,0.052075,-0.113159,0.005139,0.054034,-0.009675,0.001284,0.004354,0.064385,-0.122742,-0.037213,-0.010173,-0.021124,-0.025109,0.095560,-0.044809,0.037231,-0.002125,0.016210,0.016430,-0.119887,-0.005906,0.087705
century:0.018224,0.103221,-0.061424,-0.072320,-0.062689,0.016980,-0.030154,0.010263,-0.060273,-0.031988,0.050716,-0.044483,0.072964,0.053622,-0.055569,-0.013303,-0.105956,-0.050053,-0.016105,-0.019408,-0.063275,-0.035675,0.006972,-0.005295,0.021986,0.018927,-0.032991,-0.038612,-0.037947,0.037857,-0.034200,0.100588
challenges:-0.050573,0.074701,-0.004610,-0.023713,0.004693,0.096215,0.037901,-0.011484,-0.048785,-0.015914,0.013654,-0.116198,-0.033752,0.025793,-0.018690,-0.016681,-0.016359,0.021965,-0.040781,-0.061529,-0.008282,-0.030522,-0.046630,0.015744,-0.023285,0.035269,-0.006825,0.008236,0.086664,-0.116303,0.023527,-0.006446
chamber:0.050521,0.032550,-0.072803,0.014600,-0.030715,-0.028092,0.040456,-0.029205,-0.006212,-0.083513,-0.015580,-0.080049,0.018623,0.019486,-0.056955,-0.061346,0.044059,0.041955,0.003054,-0.019056,-0.091744,0.025053,0.013971,0.021014,0.009799,0.048597,-0.068635,0.065990,-0.024819,-0.141100,0.038766,-0.016809
change:-0.011589,0.092569,0.053454,-0.029589,-0.017391,-0.019641,0.059103,0.003117,-0.003858,0.030525,-0.005732,-0.074322,-0.030941,0.016632,0.000867,0.034808,-0.036745,0.062817,-0.078123,-0.001927,-0.067851,0.041476,-0.017760,0.004493,-0.025710,-0.004822,-0.011829,0.069143,0.025948,-0.131514,0.070455,0.092603
chinese:-0.051181,0.033419,-0.008102,0.057577,-0.021619,-0.048307,0.132486,0.001637,0.043773,-0.027397,0.098794,-0.086110,-0.022573,-0.041224,-0.037055,0.035447,-0.001742,-0.006170,-0.076590,-0.085436,-0.104553,-0.041949,0.029506,0.039131,0.037942,-0.050438,0.003577,0.049802,0.082217,-0.072653,-0.095708,0.073879
civilian:0.000198,0.031900,0.007731,-0.008262,-0.026114,-0.012400,0.145708,-0.010888,-0.065176,0.084934,0.050261,-0.065693,0.052203,-0.009871,0.004257,-0.017491,0.016094,0.012057,0.028938,-0.000315,-0.127340,0.014719,0.000235,0.033616,-0.010516,0.001737,0.024661,0.048854,-0.076189,-0.057624,-0.013384,0.039211
climate:-0.010074,0.080163,0.076162,0.090028,0.003146,0.005163,0.026347,-0.074189,-0.030586,0.011041,-0.008471,-0.167676,0.011674,0.027380,0.042731,-0.038606,-0.083266,-0.046233,-0.038499,-0.076389,-0.067461,0.073313,-0.061598,0.043854,-0.024365,0.022509,-0.021487,0.075954,-0.054964,0.030457,-0.013024,0.128096
combat:-0.017643,0.081075,-0.013735,0.069900,-0.068892,0.093893,0.130002,-0.006090,-0.026772,0.053346,0.039938,-0.078180,0.030065,-0.004431,-0.031077,0.015385,0.035177,0.034673,0.007410,0.006222,-0.054980,0.074420,0.078471,0.049928,-0.067430,0.065906,-0.056481,0.034156,-0.090761,-0.108611,0.042809,0.027739
combine:0.059059,0.017848,-0.038814,0.006902,-0.056191,0.002588,0.029212,0.008667,0.016057,-0.052996,0.015372,-0.034956,0.001698,0.010875,0.046068,0.037989,-0.088762,0.114699,-0.138592,-0.022614,-0.087870,-0.047069,-0.050941,-0.008879,0.044882,0.095280,-0.047938,-0.034088,0.006954,-0.089655,0.083920,0.030067
combined:0.003066,0.040773,-0.046519,0.036280,-0.047590,-0.012068,0.053996,0.032198,0.048954,-0.045099,0.034984,-0.113026,0.003348,-0.018226,-0.013862,0.011307,-0.018138,0.050755,-0.125420,0.010385,-0.110039,0.043330,-0.027353,0.018494,0.043570,0.062712,-0.024436,0.000019,0.013123,-0.086829,0.043642,0.020721
combustion:-0.051950,0.071910,0.025329,0.081520,0.078497,0.029758,0.061162,0.021504,0.021945,-0.009651,-0.008949,-0.059403,-0.074932,-0.014668,0.017492,-0.005041,-0.070777,-0.017915,-0.091491,-0.057104,0.014517,0.057209,0.023749,0.077462,0.037505,0.076675,-0.048161,0.048498,0.027068,-0.045757,0.050474,0.049338
come:-0.059076,0.006260,0.028090,0.012489,0.014639,-0.116100,0.031694,0.051627,0.042973,0.014880,-0.011720,-0.065466,-0.008082,-0.016874,-0.017488,0.004750,-0.012101,-0.017885,-0.103839,0.001861,-0.009014,0.089002,-0.045527,-0.017853,-0.034765,-0.003012,0.057775,0.045940,0.064905,-0.010601,-0.010029,0.117176
commercial:-0.015798,0.005511,-0.046670,0.038101,0.031262,0.003575,0.089875,0.060816,0.043599,-0.051239,0.017369,-0.012511,-0.014903,-0.004057,0.044615,-0.082612,0.008430,0.009124,-0.027648,0.039180,0.070921,0.071437,-0.003167,0.060244,-0.092322,-0.033211,-0.006362,0.053448,0.046040,-0.064618,-0.009645,0.033715
common:0.007785,-0.024939,-0.065139,-0.024090,-0.023358,0.016169,0.057970,0.047310,-0.028842,-0.013828,0.050149,0.002504,-0.023131,0.027975,0.017950,0.016834,-0.051199,-0.087364,-0.070771,0.030254,-0.156446,0.033978,0.008812,0.015491,-0.057321,-0.009095,0.022684,0.027012,-0.026058,-0.005555,-0.042424,0.058127
components:-0.008503,-0.007968,-0.000060,0.015369,0.015712,0.023681,0.079267,0.022318,0.007277,-0.019908,0.042761,-0.039178,0.000268,0.028922,0.010151,-0.022871,0.047551,0.013503,-0.066449,0.017071,-0.061368,-0.026525,-0.004014,-0.020783,-0.020667,0.096859,0.110815,0.003832,0.090334,-0.117309,0.054194,0.048081
compress:-0.053636,0.097234,-0.052607,0.046917,0.030777,-0.053864,0.017403,0.009178,0.003535,0.031746,-0.067130,-0.000111,0.021508,0.051952,-0.020338,-0.000511,-0.067266,0.078230,-0.112188,-0.043442,0.007337,-0.012225,-0.034957,0.037135,0.042278,0.083026,-0.042140,0.033856,0.071408,-0.067722,-0.008848,-0.030981
compressed:-0.105749,0.100845,-0.069936,0.032120,-0.021181,-0.047953,0.027706,-0.011080,0.012649,0.017125,-0.011416,0.064043,0.038141,0.026544,-0.070013,-0.016611,-0.021633,0.058538,-0.089180,-0.033823,-0.029167,-0.034344,-0.039189,-0.015232,0.110946,0.037028,-0.029754,0.057382,0.112547,-0.072194,-0.016610,-0.046697
compresses:-0.075142,0.063010,-0.045333,0.069134,0.002636,-0.063552,0.051680,0.009547,0.038547,0.015931,-0.048195,-0.000611,0.040257,0.053076,-0.011190,-0.005538,-0.065039,0.078065,-0.142360,-0.022818,-0.003374,-0.006736,-0.041531,0.045238,0.042591,0.061006,-0.053653,0.018765,0.080020,-0.064710,-0.009410,-0.012863
compressor:-0.141012,0.076631,-0.058834,0.047323,0.011761,-0.042091,0.013271,0.009895,-0.011661,-0.012675,0.020685,0.063341,0.031490,-0.022901,-0.036869,0.025290,0.027874,-0.014404,-0.074286,-0.105031,-0.061029,0.053119,-0.067163,-0.000178,-0.014579,0.085241,-0.087123,0.056336,0.059858,-0.086796,-0.000978,-0.054730
compressors:-0.141909,0.054462,-0.046874,0.055757,0.002964,-0.039068,0.030782,0.002829,-0.007400,-0.009585,0.029471,0.057261,0.031121,-0.012042,-0.019090,-0.003884,0.019496,0.013199,-0.091234,-0.084204,-0.057631,0.029861,-0.072943,0.014080,-0.019136,0.087111,-0.090748,0.049799,0.053164,-0.072775,-0.008789,-0.047422
concept:-0.016012,0.004693,-0.102939,0.013116,-0.022788,-0.054411,0.196144,-0.015407,-0.032797,0.072288,-0.007106,-0.003628,0.021598,-0.027716,0.071356,-0.031819,0.067143,0.002048,-0.085584,0.040619,0.032139,-0.015499,-0.025282,0.034193,-0.057732,0.075456,0.012175,0.085903,0.116259,-0.086255,-0.038467,0.087984
concepts:0.047108,-0.004957,-0.076115,0.014320,-0.058650,-0.032547,0.164070,-0.044156,0.002682,0.053630,-0.004907,0.004871,0.012832,-0.006414,0.069526,-0.027988,0.061130,0.037159,-0.092234,0.033525,0.053478,0.000436,-0.018023,0.051738,-0.029868,0.080427,-0.006828,0.070916,0.061106,-0.096958,-0.049802,0.089710
conclusion:0.034510,0.136552,0.001849,0.051897,-0.009813,0.022611,0.093433,0.060362,0.017524,0.038877,0.010160,0.015148,0.008142,0.072624,-0.056661,0.006407,0.043834,-0.067402,-0.004497,-0.049495,-0.035850,0.038765,-0.034737,0.042204,-0.002311,0.096339,-0.002729,0.019315,-0.032182,-0.104757,0.008582,0.066576
considerations:-0.030848,0.074547,-0.074000,0.019164,-0.014183,0.064319,0.111471,0.046004,-0.047392,0.023920,-0.012653,0.007544,-0.032688,0.035656,-0.012480,0.001414,0.083824,-0.081512,-0.068339,-0.005242,-0.052134,-0.078490,-0.013724,-0.016789,-0.061584,0.007451,0.021969,0.033472,0.033617,-0.085670,0.006062,0.039975
continents:-0.012210,0.032988,-0.079298,-0.005428,0.002642,-0.051149,0.024765,-0.051441,0.006668,0.028537,0.009707,-0.141599,-0.005737,0.057967,-0.003727,-0.071430,-0.081148,-0.086419,-0.051652,-0.035073,0.014441,0.049968,0.030123,0.038172,0.021642,-0.019688,0.039706,-0.023837,0.023711,-0.016149,-0.000969,0.026605
continue:-0.011983,0.033320,0.019557,-0.025283,0.002516,-0.003926,0.043718,-0.008547,0.011167,0.006725,0.007441,0.004540,-0.030471,-0.005378,-0.031203,0.085501,-0.077832,0.046344,-0.034732,-0.012491,-0.077629,0.086077,-0.023435,0.025709,-0.090990,0.087780,-0.031153,0.011746,0.058679,-0.096262,0.061714,0.006601
continues:-0.033578,0.006036,0.048929,-0.014540,0.015719,-0.019179,0.071705,-0.021521,0.013427,-0.034101,-0.024315,0.029855,-0.013260,0.014176,-0.071993,0.079481,-0.060938,-0.014639,-0.005726,-0.021573,-0.103154,0.072772,0.039950,0.029041,-0.066479,0.062726,0.005355,-0.000407,0.075781,-0.092340,0.019028,-0.002095
continuous:0.060966,0.013226,-0.052914,0.023952,-0.070261,0.034593,0.061669,-0.004503,-0.006598,-0.026670,0.063127,0.007069,0.036686,0.104973,-0.035148,0.033298,0.014709,-0.014973,-0.065275,-0.079388,-0.018523,0.040591,-0.005006,0.089241,-0.041050,0.091229,0.033278,0.030171,-0.015945,-0.028773,-0.022482,-0.025802
contribute:0.010783,0.026385,-0.018052,0.024400,0.029566,0.061917,0.066343,0.049422,0.016408,-0.013745,0.000370,-0.111999,-0.023945,-0.005033,-0.044009,0.041775,-0.020966,0.061517,-0.100262,-0.110773,-0.092726,0.023010,0.020966,0.016119,0.023146,0.022901,-0.010617,0.043126,0.021449,-0.055965,0.042855,0.042692
controls:-0.064727,-0.020950,-0.045608,0.056658,-0.058180,0.107266,0.104388,0.006870,0.039401,0.073388,0.060237,-0.021522,-0.011491,-0.081065,0.000187,0.038075,0.036126,-0.024128,-0.066386,0.011892,-0.047663,-0.038613,-0.013437,0.001489,-0.128015,0.098194,-0.103466,0.028808,0.055275,-0.159164,-0.048647,-0.051356
core:-0.020806,-0.041672,-0.050008,0.020418,0.056586,-0.009241,0.059559,0.118118,-0.033132,0.017852,-0.022945,-0.058428,-0.001261,-0.007306,0.016026,0.020781,0.046798,-0.033826,-0.010590,-0.031039,-0.071076,-0.018392,-0.056503,0.026790,0.027141,0.063613,-0.079195,-0.022887,-0.032936,-0.090221,0.003590,-0.029151
could:-0.123425,0.062470,-0.106460,-0.017754,0.014858,-0.022354,0.027392,-0.007822,-0.038257,0.005529,-0.011295,0.004417,0.006773,0.065655,0.030849,0.026547,0.019699,0.050455,-0.084628,0.027436,0.002944,0.016802,-0.041848,-0.015710,-0.063606,-0.004584,-0.032365,0.119599,-0.038225,-0.121475,0.021566,-0.014075
covering:-0.018984,0.122515,0.036156,0.057567,0.081561,0.023425,0.137833,-0.027913,-0.014616,0.021021,0.007774,-0.058334,0.005796,0.011066,-0.014141,-0.038694,-0.004530,-0.084998,-0.060653,-0.005945,-0.031220,-0.010494,0.033383,-0.032694,-0.042343,-0.004198,-0.008993,-0.011195,0.065225,-0.074457,-0.028659,-0.045675
critical:-0.061177,-0.006973,-0.066447,-0.011763,0.024810,0.033543,0.086849,0.117144,-0.013997,0.075831,0.029348,-0.088747,0.019806,0.016996,-0.040929,-0.030228,0.047681,-0.141316,-0.075454,-0.022648,-0.022918,0.030748,-0.047633,0.031880,-0.095092,0.023203,-0.024359,0.108711,-0.012842,0.001039,-0.031271,0.040608
cross:-0.011143,-0.009125,-0.060408,-0.011981,-0.009925,-0.006015,0.029912,0.027672,-0.014497,-0.007823,0.063826,-0.155594,-0.027185,0.005949,0.022512,0.050672,-0.075501,0.053280,-0.057591,0.041893,-0.103560,-0.023919,-0.015775,0.050646,-0.050949,0.033019,0.019864,0.014381,-0.026817,-0.118389,-0.010795,-0.045399
cycle:-0.044650,0.056482,-0.018765,0.043272,-0.036002,-0.001313,0.064135,0.010062,0.055362,-0.023736,0.023652,0.022225,0.047156,-0.032331,0.064498,0.022701,-0.014933,0.045592,0.004393,-0.036798,0.058726,-0.028214,-0.016521,0.030411,-0.018566,0.032436,-0.101757,0.054684,0.008114,-0.097759,-0.012980,0.148839
daily:-0.038744,0.059079,0.029422,0.102071,0.002724,-0.034608,0.118463,-0.030501,0.001905,-0.034731,0.018253,0.047064,-0.036503,0.063828,0.046001,-0.014521,-0.075202,-0.014707,-0.032699,0.021327,-0.124572,-0.007680,0.046629,0.037529,0.002191,0.045973,0.007960,-0.013050,0.034245,-0.114735,-0.022313,0.050392
dates:-0.020169,0.043963,0.032369,0.071033,-0.064551,0.105535,-0.019113,-0.016714,-0.007829,-0.004166,0.005120,-0.021365,-0.053727,0.005734,0.020696,-0.044645,-0.036759,-0.025628,0.015081,0.021786,-0.047740,-0.056056,-0.050485,-0.003390,0.000024,0.001354,0.006332,-0.063345,0.030599,-0.003518,-0.020751,0.078544
day:-0.074479,0.104453,0.026008,0.082153,-0.022976,-0.047555,0.181081,-0.039247,-0.035227,-0.056515,0.000093,0.039388,0.006250,0.070412,0.035183,0.008804,-0.070363,0.000612,-0.123903,0.019619,-0.072235,-0.006654,-0.027742,0.010353,-0.044293,0.129849,0.048161,-0.000868,0.024281,-0.116464,-0.081505,-0.002205
defense:-0.063834,0.105134,-0.082533,0.017887,0.078989,0.110852,0.124243,0.018396,0.042096,0.035249,-0.004358,-0.043439,0.082465,-0.008110,-0.030251,-0.006907,0.006393,-0.027029,-0.091348,-0.016092,-0.131630,0.034352,0.031227,0.010408,-0.024390,0.038961,-0.027432,0.014018,-0.048018,-0.142499,0.003539,-0.108248
designed:-0.053225,0.115413,0.026341,-0.006320,-0.071472,-0.049042,0.019366,0.032298,-0.042240,0.061400,-0.014326,0.030137,0.034806,-0.049038,-0.100709,-0.045507,0.034406,0.001365,-0.019788,-0.028457,-0.010771,0.064213,0.036128,-0.017654,-0.022769,0.085129,-0.017729,0.117683,0.126145,-0.147490,0.068038,-0.023865
detailed:0.009736,0.131140,0.011571,0.000853,-0.004281,-0.072862,0.038184,0.055477,-0.043310,0.044336,0.000501,-0.001770,-0.012642,-0.031412,-0.052688,-0.021870,0.082236,-0.094317,-0.137154,-0.038321,-0.035732,0.031451,-0.029677,0.028186,-0.007303,0.119583,-0.020960,0.092338,0.006670,-0.042099,-0.005338,0.045673
developed:0.033857,0.014118,-0.040124,0.010655,-0.061833,-0.024879,-0.011002,0.085420,-0.071393,0.070692,0.067199,0.044597,0.027839,-0.006920,-0.022186,0.036832,-0.041688,-0.068916,-0.045211,-0.058409,-0.124720,0.002487,0.066599,0.005495,0.031280,0.078213,0.002804,-0.007189,0.169042,0.017649,-0.014457,0.046202
different:-0.008637,-0.035826,-0.078004,-0.050065,0.029722,-0.125878,0.059391,0.014383,0.107739,-0.025773,0.014935,-0.031765,-0.058542,0.066373,-0.020254,0.005342,0.028217,-0.052442,-0.101350,0.071754,-0.059039,0.057665,-0.024005,0.002024,-0.031440,0.045233,0.019806,0.080936,0.072607,-0.120820,0.009534,0.021926
distance:0.046581,0.067513,-0.061857,-0.078416,-0.034256,0.036782,0.010309,0.071925,0.022559,-0.038893,0.081082,-0.069784,0.012371,0.018700,-0.067438,-0.014470,0.065586,-0.096714,-0.172280,-0.009374,0.057617,0.002484,0.026500,0.069684,0.005199,0.050174,0.042565,0.017492,-0.019407,-0.022458,-0.011507,-0.036178
done:-0.088228,-0.027469,-0.037944,-0.034966,-0.038820,-0.014861,0.036282,0.072023,-0.069036,0.006868,-0.022064,-0.061055,-0.037711,0.049296,-0.050679,0.081024,-0.069329,-0.028298,-0.053535,0.035901,0.022021,0.072851,-0.092355,-0.001661,-0.039926,0.009940,-0.023251,0.055732,-0.067629,-0.065344,0.002824,0.051628
drive:0.066378,0.003807,0.042642,0.084821,-0.048624,0.012507,0.067289,0.001014,0.018569,-0.018136,-0.024602,-0.026076,0.002672,-0.001754,-0.037564,-0.023473,0.039784,-0.031601,-0.063931,0.037373,-0.021479,0.058354,-0.003743,-0.014602,-0.068342,0.027718,-0.007187,0.032212,-0.025640,-0.103133,-0.027233,-0.013852
driving:0.054167,0.012494,0.027364,0.087362,-0.019555,0.039601,0.119503,0.022882,-0.009321,-0.029139,0.041133,-0.010937,0.000366,0.038961,-0.029410,-0.048526,0.028720,-0.035209,-0.070137,-0.004300,-0.048271,0.051513,-0.004266,0.028566,-0.046647,0.071271,-0.020903,0.024957,0.026666,-0.107785,-0.045463,0.008014
during:0.004129,0.043646,-0.057064,0.010346,-0.009634,0.015531,0.117261,-0.006740,0.069971,-0.036989,0.015556,0.027198,0.034041,0.042892,0.060512,-0.012741,0.074363,-0.029511,-0.085512,-0.043203,0.059564,-0.051794,-0.017021,0.004559,-0.007853,0.016119,-0.000656,0.009253,0.122126,-0.055520,-0.029246,-0.026632
each:0.018502,0.002772,-0.082255,-0.031218,-0.054029,0.010767,0.020931,0.007106,0.066437,0.002309,0.014522,-0.114452,0.001058,0.010270,-0.028814,0.078469,-0.127425,-0.001766,-0.088924,-0.001162,-0.068286,0.003785,-0.010349,0.011220,-0.077100,0.035765,0.015113,0.012600,0.035175,-0.106647,-0.046257,-0.007807
early:-0.008646,0.041513,-0.049749,0.046108,-0.003687,0.041854,0.003623,0.047100,0.015148,0.036551,-0.006394,0.055038,-0.041982,0.089038,0.067238,0.048993,0.061238,-0.043174,-0.037111,0.006529,-0.018497,0.002363,-0.035430,-0.006020,0.076508,-0.010040,0.014546,0.016794,0.045576,-0.026726,-0.021718,-0.066176
educational:0.024396,0.069423,-0.018574,0.073046,-0.059511,-0.007477,0.049222,0.026047,0.010641,0.110542,0.054178,-0.002138,-0.020668,0.005968,-0.033747,-0.054161,0.009123,-0.047089,-0.037190,-0.127414,-0.002767,0.073067,0.060040,0.036453,0.007213,0.074140,0.017353,-0.028958,0.027318,-0.060610,0.010091,0.025482
efficiency:0.009056,0.101923,-0.030569,0.058902,-0.003929,-0.028438,0.050052,-0.022948,0.009955,-0.010279,0.002559,0.089598,0.022240,-0.014384,0.028538,-0.027617,0.071234,0.043856,-0.143389,-0.067488,-0.014909,-0.122987,-0.014352,-0.002832,0.063490,0.024853,-0.103367,0.015178,0.040960,-0.074231,0.007823,-0.024473
efficient:0.032417,0.111319,-0.035741,0.073152,-0.034744,-0.050898,0.056441,-0.055364,-0.000059,-0.006834,0.004751,0.068127,0.016123,0.007002,0.026992,-0.029304,0.033319,0.047975,-0.123691,-0.084602,-0.019151,-0.088495,-0.024458,0.009326,0.080611,0.040759,-0.060919,0.008668,0.084998,-0.052280,0.016697,-0.006307
efficiently:-0.012404,0.087229,-0.008410,0.048776,-0.073321,-0.047681,0.070264,-0.064022,-0.011492,-0.003034,0.020363,0.087793,0.003687,0.017349,0.001681,-0.050970,0.046962,0.085484,-0.116749,-0.084080,-0.072783,-0.092903,-0.019923,-0.023057,0.052275,0.008291,-0.050754,-0.010885,0.103479,-0.103254,0.045558,0.024575
electric:-0.042049,0.073444,0.024226,0.068146,-0.010390,-0.012696,0.116933,0.007181,0.014476,0.032411,0.062570,-0.065921,-0.015147,0.029819,-0.002076,-0.047775,-0.015437,-0.036663,-0.068053,0.009688,0.021227,0.039868,0.021410,-0.031713,0.020922,0.066935,-0.025966,0.077758,-0.036519,-0.136743,-0.029657,-0.035675
emissions:0.016895,0.093659,0.079285,0.058768,0.095959,-0.021112,0.103124,-0.009041,0.008367,0.014249,0.003718,-0.069587,-0.035862,0.020657,0.000056,0.040082,-0.018506,0.023444,-0.077549,-0.052130,-0.009467,0.049775,-0.009044,0.007093,-0.018696,0.022683,-0.068468,0.031482,0.040876,-0.044414,0.019789,0.021457
enabling:0.036931,0.031871,-0.037878,0.016903,0.007467,0.094737,0.041286,-0.023162,-0.118499,-0.007470,0.057902,0.082710,0.007270,0.043831,0.028976,0.060267,0.100732,-0.111792,-0.076959,-0.001923,-0.000470,-0.085482,-0.042868,-0.033338,0.024752,-0.000620,-0.087794,0.029811,0.121509,-0.046357,-0.081453,-0.004524
energy:-0.035395,0.099096,-0.010701,0.142395,0.029749,-0.014693,0.131926,-0.029108,0.052319,0.010371,-0.014343,-0.066067,-0.071432,-0.009318,0.010564,-0.013075,0.049846,0.002109,-0.162371,-0.036617,0.053869,-0.024182,0.032887,0.038837,0.051656,0.093377,-0.054885,0.103242,0.047667,-0.075787,0.003225,-0.032116
engine:-0.131696,0.060543,-0.014538,0.034953,-0.022929,-0.001641,0.040565,0.008590,-0.027388,-0.098399,-0.044449,-0.048280,-0.018844,-0.084762,-0.063337,-0.007668,0.028484,-0.024091,-0.085444,-0.113544,-0.036487,0.062607,0.007806,0.025907,-0.051039,0.078357,-0.089855,0.104249,0.015966,-0.178829,-0.002500,-0.005937
engineering:-0.070995,0.022006,0.015982,0.019319,-0.023464,-0.105072,0.078545,0.035563,-0.063459,-0.036870,-0.020323,-0.056733,0.025155,0.024147,-0.114880,-0.019432,-0.046375,-0.059056,-0.041618,-0.109305,0.032637,0.049191,-0.007573,-0.030387,0.023855,0.063053,0.026035,-0.001039,0.055120,-0.127240,-0.056031,0.063154
engineers:-0.079539,0.042036,0.028993,0.045488,-0.049839,-0.114979,0.099587,0.016847,-0.036042,-0.026139,-0.038885,-0.104369,0.043147,-0.001345,-0.124318,0.018399,-0.047178,-0.051640,-0.016673,-0.148101,-0.028980,0.023159,-0.004880,-0.006200,0.033329,0.062308,0.032642,0.019386,0.065629,-0.114885,-0.061096,0.018473
engines:-0.112129,0.038789,0.009510,0.035976,-0.053626,0.006141,0.005562,-0.000787,-0.031110,-0.068805,-0.022962,-0.025660,-0.042671,-0.067757,-0.066783,0.016133,0.008389,0.005783,-0.109889,-0.110329,-0.014543,0.035655,0.002932,0.020394,-0.068185,0.082852,-0.120193,0.086166,0.041233,-0.136140,-0.019851,-0.015844
enhanced:-0.050833,0.021362,-0.001309,0.053236,0.010632,-0.048604,0.085021,0.035028,-0.058415,0.004961,0.034838,0.031067,-0.012271,-0.039211,0.012246,-0.002534,0.134986,-0.021297,-0.166793,-0.028846,-0.057282,-0.053432,0.001779,0.018201,0.041674,0.018675,-0.019524,0.098980,0.104737,-0.104632,-0.014866,0.028703
enters:0.032082,0.009279,-0.054390,0.002908,-0.091272,-0.026526,0.109019,-0.004616,0.025477,-0.027428,-0.022434,-0.099313,0.033341,-0.001694,0.003419,-0.048857,-0.016503,-0.077603,-0.049788,-0.028184,-0.029547,-0.050297,-0.067004,-0.002650,-0.063403,0.001540,-0.023552,-0.000865,0.085631,-0.106563,-0.100099,0.044649
environmental:0.029424,0.059360,0.046551,0.040325,0.092553,-0.043761,0.093006,-0.027914,-0.015670,0.049170,0.014624,-0.121006,-0.030424,0.026348,-0.005104,0.000566,-0.071307,-0.018558,-0.068948,0.010090,-0.073088,0.091519,0.018508,-0.010786,-0.104230,0.077732,-0.011672,0.061920,0.044018,-0.063653,0.046310,0.135795
equal:0.010218,0.083705,-0.008763,0.030471,-0.091114,-0.068972,0.084783,0.001407,0.087041,0.003752,0.004521,-0.140847,0.044215,0.011938,0.026608,0.027217,-0.040183,0.027849,-0.148162,-0.032568,-0.038945,-0.051138,-0.030520,0.097506,-0.056118,0.030186,-0.041011,-0.012509,0.080047,-0.039019,0.023029,-0.015810
essence:-0.055996,0.034953,0.015790,0.010636,0.016487,-0.004941,0.099694,0.010421,0.023581,-0.073626,0.027189,-0.048248,-0.031997,-0.018748,0.058936,0.041322,0.095931,0.046785,-0.066276,-0.054991,0.016603,0.070643,-0.049885,0.019059,-0.006360,0.099768,-0.036587,-0.008678,0.059890,-0.162892,0.055776,0.036516
essential:-0.031758,0.019307,0.016919,0.009608,0.127245,-0.003033,0.094933,0.051164,-0.070044,0.003430,0.009627,-0.027220,-0.024041,0.030946,-0.005073,0.029729,0.046825,-0.006597,-0.153712,-0.055252,-0.110090,-0.003321,-0.007072,-0.050526,-0.064396,0.070013,-0.010643,0.021450,0.034352,-0.111474,-0.019009,0.064199
eventually:-0.055770,-0.042139,0.005488,-0.003878,-0.029725,-0.043261,0.007952,0.035293,0.003347,-0.022033,0.073059,0.091305,0.030272,0.101172,0.079083,0.064460,0.006521,-0.058993,-0.033432,-0.019779,-0.101913,0.068758,-0.000331,-0.056994,-0.027127,0.016383,0.000844,-0.035614,0.050226,-0.080359,-0.024380,-0.060277
every:0.004888,0.012476,-0.015190,-0.029376,-0.017349,0.048394,0.104746,0.025796,0.103406,0.037677,0.047330,-0.022636,-0.026236,0.014994,-0.025524,0.070750,-0.059764,-0.026222,-0.109568,-0.025511,-0.074176,0.021194,-0.005101,-0.028017,-0.075405,0.031701,0.028122,-0.037681,-0.015217,-0.088299,-0.084217,-0.003581
evolve:-0.096225,-0.006428,-0.048613,0.037408,0.008465,-0.006089,0.070922,0.011962,-0.027508,-0.013552,0.049051,-0.087452,-0.013962,0.011085,0.029263,0.034743,0.015090,-0.003509,-0.061907,-0.031675,-0.012931,0.046420,0.050637,-0.020357,-0.049696,0.003291,-0.021099,0.023956,0.115758,-0.172746,-0.006189,0.000556
example:0.006033,-0.068547,-0.002190,0.059435,-0.053802,-0.019390,0.038688,0.049018,-0.031277,0.010487,0.014238,0.006110,0.059506,0.020190,0.002305,0.005757,0.022248,-0.014452,-0.134198,-0.033488,0.016373,0.007389,-0.035197,-0.005580,-0.031220,-0.092378,-0.017875,0.078395,0.139730,-0.092213,-0.028554,-0.032469
exhaust:-0.035424,0.094613,0.075321,0.073882,-0.004402,-0.026560,0.092478,0.011547,0.013948,-0.031277,-0.016254,-0.075095,-0.049300,-0.081892,0.031895,0.020601,0.087094,0.018346,-0.030917,-0.093199,-0.003219,0.054015,-0.039239,0.028311,0.047600,0.043887,-0.063321,0.071403,0.013523,-0.083612,0.007614,-0.037268
expelled:-0.031810,0.034109,0.026992,0.036721,0.025141,-0.013997,0.073073,-0.095643,0.005473,0.003593,0.077442,-0.024158,0.041718,0.023588,-0.016796,-0.036586,-0.032033,-0.012836,-0.096070,-0.106768,0.002808,0.000496,-0.035821,0.027145,0.037046,0.028068,-0.004342,-0.014234,-0.006563,-0.071218,-0.018047,-0.092205
expelling:-0.016105,0.023726,0.039740,0.031508,-0.037188,-0.038061,0.133073,-0.026782,0.028784,-0.012387,0.071202,0.018184,-0.004618,0.002329,-0.012292,-0.002377,-0.093017,0.088609,-0.110070,-0.044283,0.047606,0.019992,-0.001571,-0.013794,-0.005666,0.011019,-0.060543,-0.044399,0.036483,-0.120698,-0.011445,0.012475
expels:-0.032157,0.005774,0.026912,0.047264,-0.027681,-0.043034,0.104715,0.023144,0.064242,0.009922,0.080422,0.000543,-0.008464,0.000028,-0.014789,-0.003083,-0.081550,0.073549,-0.114729,-0.030549,0.030935,0.037837,0.009984,-0.001006,-0.003011,0.022993,-0.073270,-0.057736,0.026228,-0.097975,-0.019719,-0.008169
experimental:-0.023647,0.026198,0.012312,0.061355,0.021371,-0.097425,0.006425,0.057424,-0.022847,0.046216,0.061242,-0.035741,0.017952,0.015895,-0.066251,-0.000087,0.058248,-0.015893,-0.085558,0.024841,-0.078006,-0.053589,0.046367,0.017615,-0.067529,0.059179,-0.041725,0.048103,0.083417,-0.087571,0.057665,0.041719
exploring:0.041384,-0.013037,0.048705,0.059236,0.045846,-0.005134,0.089990,-0.038455,-0.000268,0.006525,0.000986,-0.086656,-0.010987,0.057898,-0.010143,0.018422,-0.018495,-0.000180,-0.015297,-0.028002,-0.063081,-0.033524,0.017193,-0.034980,-0.036613,0.050189,0.023270,0.006939,0.075258,-0.065670,0.004454,0.086987
expulsion:0.008690,0.020999,0.063163,0.043266,0.011230,-0.020685,0.065889,-0.109104,-0.019682,-0.014473,0.083948,0.011149,0.016175,0.066630,-0.019089,-0.046769,-0.046359,0.017033,-0.071475,-0.077134,0.030534,0.009726,-0.020711,0.010942,0.026316,0.040553,0.014196,-0.040652,0.002761,-0.074077,-0.017950,-0.065519
extracts:-0.047208,-0.002520,-0.003423,0.074420,0.077858,0.070322,0.113525,0.016433,0.014158,-0.042728,0.018931,-0.015019,-0.029499,-0.029955,-0.006219,0.043631,0.013290,0.044825,-0.035917,-0.086377,-0.049306,0.033193,0.005285,0.010650,0.011183,0.059761,-0.050509,-0.027643,0.146919,-0.107047,0.065075,0.012213
face:-0.077111,0.087894,-0.021635,0.009314,0.039631,-0.024406,0.086941,0.002442,-0.036350,-0.044587,0.032564,-0.151973,-0.032747,-0.021021,0.028189,-0.074817,0.007055,-0.051039,0.002006,0.026018,-0.015915,0.080761,-0.019834,-0.024314,0.010173,0.024735,0.007252,0.042678,0.040995,-0.120901,0.034646,-0.025617
fan:-0.049139,0.007905,0.006116,0.005451,0.036158,-0.004587,0.117147,0.002914,0.105995,0.062839,0.051863,-0.081589,0.032643,-0.057167,0.013807,-0.007884,0.012677,-0.045390,-0.081522,-0.058400,-0.090074,0.014210,-0.026646,0.058281,-0.011932,0.002095,0.001774,0.066720,-0.014341,-0.029462,0.015057,0.046787
far:0.007258,0.024141,-0.101178,-0.036620,0.053334,-0.038639,-0.025086,-0.018289,0.010151,-0.011113,0.019344,-0.026652,-0.038869,0.014501,0.026745,0.051892,0.070713,-0.092867,-0.083642,0.035826,0.010179,0.062773,0.060061,0.029168,0.069047,0.082919,0.023824,-0.024486,-0.035967,-0.093542,-0.020360,-0.010788
few:0.096916,-0.066409,-0.052213,-0.010384,-0.012713,0.010059,0.020556,0.035926,0.029883,0.064115,-0.035308,-0.102131,0.008385,-0.019651,0.026163,0.056464,-0.055074,-0.090840,-0.081509,-0.017115,-0.132076,0.008918,0.004998,-0.015114,-0.055483,-0.079884,-0.002989,-0.008967,0.026529,-0.047927,-0.055515,0.051820
first:-0.042191,-0.045165,-0.048889,0.038404,-0.069181,-0.024085,0.039020,0.007808,0.017367,-0.063445,-0.007452,0.006112,-0.009848,0.030516,-0.007056,0.039046,0.026343,-0.006991,-0.013558,0.023150,0.023078,0.000939,-0.030969,0.003508,-0.013377,-0.018077,-0.031406,0.084963,-0.004892,-0.083353,0.019087,-0.092453
flew:0.040986,0.061536,-0.001808,0.058310,0.020060,0.018378,0.127288,-0.034950,-0.012486,0.022351,0.068541,-0.013474,-0.021533,-0.002161,-0.029656,0.058814,-0.057185,0.014043,-0.119519,-0.045664,-0.033035,0.118536,-0.031985,0.054076,-0.012489,0.064263,-0.010239,0.007542,-0.005318,-0.106134,0.008485,0.093803
flight:0.067321,0.016799,-0.054571,0.060513,-0.031169,0.020446,0.106101,-0.012548,-0.010192,0.041880,0.034902,-0.004646,-0.055528,0.008520,-0.018562,0.024685,-0.041808,-0.099333,-0.102742,-0.032525,-0.009906,0.036573,-0.041781,0.050364,0.009323,0.037568,0.003674,0.005380,0.003699,-0.104746,-0.001407,0.044065
for:-0.080950,0.048515,0.011159,-0.016470,0.045095,0.017770,0.073247,0.023551,-0.042215,-0.029677,0.056959,0.018645,0.029506,-0.004587,-0.016717,0.026328,-0.033890,0.077651,-0.028521,-0.071826,-0.031282,0.059699,0.002054,-0.011249,-0.021565,0.028761,-0.083558,0.016792,0.046538,-0.038012,0.001288,-0.040147
form:-0.105460,0.055690,-0.026517,0.014141,-0.057053,0.054300,0.020789,0.021551,-0.019619,-0.009503,-0.001534,-0.037795,-0.006829,-0.022457,0.010118,0.017259,-0.067263,-0.037199,-0.023383,-0.010388,-0.013659,0.004689,-0.039223,0.016572,-0.044839,0.053988,0.017489,0.019478,0.121147,-0.118444,0.006536,-0.005622
formal:-0.010984,0.105025,0.042318,0.035280,-0.052535,-0.016400,0.128706,-0.045378,-0.030374,0.031354,-0.000288,-0.103369,-0.027710,0.002383,0.060490,0.015637,0.033146,-0.032948,-0.012169,0.044059,-0.054523,0.002402,0.017821,-0.002655,-0.003176,0.029344,0.018610,-0.002386,-0.017624,0.002457,-0.062948,0.075822
formatted:-0.007006,0.073801,-0.058533,0.074297,-0.010368,0.004203,0.053796,0.025401,0.036090,0.054718,0.009764,-0.011167,-0.010091,-0.031921,-0.083678,-0.006234,-0.074696,0.030744,-0.101060,0.037792,0.000118,0.083432,-0.017572,0.022735,0.038495,0.049149,-0.002963,0.031617,-0.001308,-0.076189,-0.083066,-0.047292
forward:-0.015715,0.012219,-0.035789,0.000540,-0.014755,0.047899,0.041298,0.001110,0.024798,0.021102,0.002734,-0.001861,-0.006074,-0.005437,0.004278,0.029502,-0.015104,0.067065,-0.029174,0.009068,-0.121566,0.043733,0.031710,0.029913,-0.039912,0.022070,-0.002702,-0.004446,0.000112,-0.091633,-0.010340,-0.049044
fossil:-0.157817,0.110233,0.061109,0.056245,0.010089,0.001709,0.037265,0.003411,0.013383,0.030747,-0.010620,-0.078599,-0.071533,0.041857,-0.075601,0.051146,-0.045870,-0.012226,0.078175,0.039493,0.005138,0.060700,-0.004249,-0.007055,0.047375,0.013325,-0.013185,-0.000072,0.120718,-0.091183,0.002508,0.069378
found:-0.019711,-0.014025,0.013792,0.034500,-0.005963,-0.044943,0.008642,0.112211,0.022249,-0.016607,0.056658,0.007485,0.015053,0.039834,-0.061390,0.025964,0.001991,-0.013488,-0.041078,0.037999,-0.082220,0.136772,-0.023267,-0.012841,0.032913,0.016070,0.002351,0.029061,0.088755,-0.057026,-0.066483,0.089430
foundation:0.023496,0.002302,-0.025326,0.034396,0.116035,-0.049784,0.021160,0.031060,0.004603,0.014022,0.020558,-0.060058,-0.032628,0.015707,-0.011492,-0.017964,-0.035929,0.000494,-0.003469,-0.032194,-0.084627,0.048381,0.006210,0.016899,-0.033074,0.049746,-0.077115,-0.033363,0.062130,-0.098344,0.036136,0.007076
four:0.120077,0.017664,-0.076730,-0.020280,-0.119112,0.041307,0.058477,-0.020228,0.046727,0.009262,-0.049584,-0.109748,0.048734,-0.011522,-0.062036,0.061821,-0.098211,-0.018810,-0.110870,-0.064057,-0.018858,-0.048620,0.052710,-0.018642,-0.030729,-0.008535,-0.027996,-0.025101,-0.004053,-0.074245,0.002069,0.024935
frank:-0.030974,0.032949,-0.032102,0.103334,0.018478,0.058527,0.032306,0.030717,0.042844,-0.122075,-0.024464,-0.056376,-0.034861,0.041080,-0.013074,0.067658,-0.038763,0.037760,-0.018449,-0.017425,-0.080802,0.030775,-0.024778,-0.049108,-0.050080,0.029168,-0.002962,0.023914,-0.007167,-0.093841,0.058158,0.031407
from:-0.075214,0.051694,0.008101,0.062724,0.069662,0.005080,0.122117,0.037163,-0.032550,0.006162,0.017031,-0.015930,0.028647,-0.052325,0.015687,0.032852,-0.011885,0.017726,-0.051464,-0.005631,0.012689,0.083818,-0.017028,0.014566,0.006450,0.005239,-0.060857,0.034319,0.074158,-0.062843,0.023205,-0.026304
front:0.045137,0.034945,-0.051647,0.006140,0.011598,0.003029,0.017039,0.015182,0.013611,0.007496,-0.008239,0.054166,0.017833,-0.083165,0.012526,-0.038233,0.016261,-0.003920,-0.017172,0.067349,-0.109065,0.014264,0.012053,0.015833,-0.050197,0.021225,-0.003269,0.022072,-0.012969,-0.159650,0.022091,-0.007142
fuel:-0.042598,0.072607,-0.028446,0.090919,0.063780,0.021310,0.151577,-0.004847,-0.005737,-0.042525,-0.026017,-0.046957,-0.084699,-0.012631,-0.028047,-0.021509,0.033976,-0.036443,-0.082013,-0.060326,0.061018,0.015109,0.058517,0.057454,-0.030792,0.096817,-0.079055,0.063117,0.002433,-0.100614,0.029323,0.052678
fuels:-0.056092,0.048736,0.020678,0.092558,0.082468,0.038466,0.077650,0.007294,-0.009745,-0.038604,-0.044120,-0.065045,-0.113117,0.000816,-0.010676,-0.016794,-0.013416,-0.016654,-0.073886,-0.069386,0.081169,0.008232,0.070761,0.039709,0.002453,0.103291,-0.071303,0.026742,0.036713,-0.075712,0.041559,0.039704
future:-0.108838,0.061655,-0.009918,-0.008348,-0.047973,0.001473,0.058749,0.012043,0.104101,-0.032592,-0.006724,-0.022108,-0.024815,0.025849,-0.043727,0.032969,-0.046152,-0.100996,-0.057601,-0.063928,-0.040504,-0.048546,-0.003244,0.021412,-0.042414,0.049415,-0.007845,-0.028761,-0.003462,-0.039413,0.063386,0.077637
gas:-0.048004,0.044768,-0.043353,0.085783,0.013715,-0.015022,0.176454,0.026364,0.031747,-0.051771,-0.006545,-0.008068,-0.098071,0.013716,-0.027315,-0.070543,0.045688,-0.064514,-0.089033,-0.021197,0.017547,0.069844,0.049804,0.052844,-0.025350,0.104706,-0.023774,0.056452,0.049101,-0.059823,0.029790,0.036224
gases:-0.050325,0.010226,-0.034045,0.067608,0.042343,0.009128,0.125880,0.027979,0.021778,-0.012407,-0.003707,-0.032360,-0.088137,0.023472,0.002659,-0.035971,0.022097,-0.038596,-0.091386,-0.006161,0.011529,0.057954,0.004333,0.037798,0.011357,0.065075,-0.016378,0.025607,0.076649,-0.035345,0.020343,0.041652
generates:-0.081134,0.063742,-0.088629,0.036468,-0.029393,-0.019012,0.039653,-0.043908,0.015625,-0.006521,0.064576,-0.134116,0.102085,-0.111537,-0.011050,0.041042,-0.067888,-0.010670,-0.019152,-0.067918,0.033504,0.016486,0.005633,0.024738,0.060120,-0.008717,-0.014638,0.063160,0.157948,-0.049605,0.003383,0.062545
generation:-0.059950,0.065078,-0.027191,0.049999,-0.049874,0.046497,0.002851,-0.035156,0.029645,0.013541,0.087835,-0.026347,0.037790,-0.106082,-0.007344,0.021768,-0.076771,-0.067090,-0.039989,-0.063635,-0.016771,0.026145,0.033296,0.025814,0.030091,0.030126,-0.012809,0.024091,0.073342,-0.025397,0.078576,0.136140
german:-0.018228,0.030505,0.001619,0.056274,-0.016927,-0.002624,0.116658,0.056354,0.023071,-0.069715,0.038399,-0.086150,-0.038441,0.008472,-0.043498,0.036857,0.003477,0.017065,-0.035367,-0.017721,-0.110252,0.008470,0.085876,-0.011136,0.094398,-0.014027,-0.008115,-0.027218,0.030611,-0.082007,0.019970,0.032284
germany:0.035239,0.071156,-0.040527,0.041512,0.054260,0.001728,0.030427,0.009602,0.021287,-0.051088,0.007231,-0.122314,0.034138,0.049178,-0.021907,-0.028764,-0.011214,-0.125429,-0.017991,-0.102457,-0.052739,0.010434,0.080913,-0.044399,0.079972,0.003097,0.012669,-0.009497,0.017309,-0.117697,-0.035956,-0.018530
global:-0.045701,-0.049160,-0.024637,-0.008146,0.018077,-0.043936,0.030141,0.001130,-0.016432,-0.015547,0.009703,-0.042825,-0.000993,0.074339,-0.060795,-0.021263,0.008161,-0.051187,-0.125722,-0.069081,-0.020364,0.035017,0.022072,0.019589,-0.035994,-0.037538,-0.019860,0.070245,0.082369,-0.088123,-0.000998,0.102265
gloster:-0.024337,0.002261,-0.055574,-0.001136,-0.045016,-0.061069,0.062775,0.051061,-0.010322,-0.020527,0.037617,-0.025997,-0.056305,0.005468,-0.079415,-0.044537,0.028526,-0.037931,-0.015017,-0.053349,-0.047560,-0.024964,-0.016186,-0.007886,0.014618,-0.001549,-0.031653,0.009417,0.029177,-0.126069,-0.013892,-0.073568
greater:0.050769,0.019639,-0.027335,-0.029797,-0.042684,-0.048471,-0.042554,0.137519,0.015846,-0.043228,-0.006496,-0.034435,0.019882,0.023447,0.032604,0.001831,0.021618,-0.049613,-0.153437,-0.064944,-0.047747,-0.012783,-0.011254,0.068439,0.021475,-0.045238,-0.056010,0.037814,0.121988,0.019146,-0.027971,0.043505
greek:-0.035505,0.036437,-0.006055,-0.020403,-0.075480,-0.062623,0.160689,0.034540,0.060498,0.035700,0.026314,0.020509,-0.039799,-0.002694,-0.014108,-0.015836,-0.012335,0.041651,-0.038370,-0.061935,-0.008614,0.008175,0.045825,0.067028,0.049456,0.015949,-0.028501,-0.078545,0.018157,-0.042898,-0.025516,0.012301
greenhouse:0.022462,0.075350,-0.015495,0.012800,0.094699,-0.035822,0.007922,-0.032693,0.023645,0.062712,0.044585,-0.083682,-0.006242,-0.000224,0.053666,-0.037378,-0.054801,-0.014022,-0.041060,-0.081798,-0.088197,0.001999,-0.025288,0.017589,-0.012262,0.066596,-0.115648,0.125672,0.020976,-0.036320,0.023526,0.054967
gunpowder:-0.043244,0.082493,0.002842,-0.007395,0.006503,0.009113,0.127245,0.024280,-0.075455,0.009162,0.007242,0.002778,0.010359,0.006952,-0.027461,-0.043948,0.037468,-0.003088,-0.078439,-0.077444,-0.072759,0.010922,0.070696,0.086780,-0.018480,0.081275,-0.045670,0.060816,0.028274,-0.088044,0.050342,-0.044154
hans:-0.082707,0.059195,-0.002046,0.049316,-0.028002,0.035180,0.069313,0.038439,-0.014917,-0.035568,0.003028,-0.116983,-0.007176,0.009527,-0.004594,0.003399,-0.002115,0.011972,0.037331,-0.015171,-0.043906,-0.026312,-0.010030,-0.115847,0.086269,0.072861,0.051177,-0.087243,-0.023810,-0.088949,0.029101,-0.023890
have:-0.028764,0.111770,-0.000002,-0.008131,0.068136,-0.043234,0.038286,0.041454,-0.080004,-0.039015,0.030060,-0.040568,0.019144,-0.026204,-0.014402,0.061603,-0.031158,-0.017959,-0.007394,-0.034020,-0.039861,-0.020598,0.111032,0.006263,-0.005084,-0.024259,-0.027776,0.079422,-0.066434,-0.048977,0.060344,0.035771
heart:-0.066730,0.059121,-0.001975,0.049113,-0.004213,-0.020185,0.078118,-0.048309,0.070631,-0.058744,0.044656,-0.067872,-0.045855,0.006993,0.007980,-0.028198,-0.000000,-0.087605,-0.093758,0.052112,-0.097845,0.029237,-0.052634,0.021573,-0.065644,0.105915,-0.005333,-0.014418,-0.006783,-0.102526,0.049769,0.003211
heights:0.019053,0.043632,0.006739,0.028444,-0.077733,0.019713,0.034537,0.086367,-0.010462,-0.014319,0.008998,-0.010286,0.055586,0.009139,0.019891,0.028630,0.007531,0.090292,-0.039809,0.013770,-0.024514,0.035142,0.043265,0.062235,-0.018137,-0.007863,-0.013568,0.073613,0.036331,-0.078347,0.040081,0.025750
heinkel:-0.045704,0.037744,-0.005832,0.026607,-0.061628,0.046901,0.063489,0.050652,-0.048515,0.002350,0.012738,-0.029174,0.003481,0.009058,-0.055075,-0.022356,-0.108630,-0.004938,-0.060259,-0.110681,0.031949,0.010372,-0.038424,-0.054511,0.071438,0.002270,0.010710,-0.007861,-0.029825,-0.127619,0.056452,-0.036534
hercules:-0.058001,0.048685,-0.012770,0.029180,-0.058573,-0.019478,0.125459,0.034544,0.102889,-0.016663,-0.029148,-0.041098,0.044102,0.047459,-0.002454,-0.056326,0.054756,-0.032917,-0.047269,-0.024752,-0.028346,0.040730,-0.063696,0.059785,-0.070548,-0.044179,-0.007677,-0.029085,-0.010067,-0.098608,-0.000476,-0.075955
here:-0.053416,-0.005586,-0.031148,-0.009399,0.011608,0.004625,0.029703,0.066153,0.020974,-0.006492,0.003948,-0.040843,-0.037982,0.029295,0.029518,0.023272,0.000901,0.068550,-0.100187,-0.084875,0.019871,0.062817,0.003119,0.055503,-0.005669,0.002307,0.006923,0.058320,-0.021270,-0.108472,-0.088768,0.056828
hero:-0.080358,0.097004,-0.069646,0.015174,-0.040054,0.012886,0.118935,-0.015757,0.025519,-0.001683,0.015337,0.042394,0.009050,0.021610,-0.020679,-0.019015,0.022428,0.082981,-0.082607,-0.030223,-0.034943,0.015685,0.024884,0.020632,-0.048941,0.059882,0.014775,-0.039461,-0.028381,-0.051304,-0.013052,-0.029436
high:-0.023597,0.019610,-0.058490,0.003449,-0.118505,-0.013326,0.056287,0.070538,-0.018933,-0.020984,-0.025400,-0.039463,0.019624,-0.044987,0.050754,-0.018411,0.002411,0.003514,-0.096027,-0.022911,-0.022308,0.020281,0.046521,0.057113,-0.042228,-0.024570,0.003412,0.037774,-0.061523,0.002868,-0.033026,0.049626
history:-0.032607,0.098843,-0.022565,0.045161,-0.037200,0.052521,0.033380,-0.027801,-0.050829,0.022839,0.017650,0.015150,0.028026,-0.015321,-0.133114,-0.015166,-0.069760,-0.062327,-0.058342,-0.095945,-0.040416,0.013500,0.034658,-0.001961,0.018135,0.112053,0.021343,-0.001754,0.032738,-0.084214,-0.061719,-0.025095
hot:-0.072699,-0.032190,-0.036376,0.064680,-0.028090,-0.074054,0.073955,-0.004173,-0.014228,0.057912,-0.006022,-0.093835,-0.009534,0.047523,0.004454,-0.013221,0.065859,0.054049,-0.091306,-0.079899,-0.114947,0.000292,-0.054577,-0.009819,0.025477,-0.001327,0.039864,0.051734,-0.107127,0.001425,-0.039298,0.024738
hour:-0.035841,0.034851,-0.002307,0.077839,-0.010385,-0.064303,0.066161,-0.013259,0.009296,-0.061509,-0.046833,-0.068522,0.007404,0.013480,-0.051243,0.051398,0.015832,-0.088746,-0.103608,-0.032451,0.011198,0.000673,0.025440,0.023444,0.067776,0.038755,0.054934,0.073611,0.042163,-0.068467,-0.084938,-0.022097
hours:-0.049985,0.004608,0.000116,0.081645,0.000769,-0.070120,0.051538,-0.016106,-0.012292,-0.034090,-0.082455,-0.045925,0.021860,0.006027,-0.036736,0.040566,0.007088,-0.079944,-0.105513,-0.060573,0.037877,-0.009524,0.048243,0.018886,0.027828,0.084125,0.023476,0.070565,0.059361,-0.116450,-0.059635,-0.009204
how:-0.053521,0.048447,0.039394,0.024237,-0.030029,-0.021394,0.030607,-0.018226,-0.072955,0.023949,-0.025294,-0.006619,0.016489,-0.008591,-0.036499,0.001202,-0.071445,-0.003117,-0.108816,-0.027401,-0.055897,0.040432,-0.004828,0.010422,-0.000590,0.032863,-0.050031,0.001340,0.107286,-0.045588,0.039173,0.011823
human:-0.044024,0.009095,-0.028718,0.030886,-0.083029,-0.083431,0.153094,-0.016187,0.042658,0.047824,0.011501,-0.081848,-0.088894,0.007017,0.041158,-0.002856,-0.032238,-0.034169,-0.006525,0.019818,-0.075143,0.058413,-0.020951,-0.017419,-0.079184,-0.013483,-0.017601,-0.036403,0.039468,-0.057511,0.040580,-0.054892
hungry:-0.023561,0.013560,-0.027677,0.078299,-0.069747,-0.020605,0.120446,-0.074304,0.009114,-0.059040,-0.003875,-0.097168,-0.028156,-0.066856,0.006823,-0.105290,0.050161,-0.069988,-0.013033,-0.032810,-0.038311,0.017661,0.006873,-0.006981,-0.003977,0.060108,0.005892,-0.041491,-0.018970,-0.032831,-0.036248,-0.007154
hybrid:-0.028616,0.084699,-0.026172,-0.015852,-0.007397,0.007824,0.056614,0.055678,-0.028005,-0.010826,0.052870,-0.019888,0.008604,-0.025473,0.044685,0.028018,0.050555,-0.042172,-0.052229,0.033201,-0.092260,-0.055624,-0.005163,-0.010434,-0.006021,0.071647,0.024728,0.074127,0.024421,-0.146136,0.023369,0.042684
hypersonic:0.028267,-0.040915,0.004860,-0.037262,-0.098471,-0.018784,0.038172,-0.029832,-0.076508,-0.061031,0.075316,-0.016734,-0.048652,-0.062471,-0.036944,0.004138,0.138842,-0.059959,-0.008070,-0.057284,-0.006635,0.001589,-0.044668,-0.018479,0.016318,0.043121,-0.013619,0.036336,-0.026473,-0.034242,-0.025639,-0.056355
ideas:-0.024232,-0.019483,0.011531,-0.021842,-0.067815,-0.041580,0.072790,0.042381,0.022289,-0.002735,-0.023859,0.008583,-0.025861,0.040107,0.008096,-0.029386,0.052239,0.061316,-0.069887,-0.071751,-0.074978,-0.070087,-0.001954,0.011188,-0.096668,0.102874,0.013426,0.013757,-0.010265,-0.092491,0.040080,0.061891
ignited:-0.006429,0.026023,-0.012606,0.057780,0.046527,0.004718,0.127553,0.008949,0.024917,-0.031060,-0.020848,0.007519,-0.001149,-0.010554,0.017775,0.009019,-0.076594,-0.054061,-0.116741,-0.076078,0.015478,0.016290,-0.021832,0.026337,0.001637,0.058616,0.009761,0.062227,0.021227,-0.034813,0.034045,0.022323
ignites:-0.016129,-0.009396,0.004710,0.083070,0.055729,-0.036457,0.182389,-0.035438,-0.011991,0.004621,-0.001855,-0.063626,-0.024772,-0.033489,0.022933,-0.003739,-0.032556,-0.014757,-0.073391,-0.000738,0.015566,-0.001009,-0.000628,0.002900,-0.037167,0.042230,-0.026093,0.049338,0.008683,-0.066927,0.049517,0.030662
improvements:-0.023015,0.046302,0.050669,0.009799,0.012621,0.013773,-0.006549,0.012777,-0.073673,0.019072,0.022002,0.068164,-0.055665,0.005607,0.068627,-0.008837,0.121527,0.056508,-0.119891,-0.085612,-0.144644,-0.034267,0.076126,0.035093,-0.044539,0.043963,-0.062165,0.021715,0.081566,-0.072375,-0.016515,0.025926
include:-0.014932,0.059380,0.063353,0.031087,0.069644,0.043113,0.067918,-0.015564,-0.017807,-0.055727,0.045000,-0.054304,0.033827,0.009222,0.041553,-0.021653,0.013141,0.033932,-0.059271,-0.094172,-0.033996,0.044983,0.040386,0.032497,0.010107,0.012733,-0.040412,0.026444,0.019928,-0.020502,-0.003115,0.043149
incoming:-0.078179,-0.014625,0.021946,-0.004231,-0.013884,-0.063924,0.044223,0.031791,0.020540,0.031612,-0.009809,-0.020214,-0.023375,-0.046929,0.073100,0.045087,-0.009805,-0.077721,-0.065603,0.061178,-0.075217,-0.022943,-0.054915,-0.011321,-0.037265,-0.086300,-0.000764,0.041994,0.014911,-0.105967,-0.005350,0.061073
increase:-0.006661,0.030993,-0.044608,-0.004662,-0.080842,-0.051283,0.044953,0.088892,-0.037586,0.000140,0.021660,-0.046886,-0.014040,0.008948,0.052987,0.050823,0.007245,0.096249,-0.158581,-0.090328,-0.041238,-0.065941,0.031081,0.051741,-0.009859,-0.007298,-0.039136,0.008276,0.040819,-0.073904,0.002876,0.059604
increases:0.001563,0.012496,-0.032628,0.022038,-0.073070,-0.050576,0.020587,0.082264,-0.008223,0.004213,0.014492,-0.009509,0.010853,0.028404,0.042805,0.040816,0.019960,0.081483,-0.154242,-0.074037,-0.009826,-0.108523,0.027022,0.062772,0.016656,-0.026157,-0.045928,0.027824,0.056734,-0.061629,-0.028824,0.041767
independently:0.048749,0.006997,-0.046572,0.065191,-0.010346,-0.004242,0.021966,-0.030376,0.059539,-0.009937,0.084850,0.025574,0.009271,-0.026053,0.068842,-0.031632,-0.051233,-0.003784,-0.105256,-0.012497,-0.110432,-0.104997,-0.028936,-0.016567,0.073821,-0.027096,-0.014222,0.037941,0.082830,-0.060590,0.074119,-0.064819
informative:0.043886,0.055498,-0.026639,0.020326,0.011607,0.016722,0.106093,0.041904,-0.004677,0.041378,0.015034,0.014554,-0.039502,0.002760,-0.017052,-0.011743,0.092133,-0.006593,-0.037019,-0.076204,0.091801,0.028661,0.039298,0.009527,-0.045107,0.014713,-0.010775,0.012638,-0.003789,-0.089809,-0.018175,0.098682
inject:-0.008074,0.057644,0.005624,0.039708,-0.032029,-0.037284,0.103550,0.010782,-0.056495,0.011292,0.040174,-0.056974,0.029813,0.041660,0.011132,0.069141,0.057036,-0.047161,-0.047505,-0.014776,0.005570,0.108424,-0.077068,0.062784,-0.065431,-0.039876,-0.048133,-0.015149,0.009603,-0.084706,0.025773,0.029271
injected:0.004676,0.026355,-0.031355,0.047599,-0.087348,-0.018013,0.108782,0.023929,-0.037411,-0.035166,0.035356,-0.022777,0.063506,-0.000720,-0.007557,0.038255,0.048885,-0.030045,0.001921,-0.023657,-0.059132,0.067350,-0.091505,0.045581,-0.039388,0.037972,-0.046277,0.008608,0.060968,-0.118596,-0.003548,0.026214
innovation:-0.054359,0.020315,-0.042916,-0.045629,0.008665,-0.012459,0.020528,0.056282,-0.009831,0.017349,0.057756,0.045765,-0.017428,-0.048902,0.003036,-0.021811,-0.044423,-0.033812,-0.088591,-0.115808,-0.028386,-0.016850,0.053098,0.007250,-0.048668,0.084966,-0.017855,-0.017497,0.074399,-0.091440,0.020004,0.083559
intake:0.006826,0.035405,-0.011038,0.019096,0.005410,-0.048910,0.138748,0.012266,-0.002714,-0.112346,-0.025732,-0.093378,-0.056148,-0.067507,-0.075105,-0.041615,0.081922,0.001774,0.004673,-0.004933,-0.018064,0.054112,-0.005963,0.047785,-0.028659,0.072754,-0.054501,0.000940,0.036003,-0.114530,0.034286,0.002087
intermittent:-0.010198,-0.027081,0.068104,0.076132,-0.040270,-0.052321,0.028258,-0.018752,0.009750,-0.078312,-0.026226,0.044177,-0.010278,0.030905,-0.013013,-0.001342,-0.000056,-0.055471,-0.016383,0.010988,-0.111991,-0.017886,-0.019480,0.050734,-0.028503,0.035166,0.027021,-0.021207,-0.005233,-0.082958,0.015964,0.049420
into:0.018801,0.019745,-0.052871,0.068323,-0.034759,-0.045533,0.085418,0.007998,0.000466,0.009048,-0.039641,-0.058375,0.018460,-0.017731,0.061810,0.013453,-0.010673,-0.029571,-0.061629,0.008829,-0.070804,-0.000901,-0.036051,0.028984,-0.041727,-0.021486,-0.043994,0.054758,0.033045,-0.023898,-0.063389,0.059257
introduction:-0.045066,0.058424,-0.023995,0.060462,-0.041648,0.034341,0.097795,0.089511,-0.083199,0.020475,0.009479,0.042105,0.004923,-0.079552,-0.051756,-0.007591,0.008580,-0.106466,-0.024326,-0.018334,-0.000715,0.022141,-0.022560,0.018351,-0.065981,0.091379,-0.025042,0.045379,0.072398,-0.015959,0.026975,0.004799
inventors:-0.076863,0.056792,-0.004246,0.023436,-0.095152,0.019613,0.092353,0.042208,-0.019267,0.002620,0.004663,0.001061,0.034341,-0.034005,-0.166922,0.040129,-0.034622,0.043937,-0.072593,-0.107337,-0.086352,-0.022598,0.041330,0.025003,0.022524,0.119241,0.007618,-0.048405,0.091953,-0.085339,-0.048144,-0.061696
its:-0.015604,0.006627,0.003713,-0.011032,0.066524,-0.015397,0.076160,0.028763,-0.014612,-0.006275,-0.049960,-0.106968,0.002106,0.001331,-0.041948,-0.052737,0.001518,-0.009229,-0.060392,-0.073532,-0.089512,0.084419,-0.029157,-0.056371,-0.077042,-0.000131,-0.002565,0.011334,-0.013674,-0.062152,0.000504,0.065404
jet:-0.049891,0.027905,-0.014322,0.101026,-0.025999,0.035684,0.065242,0.042393,0.000322,-0.117691,-0.018026,0.018655,-0.085806,0.059800,-0.006914,0.031829,-0.008795,-0.053507,-0.067978,-0.065105,-0.041198,0.080703,0.017334,0.027773,0.009831,0.062376,0.038786,0.090281,-0.030623,-0.082175,0.024593,0.057178
just:-0.005218,0.025435,0.057790,-0.041360,0.091724,0.016893,-0.026338,0.014906,-0.019996,-0.031109,-0.078201,-0.040000,-0.022470,0.011340,-0.011074,0.069443,-0.004808,-0.011211,-0.144162,-0.000974,-0.125711,0.035222,-0.067317,-0.009495,-0.047950,0.018239,0.006154,0.040530,0.052837,-0.051742,-0.015229,0.028800
kingdom:0.002894,0.042321,-0.036833,0.026342,-0.049528,-0.059188,0.060419,-0.104230,0.055477,-0.012105,0.017621,-0.137967,-0.002906,-0.021165,0.020176,-0.016713,-0.023159,-0.008342,-0.087890,-0.077152,0.023036,-0.013203,0.011962,0.060972,-0.070919,0.015918,-0.025670,0.059260,-0.020695,-0.156237,-0.035776,-0.000383
know:0.080736,0.035462,-0.036186,0.016804,-0.016628,-0.138693,0.020680,0.043507,0.010892,0.043733,-0.008188,-0.023174,-0.005772,0.045395,-0.039040,-0.008060,0.044802,0.000836,-0.033631,0.039902,-0.002246,0.077416,-0.030106,0.040174,0.014077,0.045580,-0.007987,0.117187,-0.023918,-0.014983,-0.078446,0.119098
known:0.023928,0.086428,-0.005276,0.043487,-0.035965,-0.056346,0.055439,0.059132,-0.098734,0.098726,0.001162,0.007328,-0.027605,0.048070,-0.069325,0.004849,0.023964,-0.046264,-0.040889,0.021325,-0.028584,0.042033,-0.012301,0.013677,-0.013295,0.095156,0.036544,0.021378,-0.081701,-0.070953,-0.050397,0.068812
laid:-0.073592,0.007296,-0.041680,0.067167,-0.126265,0.019975,0.016049,0.029369,0.016506,0.004425,0.019659,-0.075479,-0.039513,0.035470,0.052246,-0.019691,-0.000226,0.017438,-0.028882,-0.062586,-0.036041,-0.010739,-0.021316,-0.001445,-0.000277,-0.001385,-0.041647,0.038522,-0.010043,-0.006222,-0.059847,0.069231
large:0.055368,0.068904,-0.048443,0.047420,-0.060375,-0.051786,0.042768,0.089511,-0.065815,0.019425,-0.024651,-0.015958,-0.055540,-0.010846,-0.051276,0.014434,0.039129,-0.068899,-0.087792,-0.019641,-0.033261,0.026499,0.018587,0.052871,-0.062502,-0.031528,-0.048031,0.053341,0.026991,-0.070472,-0.021293,0.044691
late:-0.038637,-0.011661,-0.060889,0.037086,0.066321,-0.062474,0.001478,0.052056,0.004435,0.035079,-0.024605,-0.045480,-0.017865,0.094230,0.009030,0.062284,0.005976,-0.032097,-0.084009,-0.028214,-0.022821,-0.007602,-0.036469,-0.018775,0.039364,0.028928,0.020654,0.035623,-0.075323,-0.060836,-0.115726,0.014397
law:-0.059089,0.065484,-0.034296,0.013881,0.051206,0.021754,0.063943,0.008742,-0.015949,0.093037,0.048730,0.008350,-0.022362,0.013208,0.041659,-0.015697,0.022249,-0.023121,-0.141540,0.027932,-0.011819,0.065321,-0.009310,0.034556,-0.072435,0.039494,-0.047800,-0.011006,-0.026368,-0.105475,-0.012813,0.027213
let:-0.066757,0.040445,-0.023819,-0.066066,-0.022400,-0.020249,0.040367,0.008832,-0.023053,-0.041434,-0.019039,-0.035202,-0.036281,0.036443,0.051136,0.090459,-0.001487,-0.006623,-0.086073,0.034012,0.097554,0.020521,-0.014324,-0.033812,-0.082902,-0.013464,-0.007994,0.019433,0.024757,-0.127499,0.058719,-0.006919
like:-0.048880,-0.002894,-0.041444,0.082331,-0.017353,0.007062,0.101541,0.019893,0.027903,0.001315,0.016071,0.011636,0.004958,0.064838,0.012693,0.033278,0.055261,0.025009,-0.209203,0.034489,-0.034824,0.095599,0.029872,0.032249,-0.062047,0.027731,-0.012969,-0.006531,0.015405,-0.014251,-0.055231,-0.011972
london:0.083410,-0.017167,0.033269,-0.017126,-0.047541,0.024923,0.072861,-0.062033,-0.013043,-0.008700,-0.006597,-0.064858,-0.008275,0.002425,-0.007530,-0.020410,0.018993,-0.083176,-0.037705,-0.112750,0.028040,0.033624,0.038734,0.056000,-0.002713,0.049654,0.020425,0.036175,0.041921,-0.037885,-0.004871,-0.012346
long:-0.024573,0.026479,0.044696,0.009020,0.025599,0.028625,-0.021977,0.030272,-0.005981,-0.067762,-0.012872,0.021379,-0.012169,-0.021021,-0.068472,0.071032,-0.047423,-0.021865,-0.079357,0.005785,0.041857,0.033224,0.027210,0.046890,-0.005830,0.034114,0.008597,0.003089,0.040621,-0.050102,0.026144,0.026099
lower:0.047460,0.052929,-0.005471,0.002391,-0.094131,-0.051269,0.014607,0.172737,0.039808,-0.042091,-0.022301,-0.028222,0.052975,-0.014215,0.052477,0.029370,0.039544,0.047127,-0.124014,0.005529,-0.048647,-0.048192,-0.002067,0.019609,-0.012118,-0.087215,-0.020784,0.083382,0.045450,-0.049888,-0.027448,-0.007938
mach:-0.026806,0.044211,0.004709,0.112970,-0.017269,0.002535,0.020697,0.030904,-0.001211,0.013104,0.062645,-0.066727,-0.001177,0.021898,-0.000723,-0.035548,0.036362,-0.056090,0.005722,0.025956,0.013259,0.036700,-0.038214,0.041944,-0.048238,0.094948,-0.003065,0.035077,-0.039389,-0.018312,-0.002947,-0.008674
machine:-0.072135,0.028487,-0.011771,0.019801,-0.043478,-0.031459,0.014961,0.002890,0.003245,-0.033952,0.010499,-0.010207,0.077768,-0.076556,-0.001400,-0.002102,0.017192,-0.063365,-0.028134,-0.058697,-0.032973,0.010229,-0.064570,0.019880,-0.010603,0.104793,-0.038107,0.050352,0.020600,-0.130086,-0.021826,0.004076
machines:-0.055371,0.019180,0.011103,0.019964,-0.076243,-0.024339,0.024710,-0.012488,0.016689,-0.001510,0.024967,0.011722,0.097954,-0.026033,-0.020652,0.010090,-0.017256,-0.022820,-0.076373,-0.085674,-0.029785,-0.008916,-0.061684,0.035281,-0.028299,0.106062,-0.061877,0.021123,0.032424,-0.112604,-0.023691,-0.023064
main:-0.027058,0.002688,-0.034908,-0.037359,0.004450,0.013678,0.048740,0.067258,-0.070166,-0.010610,-0.054336,-0.059088,-0.018908,0.023562,-0.010629,-0.034314,-0.035149,0.027767,-0.016416,-0.017022,-0.154490,-0.062129,0.009681,0.005820,-0.020640,0.005514,-0.043467,0.051498,-0.033140,-0.220323,-0.044971,0.016355
making:-0.075533,-0.004827,-0.006863,0.069150,-0.069924,-0.048998,0.069901,-0.027071,-0.023642,0.030346,-0.023308,-0.102487,0.011560,-0.029153,-0.056381,-0.014327,0.012384,-0.043021,-0.109985,-0.065175,-0.074067,-0.039243,0.028842,-0.005951,0.051112,0.057771,0.021170,0.006744,0.163359,-0.084829,-0.044581,0.059202
maneuverability:-0.008326,-0.005812,-0.067119,0.009728,-0.081770,0.001882,0.094514,0.012355,-0.070138,0.036386,0.108487,0.068296,0.029136,0.023680,-0.073641,-0.013880,0.099601,0.057893,-0.071127,0.051945,-0.053032,0.044445,-0.000121,-0.004413,-0.142237,0.039391,-0.033572,-0.002482,-0.000008,-0.163488,-0.032333,0.017003
manufacturing:-0.050483,0.010765,-0.021325,0.007445,-0.031968,-0.019992,0.064821,0.014777,-0.042987,-0.023227,0.042212,-0.028477,0.019728,-0.005393,-0.092623,-0.033831,0.002552,-0.015542,-0.037653,-0.078176,-0.044891,-0.034691,0.000742,0.039789,0.010984,0.087876,-0.006379,0.003619,0.086600,-0.122562,-0.054311,0.065058
materials:-0.068473,-0.007244,-0.004023,0.081967,0.026740,-0.027058,0.156148,0.016845,-0.030045,0.068588,-0.033295,-0.038693,-0.023706,0.046296,-0.047227,-0.033610,0.007377,0.007466,-0.042993,0.074333,0.027916,0.019702,0.005748,-0.002091,-0.018837,0.137837,0.006248,0.020492,0.108208,-0.132484,0.032140,0.046816
meanwhile:-0.054341,0.030396,0.007132,-0.009170,0.062528,-0.093525,0.015644,0.038936,-0.009422,-0.064354,-0.026595,0.015853,0.005047,0.026515,-0.004642,-0.032226,0.038263,-0.021038,-0.044009,-0.037368,-0.135899,0.023319,0.046426,-0.018768,0.006371,-0.035256,0.024864,-0.031496,0.123092,-0.057415,-0.011000,0.016169
mig:-0.116424,0.022999,-0.024517,0.078750,-0.018664,0.019694,0.129346,0.067209,0.051502,-0.060548,0.084120,-0.046462,-0.044594,0.008925,-0.008326,-0.023916,-0.010150,-0.102159,0.037600,-0.088864,-0.137586,0.068603,-0.009340,-0.006779,0.025639,0.068907,0.023001,0.005599,-0.034406,-0.101278,0.041083,0.032803
military:-0.058829,0.026830,0.006618,0.042511,-0.035950,0.022105,0.111060,-0.021008,-0.025577,0.062118,-0.001609,-0.045101,0.064370,0.013943,-0.012813,-0.044493,0.001921,-0.047569,-0.039848,-0.062393,-0.075082,0.046302,0.024237,0.040399,0.005042,0.039028,-0.062142,0.025133,-0.125399,-0.095199,-0.034579,0.027581
millions:0.065261,0.009223,-0.044197,0.045296,-0.076321,-0.005102,0.058556,0.108572,0.053287,0.048414,-0.000439,-0.042774,0.050074,-0.006533,-0.045287,0.062678,0.008714,-0.091254,-0.041844,-0.038383,0.034540,-0.010561,0.013205,-0.011706,-0.054800,-0.012439,-0.020114,-0.026941,0.028542,-0.029388,0.013850,0.032175
missiles:-0.041617,0.039153,-0.027465,0.000965,-0.044824,-0.010425,0.119899,0.023146,-0.001772,0.044040,0.027335,0.064508,0.066276,0.012747,0.010722,0.023310,-0.025797,-0.052850,-0.076019,-0.088990,-0.042213,0.030113,0.026072,0.035188,-0.100825,0.107544,0.023319,0.040340,-0.037779,-0.068961,0.037735,-0.043326
mixed:0.026683,-0.018778,-0.003953,0.021140,-0.015622,-0.046344,0.080761,0.000951,0.012986,-0.018498,0.016524,-0.098510,-0.073117,-0.034157,-0.004837,0.022147,-0.025986,-0.034696,-0.141294,0.037448,-0.142904,0.037549,-0.048061,-0.011782,-0.054132,0.078107,0.022208,0.057900,0.074437,-0.102344,0.027754,0.131428
mixes:-0.019007,-0.071328,0.015790,0.029535,-0.042166,0.010464,0.061467,-0.055577,0.000882,-0.062925,0.017628,-0.091133,0.009344,-0.107123,0.052145,0.008004,0.064441,0.058628,-0.097531,-0.020106,-0.119028,0.018482,-0.000235,0.039982,-0.002609,0.092743,-0.021216,0.000349,0.083516,-0.100165,0.041241,0.162669
mixture:-0.004874,-0.036926,0.003298,0.025567,0.047228,0.021180,0.150030,0.003684,0.006070,-0.079919,0.013061,-0.089307,0.009982,-0.003267,-0.006526,-0.040905,0.060633,0.051694,-0.118432,-0.042519,-0.031847,0.024634,-0.042021,0.018095,0.013316,0.133010,0.010427,-0.006558,0.082896,-0.105934,0.042442,0.102621
modern:0.036824,0.046611,-0.040441,-0.016700,-0.002460,-0.034620,0.018769,0.010222,-0.073957,0.057862,0.045181,0.059558,0.001533,0.041240,-0.046856,0.021189,-0.033883,-0.076161,-0.021890,0.047623,-0.114452,-0.038694,0.002951,-0.032968,0.024592,0.032225,-0.039645,0.024807,0.009176,-0.027078,-0.075604,0.143849
more:-0.034173,-0.037663,0.005502,0.013767,0.009202,-0.097812,0.021219,0.098066,0.030885,-0.011230,-0.038879,-0.072752,0.023885,0.017325,-0.046796,0.073143,-0.043337,-0.020238,-0.109358,0.005312,-0.081204,0.031274,0.041741,0.017601,-0.052487,-0.020992,-0.002962,0.009975,-0.017976,0.004838,-0.024180,0.066906
most:0.030570,-0.052804,0.033518,-0.034812,-0.022267,-0.046154,0.095539,0.081500,0.037204,0.033862,-0.007357,-0.025193,-0.000807,0.035267,0.032268,0.038815,0.008836,-0.064898,-0.119588,0.014938,-0.136613,0.002525,0.033673,-0.024683,-0.002813,0.003372,0.027145,-0.007649,-0.033037,-0.049773,-0.104841,0.030403
motion:-0.023448,-0.022939,0.005427,-0.034677,-0.020259,0.066337,0.066824,-0.003856,0.059287,0.012873,0.096879,-0.019165,-0.057315,0.018978,-0.039861,0.004211,0.008172,0.090570,-0.049705,0.048757,-0.043851,-0.021726,0.010518,0.045094,-0.049695,0.091028,-0.002662,0.031143,0.020225,-0.117546,-0.008388,0.060197
moving:0.035135,-0.064597,0.029326,0.014443,0.091893,0.011205,0.097860,-0.040044,0.024414,0.001420,0.066896,-0.022730,-0.018275,0.016580,-0.027420,0.007921,-0.030520,0.020397,-0.090786,0.004652,-0.091382,-0.016415,-0.042250,0.022038,0.056352,0.123082,-0.041624,0.028500,0.011846,-0.091806,-0.024193,0.037868
nearly:0.022227,0.046617,-0.042673,-0.000950,0.002344,-0.115666,0.012980,0.020650,-0.013716,-0.035206,-0.048053,-0.000650,0.044572,0.025338,0.041978,0.002812,0.041231,-0.011376,-0.128256,0.091236,-0.151724,0.092479,0.049611,0.038601,0.028433,-0.052370,0.056133,0.063748,-0.004253,0.009040,-0.011380,-0.021929
new:-0.058694,-0.055127,-0.015212,-0.009662,0.020696,-0.051440,0.034596,0.023433,0.008694,0.001745,0.067157,-0.011196,-0.088782,-0.013833,-0.033493,-0.025936,0.017762,-0.013391,-0.072775,-0.027264,-0.056957,-0.015459,-0.040214,0.012576,-0.063165,0.008016,0.008328,0.045629,0.020262,-0.039862,-0.014914,0.090941
newton:-0.029827,0.011383,-0.041951,0.071430,0.002313,0.032345,0.038421,0.046999,-0.007518,0.072877,0.062287,-0.082671,-0.048221,0.016861,-0.053853,-0.002150,-0.042287,-0.013865,-0.059969,-0.002551,-0.067287,0.068412,-0.004686,0.063594,-0.027812,0.074130,-0.067385,0.009762,-0.005456,-0.060075,0.044742,-0.011213
next:-0.043844,-0.005236,-0.023503,0.004519,-0.064376,-0.064091,0.055647,0.087905,0.056047,-0.018596,0.019622,-0.006987,-0.014752,0.072223,-0.052879,0.022542,-0.007772,0.028140,-0.006435,-0.061321,0.021956,0.114248,0.006576,0.014785,-0.040835,-0.011693,0.037296,0.022315,-0.027748,0.023710,-0.010534,0.033738
noise:0.000428,-0.027682,0.034886,0.030917,-0.051714,-0.029588,0.165731,-0.081026,0.041814,-0.056629,-0.021915,-0.039351,0.024171,-0.047079,-0.061629,0.029083,0.060275,-0.010079,-0.089580,-0.013204,-0.087241,0.029338,-0.014427,0.077135,0.036491,0.049716,0.013165,0.021283,0.027031,-0.065289,0.070649,-0.015832
noisy:0.023929,-0.037094,0.070007,0.028138,-0.044070,-0.073043,0.144562,-0.087349,0.023786,-0.050024,-0.054236,-0.043246,0.025557,-0.044956,-0.085269,0.035779,0.079322,-0.024180,-0.086753,-0.055151,-0.086482,0.030747,0.006045,0.080087,0.045137,0.059559,0.019343,-0.025748,0.022588,-0.051445,0.047426,-0.030648
nozzle:-0.070174,0.039429,0.016916,-0.035226,-0.008155,-0.038268,0.106349,-0.032692,-0.012614,-0.070895,0.069756,-0.015499,-0.034624,0.041485,-0.042122,-0.020046,-0.015326,-0.061704,-0.013688,-0.050459,0.015835,0.062014,-0.039208,-0.018550,-0.009928,0.043120,-0.021541,-0.018488,-0.019612,-0.134169,0.049526,0.010834
oceans:-0.034604,0.035555,0.014439,-0.016570,-0.004758,-0.024515,0.064112,-0.041197,0.028775,-0.018189,-0.004742,-0.103475,-0.006389,0.025467,0.022004,0.047361,-0.051099,-0.080889,-0.075823,0.003098,-0.009672,0.150123,-0.033642,-0.022997,-0.050522,0.047069,0.013008,0.046629,0.015400,-0.074471,-0.021374,0.060948
often:0.055022,-0.001702,0.003928,0.039861,-0.073025,-0.040036,0.078024,-0.004727,0.074607,-0.034287,-0.032783,0.074489,0.019700,0.047725,0.031116,0.028287,-0.028216,0.024938,-0.086046,-0.032107,-0.109075,-0.020241,0.048070,-0.039440,0.067752,-0.105147,0.023663,-0.014994,0.019910,-0.040474,-0.032422,0.042034
ohain:-0.078540,-0.003281,0.032584,-0.069119,0.118435,-0.080173,0.132375,0.003440,0.027159,-0.035205,0.034305,-0.018294,-0.009276,-0.009291,-0.052508,0.004112,-0.074146,-0.013803,-0.084997,-0.024432,0.016088,0.208310,0.028647,0.028993,-0.033486,-0.085432,0.017909,0.151528,0.119110,-0.044693,0.006825,0.072435
one:-0.034243,-0.012123,-0.034629,0.008117,-0.083223,-0.030436,0.111964,0.022502,0.067980,-0.005894,-0.060786,-0.060415,0.071444,-0.022066,-0.018954,0.049374,-0.144797,-0.063948,-0.018684,-0.007952,-0.046828,0.037154,-0.007685,0.050344,-0.067694,-0.096277,-0.020523,0.010420,-0.025726,-0.095895,0.016982,-0.005287
operate:0.016259,0.061923,0.036749,0.031334,-0.137472,-0.024020,0.072362,-0.010258,0.017474,0.014169,0.047914,0.055385,-0.019814,0.014037,0.044268,-0.023344,0.045876,-0.013190,-0.083991,-0.047777,-0.005785,0.023857,-0.047701,0.028053,-0.052704,0.007351,-0.086507,0.008457,0.026803,-0.079967,-0.011250,0.013014
operational:0.003500,-0.010625,-0.018944,0.041844,-0.078967,-0.044166,0.081314,0.041665,-0.005293,0.009207,0.047223,0.030982,0.001192,0.049794,0.027069,0.013575,0.092960,-0.071855,-0.093885,-0.025987,-0.070288,-0.009138,-0.054581,0.007341,-0.071098,0.037449,-0.107240,0.027998,-0.008768,-0.104102,0.001662,0.015302
opposite:-0.010884,0.030742,0.001416,0.051239,-0.065161,-0.059798,0.031662,0.043438,0.035111,0.038700,0.052868,0.001120,0.040006,-0.007853,0.002249,-0.001923,0.100540,0.002757,-0.020479,0.045009,-0.093916,-0.031998,-0.028891,0.013155,0.024106,0.033969,-0.068688,0.068652,-0.033471,-0.053680,0.029895,-0.028567
origins:-0.096365,0.036915,-0.062318,0.012211,-0.048302,-0.026365,0.089186,0.005369,-0.015103,0.009265,0.063898,-0.036233,0.018946,-0.010257,-0.117876,-0.019241,-0.002242,-0.116817,-0.040999,0.064457,-0.031199,0.013352,0.054095,-0.014052,0.055895,0.067574,0.061327,0.049118,0.172761,-0.062846,0.009670,0.043795
other:-0.070565,-0.085052,-0.060301,-0.019945,0.084928,-0.019091,0.067342,0.073055,0.008945,-0.036617,0.013065,-0.060297,-0.028736,0.077354,-0.018885,-0.032205,-0.041958,-0.015510,-0.065878,0.023806,-0.109581,-0.013934,-0.021400,0.009483,-0.096205,0.016204,0.021139,0.056197,0.014997,-0.055909,-0.056786,0.039614
page:-0.097113,0.031560,-0.041520,-0.023984,-0.044387,0.007696,0.029198,-0.017269,0.020503,-0.009450,0.035926,0.089121,0.028030,-0.041121,-0.079461,-0.065209,-0.057345,0.041391,-0.043512,0.005632,-0.017283,0.057811,0.005619,-0.001649,-0.032652,0.029004,-0.039478,-0.008872,0.077978,-0.144160,0.045939,0.056878
parts:-0.011612,0.058012,0.076738,0.021125,0.038636,-0.049265,0.062980,0.008808,0.006529,-0.058409,-0.015487,-0.049384,-0.002202,-0.010381,-0.010614,-0.081106,0.037430,0.052596,-0.133731,-0.011710,-0.109294,0.033577,0.027241,-0.003170,-0.053248,0.040806,0.000542,0.053665,0.083656,-0.132627,0.051201,0.018103
pass:0.015837,0.055611,-0.064140,0.015842,-0.025761,-0.016871,0.085622,-0.008596,0.005899,-0.075801,-0.069004,-0.114533,0.000426,-0.000319,0.025388,0.046640,-0.106446,0.045349,-0.098381,-0.001827,-0.032309,-0.017111,-0.047944,0.011435,-0.078242,0.024663,0.061238,0.009343,-0.006395,-0.114523,-0.009432,-0.022494
passes:0.020315,0.049021,-0.038370,0.011539,0.003276,0.025004,0.087168,-0.031246,0.027726,-0.067135,-0.078588,-0.068853,0.007011,0.020427,0.025038,0.016588,-0.063125,0.009531,-0.070953,0.005618,-0.051055,0.036967,-0.030302,0.010315,-0.080592,0.021927,0.055283,-0.041893,0.010246,-0.133334,-0.034182,-0.040642
pdf:-0.041258,0.028313,-0.151007,0.023142,0.001702,-0.027744,-0.023536,0.061422,-0.021922,0.004752,0.070559,0.061476,-0.003566,0.046242,-0.090234,-0.042595,-0.034781,-0.095329,0.009761,0.052435,-0.002617,-0.006603,0.042355,-0.025861,0.016904,-0.018867,-0.080803,-0.009360,-0.011933,-0.133604,0.073891,-0.017739
perhaps:-0.084429,-0.001475,0.049230,-0.005087,-0.016048,-0.035005,0.047142,0.067546,-0.067282,-0.009538,-0.049705,0.002902,-0.021726,0.011804,0.075201,0.018061,0.010756,0.021420,-0.047207,0.048031,-0.149384,0.125667,-0.015985,-0.019755,-0.052489,-0.065616,-0.002563,0.105908,0.042609,-0.008271,-0.012358,0.052738
pinnacle:0.034719,-0.036301,-0.045513,-0.059979,-0.049626,0.033460,0.038693,0.064572,0.033476,-0.018430,-0.016812,-0.013531,0.036833,0.001123,-0.078237,-0.002966,0.075930,-0.005352,0.012162,-0.109804,-0.022667,0.003802,0.000270,0.019874,0.106333,0.022116,-0.047474,0.044666,0.059003,-0.089632,-0.042433,-0.094288
piston:-0.122383,0.056430,-0.021375,-0.039682,-0.099213,-0.011765,0.043352,0.079155,0.024694,-0.048641,-0.040598,-0.014052,-0.059550,-0.011694,-0.088202,0.018257,0.016337,0.029956,0.030663,-0.048370,0.001965,0.078737,-0.011342,0.034319,-0.007113,0.150606,-0.058503,0.094231,0.043298,-0.103240,-0.028769,-0.040133
planes:0.030703,-0.017544,-0.062768,0.074025,-0.032701,-0.002767,0.093338,-0.026389,0.016626,0.049864,0.002034,0.017659,-0.048467,0.018913,-0.048434,0.052097,-0.034740,-0.086342,-0.080551,0.006767,0.001229,0.051285,-0.023998,0.047556,-0.012514,0.037606,0.013728,0.044230,0.035946,-0.082413,0.031643,0.051261
possible:-0.052331,0.053731,-0.077230,0.029700,-0.019465,-0.062358,-0.030808,0.038518,-0.014075,-0.000088,-0.026819,-0.044817,-0.003816,0.045908,0.050296,0.026774,0.017860,-0.010535,-0.094082,-0.007079,-0.003856,-0.005341,-0.087119,-0.014972,-0.061274,0.007767,-0.076219,0.093295,-0.007745,-0.094317,0.008874,0.025822
power:-0.054845,0.157038,-0.019523,0.091207,-0.015264,0.002121,0.096446,-0.035636,0.065565,0.024238,-0.004870,-0.013287,0.009750,-0.018444,-0.011361,0.070509,-0.019474,0.003162,-0.135074,0.049916,0.071602,0.058567,0.003872,0.036718,0.005637,0.044781,-0.043295,0.000710,0.030737,-0.093075,-0.024501,-0.030627
powered:-0.024415,0.074647,-0.057481,0.085726,-0.041684,-0.029304,0.061539,0.007214,0.039908,0.040956,-0.004468,-0.059319,-0.023144,0.006511,-0.026999,0.097706,0.023449,-0.009550,-0.087535,0.051228,0.051751,0.070545,-0.010946,0.020632,0.010084,0.005828,-0.023148,0.088023,0.007209,-0.124225,-0.057434,-0.069127
powerful:0.020974,0.084657,-0.053761,0.060093,-0.077005,-0.016846,0.067774,0.010338,0.005865,-0.010588,-0.023360,0.043370,-0.011000,-0.008691,-0.013162,0.042591,0.078645,-0.045823,-0.191636,-0.024517,0.002091,0.068686,0.015551,-0.004601,-0.011496,0.050472,-0.060632,0.019549,0.092688,-0.111609,0.030199,-0.056736
predecessors:0.010329,0.026243,0.069239,-0.040691,-0.026916,0.065358,-0.053191,0.035876,-0.016959,0.021859,0.030459,0.042082,0.015946,-0.018230,-0.024790,-0.060826,0.018612,-0.055274,0.029400,-0.027730,-0.120590,0.004643,-0.014558,-0.051968,-0.000248,0.026819,-0.024356,0.017870,0.079392,-0.038181,-0.061373,-0.029641
pressure:-0.111866,0.053767,-0.045232,0.031964,0.000949,-0.018088,0.170707,0.000328,0.054606,-0.009141,-0.011758,-0.055064,-0.013373,0.000447,-0.037442,-0.063678,-0.015015,-0.075738,-0.091414,0.053655,-0.008442,0.068791,-0.031650,0.025727,-0.055058,0.076075,-0.046470,0.042862,0.069184,-0.127335,-0.035838,-0.028263
principles:-0.028868,0.048913,-0.009203,-0.018549,-0.041952,0.004198,0.054566,-0.011842,-0.017794,0.045131,0.015670,0.026229,-0.002423,0.001045,0.055710,-0.076879,0.018744,0.020493,-0.094739,0.052431,-0.011048,-0.007782,-0.010604,-0.043623,-0.092463,0.073782,0.036052,0.031076,0.094153,-0.102323,0.003194,0.056471
printing:-0.057189,0.078491,-0.087862,0.032511,-0.048456,-0.019662,0.039347,0.023719,-0.100518,-0.033031,0.122219,0.072195,0.050461,0.004752,-0.055754,-0.037563,-0.008021,-0.023705,-0.019351,-0.054281,-0.047108,-0.000682,-0.004605,0.003581,0.003839,0.044213,-0.044892,-0.012262,0.044610,-0.071864,-0.024912,0.027860
process:-0.080116,0.019231,-0.062580,-0.058329,0.014804,-0.053100,0.105197,0.027342,0.046551,0.036954,0.007073,0.002696,0.007659,-0.025857,-0.034786,-0.041374,-0.020695,-0.043257,-0.071425,-0.045168,0.010785,-0.039459,-0.051009,-0.020300,-0.069481,0.053484,0.020747,-0.027912,0.113998,-0.105766,0.061651,0.049354
producing:-0.022365,-0.009133,-0.029943,0.059699,-0.029386,-0.009272,0.018953,-0.015504,-0.037457,-0.002579,0.016368,-0.116716,0.029634,-0.042131,-0.059053,-0.030513,0.022550,-0.069765,-0.065663,-0.062717,-0.012876,0.018346,-0.003580,0.039213,0.040134,0.016724,-0.021609,0.015836,0.112510,-0.078042,-0.038187,0.032015
product:-0.088460,0.043447,-0.000244,-0.000959,0.032436,-0.031760,0.182682,0.095729,-0.006586,-0.012966,0.023900,-0.035442,0.052063,0.011154,-0.060634,0.034203,0.008539,0.041115,-0.157561,-0.025844,-0.047105,0.040308,-0.004406,0.047671,-0.076709,0.077611,-0.005858,0.019149,0.071741,-0.090140,0.041557,-0.022564
propeller:0.002684,-0.000017,0.000471,-0.025584,0.014798,-0.015457,0.045692,0.019131,0.010511,0.011690,0.101181,-0.001349,-0.034297,-0.019994,-0.032997,0.010333,0.036365,0.011074,-0.053405,0.000266,0.014263,0.085506,-0.019313,0.010314,-0.021974,0.052303,-0.030270,0.020703,0.034560,-0.146579,0.028925,0.007155
propels:-0.019582,-0.000023,-0.001300,0.015854,-0.013290,0.010816,0.050420,-0.021794,0.042693,0.013824,0.035914,-0.048780,-0.046649,-0.005754,0.008920,-0.032619,0.027850,0.000182,-0.092504,-0.015303,0.030078,-0.003710,0.014012,0.053272,0.007986,0.108626,-0.010419,0.053199,0.061628,-0.069048,0.059856,0.026240
propulsion:-0.011312,0.007961,0.031587,0.044770,-0.058249,-0.001903,0.032521,0.024114,-0.058717,0.003886,0.052149,-0.002015,-0.052044,0.007302,-0.040271,0.019435,0.019223,0.048823,-0.093049,-0.006477,0.037968,0.078595,0.027933,0.029983,-0.065650,0.049253,-0.063195,0.003715,0.000797,-0.140685,-0.012466,-0.020337
provide:-0.101248,0.111978,0.039802,0.015573,-0.006681,-0.015300,0.043556,-0.010294,-0.011926,-0.063866,0.016212,-0.113344,-0.008590,-0.002110,0.031397,0.047591,0.050288,-0.027231,-0.086285,0.004823,0.006030,-0.011493,-0.008848,0.040335,-0.049589,-0.042618,-0.028255,-0.016162,0.078359,-0.030760,0.080859,-0.022554
providing:-0.087796,0.082950,0.022431,0.009635,-0.028269,0.015149,0.048275,-0.020350,-0.048222,-0.049291,0.016625,-0.076370,-0.005322,0.012169,0.028197,0.015488,0.074194,-0.062294,-0.077880,-0.001068,-0.036405,-0.026663,-0.005245,0.034803,-0.029644,-0.022005,-0.037487,-0.043499,0.152318,-0.064815,0.076450,-0.045566
purposes:-0.050384,0.083752,-0.020915,-0.023125,0.030644,0.001906,0.119291,0.001032,-0.032089,-0.043577,0.014332,0.019062,-0.032595,-0.031041,-0.022874,-0.005943,0.067028,-0.030220,-0.094534,-0.003376,0.011217,0.006217,0.013871,-0.009841,-0.095198,0.016365,-0.058478,0.002829,0.098886,-0.040356,0.039896,0.031835
pushing:-0.029052,-0.025882,0.009639,0.054383,-0.045172,0.007090,-0.005107,-0.005048,0.021287,0.042940,0.056493,-0.067469,-0.037468,0.029971,-0.034084,-0.003335,-0.025034,-0.050495,-0.100503,0.009436,-0.053462,0.009289,0.042385,-0.015590,0.002253,0.070448,-0.088772,0.057653,0.033590,-0.061526,0.043700,-0.078798
quieter:0.036479,-0.024369,0.000237,0.022200,-0.010176,-0.140498,0.095122,-0.015879,0.023688,-0.019754,-0.028386,-0.014888,0.019106,-0.071763,-0.018787,0.001388,0.107766,0.030460,-0.111874,-0.008847,-0.081349,0.030764,0.020528,0.032508,0.037557,0.018611,0.006670,0.010642,0.052323,-0.046816,0.035689,-0.018287
ramjet:-0.028402,0.079624,-0.037634,0.009109,-0.106886,0.005418,0.044203,0.039675,0.001907,-0.092696,-0.005356,0.067525,-0.051535,-0.001973,-0.044933,0.025042,0.033338,-0.018439,-0.009506,-0.023739,-0.033123,0.015809,0.042070,0.017195,-0.022897,0.087688,0.051296,0.048026,0.025346,-0.061652,0.022092,0.050423
ramjets:-0.026667,0.067336,-0.046433,0.010915,-0.110313,-0.001264,0.053880,0.041727,0.023679,-0.064789,0.003129,0.058049,-0.045150,0.004280,-0.042160,0.020610,0.030590,0.001642,-0.019722,0.004522,-0.045752,-0.004254,0.015634,0.031699,-0.034668,0.094401,0.033735,0.037910,0.014617,-0.055456,0.008847,0.031494
rapid:0.009572,-0.005473,-0.050713,0.015585,-0.026805,0.018754,0.033878,0.002925,0.002876,-0.067024,0.107108,-0.022582,-0.045695,-0.022372,0.032489,-0.086073,0.059467,0.008732,-0.009281,-0.001152,-0.059499,-0.036746,-0.041152,0.004818,-0.006554,0.010006,-0.037006,0.095388,0.057920,-0.108552,-0.008614,0.017054
reaction:-0.044288,0.043372,-0.017942,0.090072,0.040081,0.021016,0.093208,0.094384,0.083762,0.039922,0.040176,-0.066990,0.000524,0.006232,-0.014535,0.056099,-0.004198,-0.031007,-0.122494,-0.003478,-0.047733,-0.007642,0.013126,0.005123,-0.064755,0.088898,-0.018228,-0.003694,0.021655,-0.078207,-0.005946,0.045168
reduce:0.012277,0.185054,0.053571,0.057201,0.009558,-0.009317,0.024018,0.056932,0.000088,0.031675,-0.027924,-0.042761,0.037370,0.032339,-0.013553,-0.013574,-0.085088,0.137059,-0.116198,-0.073835,-0.020732,-0.053397,-0.052098,0.071190,0.024726,0.029298,0.006464,-0.018392,0.031619,-0.071954,0.086465,0.013783
reduced:0.033382,0.154468,0.017029,0.082047,-0.008255,-0.007551,0.072280,0.012699,0.003725,0.017445,0.044833,-0.013311,0.035598,0.022373,-0.040700,0.002922,-0.066196,0.090348,-0.150775,-0.009706,0.005819,-0.060880,-0.049976,0.082062,0.076364,0.017035,-0.005535,-0.022550,0.045359,-0.052399,0.038660,0.049014
regional:0.104823,0.016175,0.018107,0.007041,-0.050550,-0.013342,-0.053550,-0.000878,-0.037835,-0.030683,-0.005102,-0.043903,-0.038990,0.047299,-0.025334,-0.073524,0.004054,-0.092325,0.008800,-0.061900,-0.058971,0.009044,0.025333,0.007070,0.116257,-0.012114,-0.008277,0.079849,0.044597,-0.018589,-0.036046,0.150556
rely:-0.020570,-0.007825,-0.006744,0.060079,0.007931,0.009303,0.076383,0.011089,-0.008735,-0.070655,0.010140,0.005839,0.002214,0.028800,0.044695,0.067550,0.053795,0.022994,-0.036995,0.007565,-0.128902,-0.027049,-0.068106,0.007716,-0.113239,0.004624,-0.078206,-0.002681,0.029678,-0.095364,0.057079,0.039825
remaining:0.010901,0.030462,-0.056563,-0.002390,0.044682,-0.015277,0.070120,0.031114,0.009016,-0.019638,-0.014473,-0.050399,-0.002902,-0.014920,-0.055003,0.076580,-0.109253,-0.037824,-0.139748,-0.033621,-0.120415,-0.011283,-0.058338,-0.001253,-0.012434,0.084585,-0.065803,-0.026443,0.052790,-0.092326,-0.018280,0.006018
represent:-0.006431,0.021066,0.036433,-0.007845,0.006706,0.063358,0.094377,0.014786,0.072091,-0.072566,-0.018989,-0.118326,0.011441,-0.000167,0.019156,0.010677,0.006190,0.047249,-0.058695,0.001559,-0.009782,-0.026619,-0.002638,0.068355,0.007619,0.041111,0.073980,0.066517,0.039135,-0.072566,-0.003240,-0.042533
researchers:-0.021066,0.049471,-0.003615,0.124271,0.005717,0.007702,-0.019244,0.085154,0.051653,0.066479,0.004342,0.027309,-0.026167,0.038973,-0.072209,0.032993,-0.000156,-0.063075,-0.018900,-0.096527,-0.107574,-0.059232,0.107367,0.020447,0.012557,0.040164,-0.028390,-0.033417,-0.003315,0.021246,-0.027805,0.071320
revolutionized:0.035624,0.038394,-0.039975,-0.044260,-0.034735,0.011663,-0.024922,-0.007079,-0.106210,0.011740,0.048977,0.147647,0.030855,0.020884,-0.008042,-0.016795,-0.034580,0.020292,-0.138630,-0.019827,-0.066519,-0.023888,-0.039359,0.051846,0.034496,0.106055,-0.013068,0.024388,0.011660,-0.110873,-0.022238,0.094983
rockets:-0.066630,0.036919,0.002859,-0.032968,-0.094215,0.040543,0.111952,-0.005539,0.043280,0.012840,-0.054035,-0.012880,0.020929,-0.031628,0.004705,-0.021080,0.010815,-0.016494,-0.064663,-0.112249,0.000808,-0.004447,-0.038490,0.090226,0.007923,0.074989,-0.038828,0.060802,-0.036679,-0.107539,0.011604,-0.107543
role:-0.034168,0.053311,0.014914,0.015849,-0.056161,-0.003377,0.133608,-0.029361,-0.003732,-0.038996,-0.007769,-0.030000,-0.002386,0.055369,0.002690,-0.028522,-0.008583,0.048477,-0.095648,-0.043507,-0.083732,-0.076630,0.023683,-0.053008,-0.063709,-0.057210,-0.016460,0.005012,-0.024033,-0.137375,0.039258,0.022032
rolls:-0.061146,0.053505,-0.095579,-0.030261,-0.118375,-0.039897,0.052162,-0.021340,-0.021953,-0.030092,0.051329,-0.020223,-0.000276,-0.001370,-0.001365,0.006705,-0.065894,0.073395,-0.094253,0.023455,-0.076790,-0.019224,-0.003459,0.000523,-0.044029,0.049008,-0.018931,-0.001762,0.019182,-0.084621,0.030800,0.011237
royce:-0.046521,0.012713,-0.042228,0.058964,-0.016983,0.058574,0.046223,0.073256,0.006276,-0.107793,0.005875,-0.108355,-0.045472,-0.010379,-0.074080,0.050421,-0.001354,0.034242,-0.121116,-0.025410,-0.042885,0.046155,-0.063052,0.112750,-0.061786,0.001656,-0.023957,0.077599,0.042938,-0.139693,0.007324,-0.051718
saf:-0.039690,-0.058295,-0.114414,0.027566,0.077596,0.043957,0.046181,-0.008662,-0.027282,0.011153,-0.021788,-0.075622,0.043595,0.003940,-0.012177,-0.031819,-0.055093,0.004253,-0.066741,-0.074028,-0.122072,0.034801,-0.028873,0.016792,0.050089,-0.027908,-0.062908,-0.055119,-0.046772,-0.004547,0.064742,0.073562
school:-0.014044,0.076060,0.014289,0.069015,-0.005907,-0.029543,0.070771,0.007752,0.077365,0.066030,0.065765,-0.018841,-0.005301,0.019456,0.001250,-0.004245,0.001915,-0.044268,-0.053194,-0.109050,-0.018957,0.009062,-0.022509,0.055740,0.037072,0.135347,0.019771,-0.064135,-0.066905,-0.123334,-0.026096,0.007687
scramjet:-0.049063,0.002318,-0.081400,-0.015274,-0.056503,0.040231,0.040643,0.042535,-0.073281,-0.048363,-0.009330,0.013830,-0.069264,0.011216,-0.082246,0.008562,0.011236,-0.061704,0.039602,-0.014428,-0.029231,0.037547,0.015461,0.067734,0.012519,0.137964,-0.019069,0.016222,-0.000492,0.016705,0.034529,0.033710
scramjets:-0.046394,-0.015529,-0.074166,-0.010243,-0.064167,0.032777,0.049638,0.039537,-0.055335,-0.035288,-0.005595,0.007512,-0.067128,0.025679,-0.083973,0.003368,0.008709,-0.033471,0.026058,0.010303,-0.040028,0.020579,0.004569,0.086490,-0.002298,0.137734,-0.038865,0.011936,-0.000229,0.027465,0.024499,0.017432
several:0.017604,-0.072296,-0.037739,-0.004452,-0.043068,0.005784,0.035163,0.018484,0.022397,0.028059,-0.042835,-0.034788,0.022474,-0.009144,-0.012476,0.023045,-0.085675,-0.027921,-0.063513,-0.068937,-0.116397,0.040542,0.039655,-0.008069,-0.052192,-0.060319,0.003933,-0.022355,0.012347,-0.062570,-0.042686,0.042894
shaping:-0.044129,0.022109,-0.063608,0.013403,-0.095497,-0.002546,0.059599,0.007934,-0.029411,0.018997,0.030838,-0.006975,-0.014368,0.039346,0.010998,0.024901,-0.026492,0.055690,-0.147118,-0.017825,0.050917,-0.041609,-0.028742,0.021325,-0.021164,0.038285,-0.022282,-0.029684,0.106122,-0.155882,0.006804,0.003669
significantly:0.095053,0.108472,-0.002064,0.028832,0.000109,-0.016375,0.020385,0.114237,-0.034946,-0.007505,0.015776,0.029685,-0.007710,0.040849,0.028624,-0.000428,0.109631,-0.092539,-0.136535,0.018984,-0.099551,0.044995,0.110523,0.005473,0.066225,-0.025511,-0.009929,0.078275,0.062414,-0.005666,0.014746,0.050272
simple:0.075842,0.034571,0.002442,0.049612,0.016692,-0.022505,0.027444,0.033607,0.001376,0.055758,-0.017626,-0.079562,-0.016746,-0.019689,-0.023590,-0.056489,0.007395,-0.011231,-0.139353,0.001101,-0.043369,-0.017240,-0.091130,0.002422,-0.051551,0.046605,-0.086348,0.102639,0.064334,-0.039087,0.051036,0.017773
simplest:0.046058,0.078608,-0.015304,0.040455,-0.015000,-0.032930,0.000729,0.066176,-0.068876,0.035030,-0.018284,-0.071139,0.010304,0.026529,-0.015242,-0.026411,-0.094022,0.075050,-0.082205,-0.024039,-0.032955,-0.075654,-0.082868,0.002090,0.056198,0.081057,-0.021028,0.015367,0.103278,-0.089429,0.040843,-0.029440
sir:-0.106088,0.018264,-0.066476,-0.036884,-0.043417,-0.054815,0.078940,-0.003339,-0.002000,-0.025056,-0.000390,0.004585,0.008712,0.043817,0.030994,0.064350,0.016556,-0.040923,0.010916,-0.049616,-0.002458,0.057520,0.016497,-0.061528,-0.002157,-0.025581,0.002890,0.074839,0.005507,-0.048669,-0.021040,0.037795
some:-0.036285,-0.030306,0.032840,-0.034511,-0.007811,-0.009154,0.117198,0.000969,-0.010177,0.034506,-0.042689,-0.056459,-0.010885,0.052501,0.008042,0.024202,-0.095409,0.014263,-0.150072,0.018713,-0.155726,0.071488,-0.032154,0.002978,-0.108987,-0.063057,0.038889,0.042979,0.020875,-0.037319,-0.063135,0.004097
space:0.019268,-0.026502,0.003421,0.018805,-0.074058,0.011218,0.122560,-0.012577,0.101000,0.004858,0.048952,-0.023167,0.008426,-0.005769,-0.027074,-0.061481,0.004849,-0.033196,-0.112233,-0.025579,0.021945,0.012645,-0.011413,0.025441,0.009883,0.117272,-0.028171,0.045929,-0.000338,-0.101823,0.022498,-0.004243
spaceplane:-0.004225,-0.063690,0.029255,-0.022286,-0.104213,0.011093,0.100452,0.007710,0.086183,0.046047,0.041574,-0.056082,-0.084594,-0.020074,-0.102817,-0.034533,-0.007628,-0.028297,-0.012139,0.071213,0.018263,0.020345,-0.020848,0.035628,0.021766,0.109726,0.057261,0.042299,0.016542,-0.050319,0.048789,0.022206
specific:0.030819,0.007888,-0.045309,-0.006242,0.033173,-0.005465,0.053289,0.048552,-0.019183,0.024967,0.029888,-0.033307,-0.056951,0.020770,-0.020301,-0.011451,0.107727,-0.063175,-0.127909,0.036113,-0.013746,0.021188,-0.001726,-0.008746,-0.028572,-0.024412,0.022458,0.100211,0.049588,-0.100958,-0.021783,0.012095
speed:-0.011466,0.066202,-0.034257,0.011115,-0.046425,-0.010371,0.041096,-0.030059,-0.000048,-0.033749,0.064678,-0.052638,-0.075285,-0.022193,-0.059692,-0.021651,0.104103,0.003245,-0.146464,-0.022407,-0.041751,-0.044987,0.026278,-0.008696,-0.022167,0.074135,-0.115278,0.046520,0.011564,-0.141806,-0.022490,0.005159
speeds:0.007573,0.040049,-0.030732,0.017217,-0.047120,-0.035532,0.020111,-0.014768,0.011608,-0.034095,0.063778,-0.051802,-0.074789,-0.031124,-0.055747,-0.014160,0.127426,-0.007825,-0.153534,-0.001519,-0.042765,-0.042542,0.022462,-0.010212,-0.021958,0.054473,-0.102928,0.039452,0.016047,-0.126970,-0.027602,0.006339
starfighter:-0.042253,0.032799,-0.014764,0.028764,-0.003180,-0.002217,0.070912,-0.007904,-0.001332,0.023008,0.010334,-0.065220,0.055556,0.012395,-0.033134,0.042277,0.051456,-0.002130,0.082109,0.010409,-0.042189,0.049816,-0.016539,0.082115,0.005199,0.024631,-0.017938,0.007074,-0.111939,-0.088170,-0.004522,0.060199
still:-0.051363,-0.013820,-0.046305,-0.014852,0.106974,-0.113836,0.035976,-0.025886,0.011033,-0.009262,-0.035197,-0.003827,0.012576,0.084552,-0.059174,0.003460,-0.008459,-0.024083,-0.052603,0.025044,-0.143287,0.049372,-0.010539,-0.026952,0.032458,-0.005674,0.064238,0.109976,0.092672,-0.029897,-0.078180,0.068418
stream:-0.049106,-0.041544,-0.053306,-0.070483,0.065450,0.014206,0.004014,0.005864,0.033555,-0.004817,-0.061819,-0.038140,-0.090794,0.025419,-0.032002,-0.064099,-0.022965,0.012830,-0.046994,-0.050605,-0.016835,-0.016381,-0.048983,-0.009223,0.049704,0.032140,0.029882,0.061655,0.074887,-0.093589,0.020144,-0.043898
students:0.016065,0.038537,-0.006869,0.008623,-0.060894,-0.064102,0.056712,-0.006625,0.052111,0.068668,0.125339,0.013415,0.001093,0.008809,-0.027604,-0.012630,-0.035902,-0.012650,-0.018554,-0.068886,-0.070270,-0.022385,-0.051321,0.063878,0.022361,0.084605,-0.012933,-0.058827,-0.041316,-0.055434,-0.060785,0.033507
such:-0.007074,0.048611,-0.055840,-0.011193,0.077387,-0.036621,-0.006296,0.005502,0.026406,0.000024,0.010823,0.021151,-0.052442,0.094898,-0.013931,0.063337,0.048150,0.028057,-0.078010,-0.010973,0.069154,0.072232,-0.003646,0.043871,-0.062408,-0.057705,0.011958,0.014500,0.050368,-0.027233,-0.074981,0.068362
suitable:-0.056439,0.055005,-0.082543,-0.005679,0.004917,-0.037885,0.026822,0.057177,-0.068950,0.017637,0.000503,0.007682,-0.013674,0.056603,0.014944,0.034210,0.126762,0.030100,-0.036529,0.000819,-0.100458,0.073407,-0.007143,-0.016014,-0.044692,-0.029850,-0.002450,0.087575,0.020541,-0.023417,-0.040633,0.019400
suited:-0.038338,-0.005847,-0.023387,0.015366,0.003149,-0.054942,0.096241,0.037733,-0.018336,-0.012921,-0.009066,-0.112216,-0.019790,0.021316,0.012305,-0.010179,0.046194,-0.017206,-0.062609,-0.056053,-0.081398,0.050513,0.003316,-0.027754,-0.058668,0.039262,-0.012642,0.090234,-0.022336,-0.042942,-0.053661,0.050524
supersonic:-0.031328,-0.028080,0.018990,0.027739,-0.082121,0.013337,0.060332,0.014820,-0.048986,-0.059768,0.072659,-0.021736,-0.030786,-0.049440,-0.055068,-0.014342,0.181080,-0.085919,-0.066676,-0.073669,-0.005320,0.045467,-0.039883,0.053944,0.001804,0.041560,-0.046180,0.004667,-0.033412,-0.040383,-0.028176,-0.038722
sure:-0.139502,-0.039791,-0.008734,0.014005,0.017042,0.018752,0.080143,0.045594,-0.080697,-0.041591,-0.006029,-0.013248,0.007567,0.033404,0.029593,0.074099,-0.050555,-0.020883,-0.127826,0.063622,-0.073258,-0.043924,-0.054700,0.025368,-0.024991,-0.005738,0.038354,0.067073,-0.030417,-0.116775,-0.068902,0.030892
sustainability:0.004107,0.118058,0.006518,0.020163,0.064956,0.019666,-0.018542,-0.043702,-0.018906,-0.019413,0.015381,-0.060685,-0.013828,0.000329,-0.063682,0.002993,-0.104614,0.028549,-0.031510,-0.044610,-0.048122,-0.006530,0.014061,0.022156,-0.085237,0.111566,-0.045794,-0.021012,0.044936,-0.012308,0.054997,0.034815
sustainable:0.009228,0.104226,-0.005203,0.054735,0.065621,0.034934,-0.033627,-0.037647,-0.039698,0.025143,0.016953,-0.064489,0.003166,-0.011636,-0.064463,0.021150,-0.077371,-0.018529,-0.051839,-0.037698,-0.031795,0.021967,0.038550,0.027064,-0.076328,0.103876,-0.029297,-0.019121,0.042321,0.004954,0.048561,0.050250
