above:-0.077717,-0.065075,-0.030195,-0.021061,-0.028827,0.014611,0.013649,0.102124,0.049588,-0.005525,0.004109,-0.014535,0.028025,0.003644,0.057555,0.028863
achievement:-0.029512,0.143714,0.002088,-0.010369,-0.044974,0.022017,0.099584,0.031554,-0.035666,0.004104,0.046881,-0.031262,0.084304,-0.001381,-0.035623,0.047857
action:-0.041159,0.008662,-0.017181,0.003741,-0.028200,0.063975,0.158444,-0.016044,0.020740,0.049822,0.056433,-0.010060,-0.040484,0.033748,0.007042,0.016186
adapted:0.015157,-0.027885,-0.024736,0.015375,0.057802,0.005249,0.019670,-0.011614,-0.033607,-0.020193,0.009493,-0.048809,0.025781,-0.014054,-0.031084,-0.004213
additional:-0.024472,-0.039732,-0.048177,0.006354,0.021621,-0.014851,0.064107,0.093990,0.000236,-0.026959,0.013362,-0.078654,-0.063914,0.018314,0.016842,-0.004170
additive:-0.079080,-0.054791,0.006452,0.063849,-0.003063,-0.002583,0.135214,-0.015660,0.014989,-0.010885,0.069287,-0.106590,-0.016741,-0.025111,-0.013747,-0.043255
advanced:0.006547,-0.012928,-0.027461,0.044702,-0.060676,-0.062570,0.041370,0.081711,-0.096793,0.079496,0.025407,-0.016723,-0.008448,-0.000037,-0.030364,0.027247
aeolipile:-0.061742,0.047994,-0.033092,-0.017013,0.048097,-0.098907,0.029832,-0.009316,-0.056214,-0.089431,0.074122,-0.127933,-0.018414,-0.033715,-0.039969,-0.032838
aerospace:-0.005765,-0.007011,-0.032849,0.030433,-0.083028,-0.011960,0.078730,-0.006309,-0.057605,0.059189,-0.026603,0.006860,-0.011401,0.010120,-0.074396,-0.002006
afterburners:-0.064084,0.025250,-0.074060,0.073034,0.022245,-0.036740,0.057956,0.007938,0.030012,-0.081798,0.073555,0.012713,-0.069168,0.005803,-0.025651,0.027654
ago:-0.050082,-0.010862,-0.041602,0.053229,0.054449,0.029779,0.089491,0.079320,-0.046257,-0.034031,0.024457,0.063624,0.013288,0.096505,-0.012450,0.028246
air:-0.032276,-0.001255,-0.021389,0.096856,0.031923,-0.077822,0.163450,-0.051117,-0.005422,-0.011791,0.056974,0.001232,-0.047624,-0.035065,-0.016137,0.052540
airbus:-0.014002,0.063660,-0.057647,0.007436,-0.053535,-0.005644,0.014942,0.027342,0.043874,-0.015875,0.008337,-0.060921,0.002845,-0.002090,-0.063085,-0.020158
aircraft:0.013685,0.061133,-0.084731,0.060625,-0.039681,-0.000494,0.096226,0.021603,-0.009505,0.073939,0.043449,0.042545,-0.028403,0.017371,-0.036730,0.051432
airflow:-0.045771,-0.004599,0.016183,0.029559,0.042589,-0.101654,0.082989,-0.028098,0.000854,-0.066075,0.028533,0.042004,-0.036238,-0.038710,-0.026384,0.052876
airliners:0.013338,-0.002803,-0.043733,0.073136,-0.024840,-0.016217,0.081183,-0.014734,0.018821,0.021280,0.046053,0.066687,-0.043515,0.053823,-0.015671,-0.019295
alexandria:-0.010462,0.077291,-0.044355,-0.000899,-0.134636,-0.016079,0.066475,-0.044545,0.023253,0.017885,-0.013332,-0.106579,0.000416,-0.046310,-0.058847,-0.026908
all:-0.079548,-0.048391,-0.016113,-0.060323,0.072990,0.012197,0.015523,0.025048,0.011118,0.018683,0.020505,-0.077020,-0.018099,-0.003795,-0.093251,0.066321
allowing:0.016814,0.095076,-0.003175,-0.006864,0.030974,0.009745,0.057685,-0.089797,-0.064547,0.021835,0.009219,0.071275,-0.002948,0.054523,0.018664,0.030293
also:-0.120259,0.014052,-0.007198,0.038485,0.045057,-0.001393,0.033082,0.023928,-0.041192,-0.047277,0.022872,0.049140,0.000288,0.061420,0.006533,-0.051957
altitude:-0.014155,0.062065,-0.002306,0.027513,-0.068019,-0.021886,0.044853,0.056525,-0.009605,-0.021580,0.038471,-0.033309,0.040596,-0.013201,0.011484,0.085265
altitudes:-0.038163,0.041392,0.015594,0.044256,-0.058895,-0.029361,0.007136,0.031355,-0.017629,-0.030494,0.032742,-0.090520,0.020292,-0.009605,0.021241,0.064208
ancient:-0.096481,0.102386,-0.037865,0.040729,-0.080164,-0.073249,0.043869,-0.043284,-0.011049,0.019202,0.004132,-0.018527,-0.007678,-0.032682,-0.067023,-0.043996
and:-0.065812,0.048193,0.030481,0.024876,0.007960,-0.010989,0.084759,0.040410,-0.016874,-0.033569,0.001822,0.054537,0.053650,0.053299,0.048857,-0.007685
applications:-0.048402,-0.013124,-0.039783,-0.095866,-0.007917,-0.019945,0.080247,0.114736,-0.018546,-0.008980,-0.012802,0.020840,0.012122,0.006063,0.024946,0.018922
are:-0.007909,0.044889,0.008580,0.033900,-0.058339,0.016323,0.062847,-0.039255,0.050137,0.047331,-0.018946,-0.112179,-0.056990,0.007539,0.061761,-0.027065
article:0.013187,0.112155,0.007560,0.135874,-0.007394,0.013926,-0.014620,0.069166,-0.047890,0.056738,0.049669,0.091236,-0.049314,0.031291,-0.023695,0.002963
atmosphere:-0.031824,0.037792,0.020299,0.057684,0.061323,-0.045291,0.131216,-0.031620,0.041521,-0.010858,0.006809,-0.024288,-0.002119,-0.044383,0.019189,0.028284
atr:-0.132191,-0.019452,-0.042285,0.007871,0.071108,-0.024782,0.023855,0.022974,-0.003547,-0.038845,0.007022,-0.027793,-0.020359,0.008311,-0.016720,0.035268
audience:0.038421,-0.027984,-0.066556,-0.038063,-0.016408,0.023662,0.097723,0.028655,0.053241,-0.011739,-0.000732,-0.039597,0.023444,-0.037053,-0.017370,-0.089041
aviation:0.029613,0.006996,-0.029697,0.032694,-0.017708,0.003904,0.126676,0.014437,-0.044461,0.054492,0.011912,0.046287,-0.057102,0.036105,-0.047898,0.027674
axial:0.061789,-0.017656,-0.026139,-0.032828,-0.121509,-0.077968,-0.001786,0.061479,0.043523,0.005297,0.100001,0.046716,0.008265,0.007268,-0.048654,-0.043243
back:-0.029908,-0.016124,-0.036955,0.053799,-0.000641,0.024212,0.065581,0.020548,0.024068,-0.047454,0.008990,-0.011510,0.044630,-0.030768,-0.012163,-0.005082
based:-0.024290,-0.017385,-0.061866,-0.038081,0.012967,-0.021722,0.126982,-0.039661,0.046373,0.003763,-0.017961,0.007151,0.049755,0.017422,-0.004534,0.010439
behind:0.014446,0.052122,-0.084157,0.061771,0.009668,0.046238,0.036455,-0.013009,0.067135,-0.010664,0.032659,0.027208,0.054535,-0.087085,0.033997,0.001915
better:-0.078098,0.013994,-0.013776,0.029964,-0.024093,-0.077277,0.004114,0.047908,0.002340,-0.022377,-0.038367,0.065466,-0.012468,0.089240,0.000439,0.010613
beyond:-0.039114,-0.067368,0.020218,-0.021613,0.051567,0.026951,-0.034641,0.055072,0.036599,-0.032142,0.043611,-0.047795,0.003321,-0.007307,0.053580,0.000632
biofuels:-0.025099,-0.022084,-0.053205,-0.009035,0.071152,-0.001295,-0.029104,-0.008988,-0.014589,-0.072345,-0.001118,-0.016992,-0.100463,-0.055256,-0.050275,-0.031584
boeing:0.008282,0.007403,-0.059665,0.037185,-0.028432,0.022680,0.028541,0.017338,0.008742,-0.024628,0.006573,0.034586,-0.015964,0.026186,-0.042282,-0.018820
brayton:-0.106361,-0.073571,-0.047577,0.021305,0.021587,0.039943,0.051283,0.058368,-0.061350,-0.065969,0.028559,-0.081480,0.006561,0.018063,-0.087918,0.023059
breakthroughs:-0.034040,0.015319,0.026505,0.033845,0.049106,0.021531,0.058545,0.085437,-0.027543,0.001172,0.032390,0.065434,-0.053692,0.009090,0.003428,0.038669
burst:-0.018006,-0.032822,-0.000342,-0.009790,0.003746,-0.004740,0.137866,0.043882,0.002907,-0.045004,0.051305,-0.014790,0.004201,-0.000662,0.047890,-0.024987
but:-0.075923,0.019866,-0.027377,-0.063091,-0.002386,-0.063560,0.041820,-0.032333,0.000813,-0.032929,-0.060675,0.004089,0.014480,0.060184,0.063957,-0.013929
bypass:-0.065635,0.066787,0.021070,0.026957,-0.018801,-0.003414,0.058815,-0.085975,0.018789,-0.011334,0.030894,0.015257,0.022551,-0.062679,0.066633,-0.006471
bypasses:-0.073926,0.036890,0.025843,0.044184,-0.056107,-0.005608,0.067452,-0.087453,0.017123,-0.018180,0.056787,0.026810,0.023123,-0.045003,0.052274,-0.022753
centrifugal:0.016772,-0.021388,-0.047774,-0.021605,0.018676,-0.045366,0.022327,0.040203,0.015824,-0.064605,0.052075,-0.113159,0.005139,0.054034,-0.009675,0.001284
century:0.018224,0.103221,-0.061424,-0.072320,-0.062689,0.016980,-0.030154,0.010263,-0.060273,-0.031988,0.050716,-0.044483,0.072964,0.053622,-0.055569,-0.013303
challenges:-0.050573,0.074701,-0.004610,-0.023713,0.004693,0.096215,0.037901,-0.011484,-0.048785,-0.015914,0.013654,-0.116198,-0.033752,0.025793,-0.018690,-0.016681
chamber:0.050521,0.032550,-0.072803,0.014600,-0.030715,-0.028092,0.040456,-0.029205,-0.006212,-0.083513,-0.015580,-0.080049,0.018623,0.019486,-0.056955,-0.061346
change:-0.011589,0.092569,0.053454,-0.029589,-0.017391,-0.019641,0.059103,0.003117,-0.003858,0.030525,-0.005732,-0.074322,-0.030941,0.016632,0.000867,0.034808
chinese:-0.051181,0.033419,-0.008102,0.057577,-0.021619,-0.048307,0.132486,0.001637,0.043773,-0.027397,0.098794,-0.086110,-0.022573,-0.041224,-0.037055,0.035447
civilian:0.000198,0.031900,0.007731,-0.008262,-0.026114,-0.012400,0.145708,-0.010888,-0.065176,0.084934,0.050261,-0.065693,0.052203,-0.009871,0.004257,-0.017491
climate:-0.010074,0.080163,0.076162,0.090028,0.003146,0.005163,0.026347,-0.074189,-0.030586,0.011041,-0.008471,-0.167676,0.011674,0.027380,0.042731,-0.038606
combat:-0.017643,0.081075,-0.013735,0.069900,-0.068892,0.093893,0.130002,-0.006090,-0.026772,0.053346,0.039938,-0.078180,0.030065,-0.004431,-0.031077,0.015385
combine:0.059059,0.017848,-0.038814,0.006902,-0.056191,0.002588,0.029212,0.008667,0.016057,-0.052996,0.015372,-0.034956,0.001698,0.010875,0.046068,0.037989
combined:0.003066,0.040773,-0.046519,0.036280,-0.047590,-0.012068,0.053996,0.032198,0.048954,-0.045099,0.034984,-0.113026,0.003348,-0.018226,-0.013862,0.011307
combustion:-0.051950,0.071910,0.025329,0.081520,0.078497,0.029758,0.061162,0.021504,0.021945,-0.009651,-0.008949,-0.059403,-0.074932,-0.014668,0.017492,-0.005041
come:-0.059076,0.006260,0.028090,0.012489,0.014639,-0.116100,0.031694,0.051627,0.042973,0.014880,-0.011720,-0.065466,-0.008082,-0.016874,-0.017488,0.004750
commercial:-0.015798,0.005511,-0.046670,0.038101,0.031262,0.003575,0.089875,0.060816,0.043599,-0.051239,0.017369,-0.012511,-0.014903,-0.004057,0.044615,-0.082612
common:0.007785,-0.024939,-0.065139,-0.024090,-0.023358,0.016169,0.057970,0.047310,-0.028842,-0.013828,0.050149,0.002504,-0.023131,0.027975,0.017950,0.016834
components:-0.008503,-0.007968,-0.000060,0.015369,0.015712,0.023681,0.079267,0.022318,0.007277,-0.019908,0.042761,-0.039178,0.000268,0.028922,0.010151,-0.022871
compress:-0.053636,0.097234,-0.052607,0.046917,0.030777,-0.053864,0.017403,0.009178,0.003535,0.031746,-0.067130,-0.000111,0.021508,0.051952,-0.020338,-0.000511
compressed:-0.105749,0.100845,-0.069936,0.032120,-0.021181,-0.047953,0.027706,-0.011080,0.012649,0.017125,-0.011416,0.064043,0.038141,0.026544,-0.070013,-0.016611
compresses:-0.075142,0.063010,-0.045333,0.069134,0.002636,-0.063552,0.051680,0.009547,0.038547,0.015931,-0.048195,-0.000611,0.040257,0.053076,-0.011190,-0.005538
compressor:-0.141012,0.076631,-0.058834,0.047323,0.011761,-0.042091,0.013271,0.009895,-0.011661,-0.012675,0.020685,0.063341,0.031490,-0.022901,-0.036869,0.025290
compressors:-0.141909,0.054462,-0.046874,0.055757,0.002964,-0.039068,0.030782,0.002829,-0.007400,-0.009585,0.029471,0.057261,0.031121,-0.012042,-0.019090,-0.003884
concept:-0.016012,0.004693,-0.102939,0.013116,-0.022788,-0.054411,0.196144,-0.015407,-0.032797,0.072288,-0.007106,-0.003628,0.021598,-0.027716,0.071356,-0.031819
concepts:0.047108,-0.004957,-0.076115,0.014320,-0.058650,-0.032547,0.164070,-0.044156,0.002682,0.053630,-0.004907,0.004871,0.012832,-0.006414,0.069526,-0.027988
conclusion:0.034510,0.136552,0.001849,0.051897,-0.009813,0.022611,0.093433,0.060362,0.017524,0.038877,0.010160,0.015148,0.008142,0.072624,-0.056661,0.006407
considerations:-0.030848,0.074547,-0.074000,0.019164,-0.014183,0.064319,0.111471,0.046004,-0.047392,0.023920,-0.012653,0.007544,-0.032688,0.035656,-0.012480,0.001414
continents:-0.012210,0.032988,-0.079298,-0.005428,0.002642,-0.051149,0.024765,-0.051441,0.006668,0.028537,0.009707,-0.141599,-0.005737,0.057967,-0.003727,-0.071430
continue:-0.011983,0.033320,0.019557,-0.025283,0.002516,-0.003926,0.043718,-0.008547,0.011167,0.006725,0.007441,0.004540,-0.030471,-0.005378,-0.031203,0.085501
continues:-0.033578,0.006036,0.048929,-0.014540,0.015719,-0.019179,0.071705,-0.021521,0.013427,-0.034101,-0.024315,0.029855,-0.013260,0.014176,-0.071993,0.079481
continuous:0.060966,0.013226,-0.052914,0.023952,-0.070261,0.034593,0.061669,-0.004503,-0.006598,-0.026670,0.063127,0.007069,0.036686,0.104973,-0.035148,0.033298
contribute:0.010783,0.026385,-0.018052,0.024400,0.029566,0.061917,0.066343,0.049422,0.016408,-0.013745,0.000370,-0.111999,-0.023945,-0.005033,-0.044009,0.041775
controls:-0.064727,-0.020950,-0.045608,0.056658,-0.058180,0.107266,0.104388,0.006870,0.039401,0.073388,0.060237,-0.021522,-0.011491,-0.081065,0.000187,0.038075
core:-0.020806,-0.041672,-0.050008,0.020418,0.056586,-0.009241,0.059559,0.118118,-0.033132,0.017852,-0.022945,-0.058428,-0.001261,-0.007306,0.016026,0.020781
could:-0.123425,0.062470,-0.106460,-0.017754,0.014858,-0.022354,0.027392,-0.007822,-0.038257,0.005529,-0.011295,0.004417,0.006773,0.065655,0.030849,0.026547
covering:-0.018984,0.122515,0.036156,0.057567,0.081561,0.023425,0.137833,-0.027913,-0.014616,0.021021,0.007774,-0.058334,0.005796,0.011066,-0.014141,-0.038694
critical:-0.061177,-0.006973,-0.066447,-0.011763,0.024810,0.033543,0.086849,0.117144,-0.013997,0.075831,0.029348,-0.088747,0.019806,0.016996,-0.040929,-0.030228
cross:-0.011143,-0.009125,-0.060408,-0.011981,-0.009925,-0.006015,0.029912,0.027672,-0.014497,-0.007823,0.063826,-0.155594,-0.027185,0.005949,0.022512,0.050672
cycle:-0.044650,0.056482,-0.018765,0.043272,-0.036002,-0.001313,0.064135,0.010062,0.055362,-0.023736,0.023652,0.022225,0.047156,-0.032331,0.064498,0.022701
daily:-0.038744,0.059079,0.029422,0.102071,0.002724,-0.034608,0.118463,-0.030501,0.001905,-0.034731,0.018253,0.047064,-0.036503,0.063828,0.046001,-0.014521
dates:-0.020169,0.043963,0.032369,0.071033,-0.064551,0.105535,-0.019113,-0.016714,-0.007829,-0.004166,0.005120,-0.021365,-0.053727,0.005734,0.020696,-0.044645
day:-0.074479,0.104453,0.026008,0.082153,-0.022976,-0.047555,0.181081,-0.039247,-0.035227,-0.056515,0.000093,0.039388,0.006250,0.070412,0.035183,0.008804
defense:-0.063834,0.105134,-0.082533,0.017887,0.078989,0.110852,0.124243,0.018396,0.042096,0.035249,-0.004358,-0.043439,0.082465,-0.008110,-0.030251,-0.006907
designed:-0.053225,0.115413,0.026341,-0.006320,-0.071472,-0.049042,0.019366,0.032298,-0.042240,0.061400,-0.014326,0.030137,0.034806,-0.049038,-0.100709,-0.045507
detailed:0.009736,0.131140,0.011571,0.000853,-0.004281,-0.072862,0.038184,0.055477,-0.043310,0.044336,0.000501,-0.001770,-0.012642,-0.031412,-0.052688,-0.021870
developed:0.033857,0.014118,-0.040124,0.010655,-0.061833,-0.024879,-0.011002,0.085420,-0.071393,0.070692,0.067199,0.044597,0.027839,-0.006920,-0.022186,0.036832
different:-0.008637,-0.035826,-0.078004,-0.050065,0.029722,-0.125878,0.059391,0.014383,0.107739,-0.025773,0.014935,-0.031765,-0.058542,0.066373,-0.020254,0.005342
distance:0.046581,0.067513,-0.061857,-0.078416,-0.034256,0.036782,0.010309,0.071925,0.022559,-0.038893,0.081082,-0.069784,0.012371,0.018700,-0.067438,-0.014470
done:-0.088228,-0.027469,-0.037944,-0.034966,-0.038820,-0.014861,0.036282,0.072023,-0.069036,0.006868,-0.022064,-0.061055,-0.037711,0.049296,-0.050679,0.081024
drive:0.066378,0.003807,0.042642,0.084821,-0.048624,0.012507,0.067289,0.001014,0.018569,-0.018136,-0.024602,-0.026076,0.002672,-0.001754,-0.037564,-0.023473
driving:0.054167,0.012494,0.027364,0.087362,-0.019555,0.039601,0.119503,0.022882,-0.009321,-0.029139,0.041133,-0.010937,0.000366,0.038961,-0.029410,-0.048526
during:0.004129,0.043646,-0.057064,0.010346,-0.009634,0.015531,0.117261,-0.006740,0.069971,-0.036989,0.015556,0.027198,0.034041,0.042892,0.060512,-0.012741
each:0.018502,0.002772,-0.082255,-0.031218,-0.054029,0.010767,0.020931,0.007106,0.066437,0.002309,0.014522,-0.114452,0.001058,0.010270,-0.028814,0.078469
early:-0.008646,0.041513,-0.049749,0.046108,-0.003687,0.041854,0.003623,0.047100,0.015148,0.036551,-0.006394,0.055038,-0.041982,0.089038,0.067238,0.048993
educational:0.024396,0.069423,-0.018574,0.073046,-0.059511,-0.007477,0.049222,0.026047,0.010641,0.110542,0.054178,-0.002138,-0.020668,0.005968,-0.033747,-0.054161
efficiency:0.009056,0.101923,-0.030569,0.058902,-0.003929,-0.028438,0.050052,-0.022948,0.009955,-0.010279,0.002559,0.089598,0.022240,-0.014384,0.028538,-0.027617
efficient:0.032417,0.111319,-0.035741,0.073152,-0.034744,-0.050898,0.056441,-0.055364,-0.000059,-0.006834,0.004751,0.068127,0.016123,0.007002,0.026992,-0.029304
efficiently:-0.012404,0.087229,-0.008410,0.048776,-0.073321,-0.047681,0.070264,-0.064022,-0.011492,-0.003034,0.020363,0.087793,0.003687,0.017349,0.001681,-0.050970
electric:-0.042049,0.073444,0.024226,0.068146,-0.010390,-0.012696,0.116933,0.007181,0.014476,0.032411,0.062570,-0.065921,-0.015147,0.029819,-0.002076,-0.047775
emissions:0.016895,0.093659,0.079285,0.058768,0.095959,-0.021112,0.103124,-0.009041,0.008367,0.014249,0.003718,-0.069587,-0.035862,0.020657,0.000056,0.040082
enabling:0.036931,0.031871,-0.037878,0.016903,0.007467,0.094737,0.041286,-0.023162,-0.118499,-0.007470,0.057902,0.082710,0.007270,0.043831,0.028976,0.060267
energy:-0.035395,0.099096,-0.010701,0.142395,0.029749,-0.014693,0.131926,-0.029108,0.052319,0.010371,-0.014343,-0.066067,-0.071432,-0.009318,0.010564,-0.013075
engine:-0.131696,0.060543,-0.014538,0.034953,-0.022929,-0.001641,0.040565,0.008590,-0.027388,-0.098399,-0.044449,-0.048280,-0.018844,-0.084762,-0.063337,-0.007668
engineering:-0.070995,0.022006,0.015982,0.019319,-0.023464,-0.105072,0.078545,0.035563,-0.063459,-0.036870,-0.020323,-0.056733,0.025155,0.024147,-0.114880,-0.019432
engineers:-0.079539,0.042036,0.028993,0.045488,-0.049839,-0.114979,0.099587,0.016847,-0.036042,-0.026139,-0.038885,-0.104369,0.043147,-0.001345,-0.124318,0.018399
engines:-0.112129,0.038789,0.009510,0.035976,-0.053626,0.006141,0.005562,-0.000787,-0.031110,-0.068805,-0.022962,-0.025660,-0.042671,-0.067757,-0.066783,0.016133
enhanced:-0.050833,0.021362,-0.001309,0.053236,0.010632,-0.048604,0.085021,0.035028,-0.058415,0.004961,0.034838,0.031067,-0.012271,-0.039211,0.012246,-0.002534
enters:0.032082,0.009279,-0.054390,0.002908,-0.091272,-0.026526,0.109019,-0.004616,0.025477,-0.027428,-0.022434,-0.099313,0.033341,-0.001694,0.003419,-0.048857
environmental:0.029424,0.059360,0.046551,0.040325,0.092553,-0.043761,0.093006,-0.027914,-0.015670,0.049170,0.014624,-0.121006,-0.030424,0.026348,-0.005104,0.000566
equal:0.010218,0.083705,-0.008763,0.030471,-0.091114,-0.068972,0.084783,0.001407,0.087041,0.003752,0.004521,-0.140847,0.044215,0.011938,0.026608,0.027217
essence:-0.055996,0.034953,0.015790,0.010636,0.016487,-0.004941,0.099694,0.010421,0.023581,-0.073626,0.027189,-0.048248,-0.031997,-0.018748,0.058936,0.041322
essential:-0.031758,0.019307,0.016919,0.009608,0.127245,-0.003033,0.094933,0.051164,-0.070044,0.003430,0.009627,-0.027220,-0.024041,0.030946,-0.005073,0.029729
eventually:-0.055770,-0.042139,0.005488,-0.003878,-0.029725,-0.043261,0.007952,0.035293,0.003347,-0.022033,0.073059,0.091305,0.030272,0.101172,0.079083,0.064460
every:0.004888,0.012476,-0.015190,-0.029376,-0.017349,0.048394,0.104746,0.025796,0.103406,0.037677,0.047330,-0.022636,-0.026236,0.014994,-0.025524,0.070750
evolve:-0.096225,-0.006428,-0.048613,0.037408,0.008465,-0.006089,0.070922,0.011962,-0.027508,-0.013552,0.049051,-0.087452,-0.013962,0.011085,0.029263,0.034743
example:0.006033,-0.068547,-0.002190,0.059435,-0.053802,-0.019390,0.038688,0.049018,-0.031277,0.010487,0.014238,0.006110,0.059506,0.020190,0.002305,0.005757
exhaust:-0.035424,0.094613,0.075321,0.073882,-0.004402,-0.026560,0.092478,0.011547,0.013948,-0.031277,-0.016254,-0.075095,-0.049300,-0.081892,0.031895,0.020601
expelled:-0.031810,0.034109,0.026992,0.036721,0.025141,-0.013997,0.073073,-0.095643,0.005473,0.003593,0.077442,-0.024158,0.041718,0.023588,-0.016796,-0.036586
expelling:-0.016105,0.023726,0.039740,0.031508,-0.037188,-0.038061,0.133073,-0.026782,0.028784,-0.012387,0.071202,0.018184,-0.004618,0.002329,-0.012292,-0.002377
expels:-0.032157,0.005774,0.026912,0.047264,-0.027681,-0.043034,0.104715,0.023144,0.064242,0.009922,0.080422,0.000543,-0.008464,0.000028,-0.014789,-0.003083
experimental:-0.023647,0.026198,0.012312,0.061355,0.021371,-0.097425,0.006425,0.057424,-0.022847,0.046216,0.061242,-0.035741,0.017952,0.015895,-0.066251,-0.000087
exploring:0.041384,-0.013037,0.048705,0.059236,0.045846,-0.005134,0.089990,-0.038455,-0.000268,0.006525,0.000986,-0.086656,-0.010987,0.057898,-0.010143,0.018422
expulsion:0.008690,0.020999,0.063163,0.043266,0.011230,-0.020685,0.065889,-0.109104,-0.019682,-0.014473,0.083948,0.011149,0.016175,0.066630,-0.019089,-0.046769
extracts:-0.047208,-0.002520,-0.003423,0.074420,0.077858,0.070322,0.113525,0.016433,0.014158,-0.042728,0.018931,-0.015019,-0.029499,-0.029955,-0.006219,0.043631
face:-0.077111,0.087894,-0.021635,0.009314,0.039631,-0.024406,0.086941,0.002442,-0.036350,-0.044587,0.032564,-0.151973,-0.032747,-0.021021,0.028189,-0.074817
fan:-0.049139,0.007905,0.006116,0.005451,0.036158,-0.004587,0.117147,0.002914,0.105995,0.062839,0.051863,-0.081589,0.032643,-0.057167,0.013807,-0.007884
far:0.007258,0.024141,-0.101178,-0.036620,0.053334,-0.038639,-0.025086,-0.018289,0.010151,-0.011113,0.019344,-0.026652,-0.038869,0.014501,0.026745,0.051892
few:0.096916,-0.066409,-0.052213,-0.010384,-0.012713,0.010059,0.020556,0.035926,0.029883,0.064115,-0.035308,-0.102131,0.008385,-0.019651,0.026163,0.056464
first:-0.042191,-0.045165,-0.048889,0.038404,-0.069181,-0.024085,0.039020,0.007808,0.017367,-0.063445,-0.007452,0.006112,-0.009848,0.030516,-0.007056,0.039046
flew:0.040986,0.061536,-0.001808,0.058310,0.020060,0.018378,0.127288,-0.034950,-0.012486,0.022351,0.068541,-0.013474,-0.021533,-0.002161,-0.029656,0.058814
flight:0.067321,0.016799,-0.054571,0.060513,-0.031169,0.020446,0.106101,-0.012548,-0.010192,0.041880,0.034902,-0.004646,-0.055528,0.008520,-0.018562,0.024685
for:-0.080950,0.048515,0.011159,-0.016470,0.045095,0.017770,0.073247,0.023551,-0.042215,-0.029677,0.056959,0.018645,0.029506,-0.004587,-0.016717,0.026328
form:-0.105460,0.055690,-0.026517,0.014141,-0.057053,0.054300,0.020789,0.021551,-0.019619,-0.009503,-0.001534,-0.037795,-0.006829,-0.022457,0.010118,0.017259
formal:-0.010984,0.105025,0.042318,0.035280,-0.052535,-0.016400,0.128706,-0.045378,-0.030374,0.031354,-0.000288,-0.103369,-0.027710,0.002383,0.060490,0.015637
formatted:-0.007006,0.073801,-0.058533,0.074297,-0.010368,0.004203,0.053796,0.025401,0.036090,0.054718,0.009764,-0.011167,-0.010091,-0.031921,-0.083678,-0.006234
forward:-0.015715,0.012219,-0.035789,0.000540,-0.014755,0.047899,0.041298,0.001110,0.024798,0.021102,0.002734,-0.001861,-0.006074,-0.005437,0.004278,0.029502
fossil:-0.157817,0.110233,0.061109,0.056245,0.010089,0.001709,0.037265,0.003411,0.013383,0.030747,-0.010620,-0.078599,-0.071533,0.041857,-0.075601,0.051146
found:-0.019711,-0.014025,0.013792,0.034500,-0.005963,-0.044943,0.008642,0.112211,0.022249,-0.016607,0.056658,0.007485,0.015053,0.039834,-0.061390,0.025964
foundation:0.023496,0.002302,-0.025326,0.034396,0.116035,-0.049784,0.021160,0.031060,0.004603,0.014022,0.020558,-0.060058,-0.032628,0.015707,-0.011492,-0.017964
four:0.120077,0.017664,-0.076730,-0.020280,-0.119112,0.041307,0.058477,-0.020228,0.046727,0.009262,-0.049584,-0.109748,0.048734,-0.011522,-0.062036,0.061821
frank:-0.030974,0.032949,-0.032102,0.103334,0.018478,0.058527,0.032306,0.030717,0.042844,-0.122075,-0.024464,-0.056376,-0.034861,0.041080,-0.013074,0.067658
from:-0.075214,0.051694,0.008101,0.062724,0.069662,0.005080,0.122117,0.037163,-0.032550,0.006162,0.017031,-0.015930,0.028647,-0.052325,0.015687,0.032852
front:0.045137,0.034945,-0.051647,0.006140,0.011598,0.003029,0.017039,0.015182,0.013611,0.007496,-0.008239,0.054166,0.017833,-0.083165,0.012526,-0.038233
fuel:-0.042598,0.072607,-0.028446,0.090919,0.063780,0.021310,0.151577,-0.004847,-0.005737,-0.042525,-0.026017,-0.046957,-0.084699,-0.012631,-0.028047,-0.021509
fuels:-0.056092,0.048736,0.020678,0.092558,0.082468,0.038466,0.077650,0.007294,-0.009745,-0.038604,-0.044120,-0.065045,-0.113117,0.000816,-0.010676,-0.016794
future:-0.108838,0.061655,-0.009918,-0.008348,-0.047973,0.001473,0.058749,0.012043,0.104101,-0.032592,-0.006724,-0.022108,-0.024815,0.025849,-0.043727,0.032969
gas:-0.048004,0.044768,-0.043353,0.085783,0.013715,-0.015022,0.176454,0.026364,0.031747,-0.051771,-0.006545,-0.008068,-0.098071,0.013716,-0.027315,-0.070543
gases:-0.050325,0.010226,-0.034045,0.067608,0.042343,0.009128,0.125880,0.027979,0.021778,-0.012407,-0.003707,-0.032360,-0.088137,0.023472,0.002659,-0.035971
generates:-0.081134,0.063742,-0.088629,0.036468,-0.029393,-0.019012,0.039653,-0.043908,0.015625,-0.006521,0.064576,-0.134116,0.102085,-0.111537,-0.011050,0.041042
generation:-0.059950,0.065078,-0.027191,0.049999,-0.049874,0.046497,0.002851,-0.035156,0.029645,0.013541,0.087835,-0.026347,0.037790,-0.106082,-0.007344,0.021768
german:-0.018228,0.030505,0.001619,0.056274,-0.016927,-0.002624,0.116658,0.056354,0.023071,-0.069715,0.038399,-0.086150,-0.038441,0.008472,-0.043498,0.036857
germany:0.035239,0.071156,-0.040527,0.041512,0.054260,0.001728,0.030427,0.009602,0.021287,-0.051088,0.007231,-0.122314,0.034138,0.049178,-0.021907,-0.028764
global:-0.045701,-0.049160,-0.024637,-0.008146,0.018077,-0.043936,0.030141,0.001130,-0.016432,-0.015547,0.009703,-0.042825,-0.000993,0.074339,-0.060795,-0.021263
gloster:-0.024337,0.002261,-0.055574,-0.001136,-0.045016,-0.061069,0.062775,0.051061,-0.010322,-0.020527,0.037617,-0.025997,-0.056305,0.005468,-0.079415,-0.044537
greater:0.050769,0.019639,-0.027335,-0.029797,-0.042684,-0.048471,-0.042554,0.137519,0.015846,-0.043228,-0.006496,-0.034435,0.019882,0.023447,0.032604,0.001831
greek:-0.035505,0.036437,-0.006055,-0.020403,-0.075480,-0.062623,0.160689,0.034540,0.060498,0.035700,0.026314,0.020509,-0.039799,-0.002694,-0.014108,-0.015836
greenhouse:0.022462,0.075350,-0.015495,0.012800,0.094699,-0.035822,0.007922,-0.032693,0.023645,0.062712,0.044585,-0.083682,-0.006242,-0.000224,0.053666,-0.037378
gunpowder:-0.043244,0.082493,0.002842,-0.007395,0.006503,0.009113,0.127245,0.024280,-0.075455,0.009162,0.007242,0.002778,0.010359,0.006952,-0.027461,-0.043948
hans:-0.082707,0.059195,-0.002046,0.049316,-0.028002,0.035180,0.069313,0.038439,-0.014917,-0.035568,0.003028,-0.116983,-0.007176,0.009527,-0.004594,0.003399
have:-0.028764,0.111770,-0.000002,-0.008131,0.068136,-0.043234,0.038286,0.041454,-0.080004,-0.039015,0.030060,-0.040568,0.019144,-0.026204,-0.014402,0.061603
heart:-0.066730,0.059121,-0.001975,0.049113,-0.004213,-0.020185,0.078118,-0.048309,0.070631,-0.058744,0.044656,-0.067872,-0.045855,0.006993,0.007980,-0.028198
heights:0.019053,0.043632,0.006739,0.028444,-0.077733,0.019713,0.034537,0.086367,-0.010462,-0.014319,0.008998,-0.010286,0.055586,0.009139,0.019891,0.028630
heinkel:-0.045704,0.037744,-0.005832,0.026607,-0.061628,0.046901,0.063489,0.050652,-0.048515,0.002350,0.012738,-0.029174,0.003481,0.009058,-0.055075,-0.022356
hercules:-0.058001,0.048685,-0.012770,0.029180,-0.058573,-0.019478,0.125459,0.034544,0.102889,-0.016663,-0.029148,-0.041098,0.044102,0.047459,-0.002454,-0.056326
here:-0.053416,-0.005586,-0.031148,-0.009399,0.011608,0.004625,0.029703,0.066153,0.020974,-0.006492,0.003948,-0.040843,-0.037982,0.029295,0.029518,0.023272
hero:-0.080358,0.097004,-0.069646,0.015174,-0.040054,0.012886,0.118935,-0.015757,0.025519,-0.001683,0.015337,0.042394,0.009050,0.021610,-0.020679,-0.019015
high:-0.023597,0.019610,-0.058490,0.003449,-0.118505,-0.013326,0.056287,0.070538,-0.018933,-0.020984,-0.025400,-0.039463,0.019624,-0.044987,0.050754,-0.018411
history:-0.032607,0.098843,-0.022565,0.045161,-0.037200,0.052521,0.033380,-0.027801,-0.050829,0.022839,0.017650,0.015150,0.028026,-0.015321,-0.133114,-0.015166
hot:-0.072699,-0.032190,-0.036376,0.064680,-0.028090,-0.074054,0.073955,-0.004173,-0.014228,0.057912,-0.006022,-0.093835,-0.009534,0.047523,0.004454,-0.013221
hour:-0.035841,0.034851,-0.002307,0.077839,-0.010385,-0.064303,0.066161,-0.013259,0.009296,-0.061509,-0.046833,-0.068522,0.007404,0.013480,-0.051243,0.051398
hours:-0.049985,0.004608,0.000116,0.081645,0.000769,-0.070120,0.051538,-0.016106,-0.012292,-0.034090,-0.082455,-0.045925,0.021860,0.006027,-0.036736,0.040566
how:-0.053521,0.048447,0.039394,0.024237,-0.030029,-0.021394,0.030607,-0.018226,-0.072955,0.023949,-0.025294,-0.006619,0.016489,-0.008591,-0.036499,0.001202
human:-0.044024,0.009095,-0.028718,0.030886,-0.083029,-0.083431,0.153094,-0.016187,0.042658,0.047824,0.011501,-0.081848,-0.088894,0.007017,0.041158,-0.002856
hungry:-0.023561,0.013560,-0.027677,0.078299,-0.069747,-0.020605,0.120446,-0.074304,0.009114,-0.059040,-0.003875,-0.097168,-0.028156,-0.066856,0.006823,-0.105290
hybrid:-0.028616,0.084699,-0.026172,-0.015852,-0.007397,0.007824,0.056614,0.055678,-0.028005,-0.010826,0.052870,-0.019888,0.008604,-0.025473,0.044685,0.028018
hypersonic:0.028267,-0.040915,0.004860,-0.037262,-0.098471,-0.018784,0.038172,-0.029832,-0.076508,-0.061031,0.075316,-0.016734,-0.048652,-0.062471,-0.036944,0.004138
ideas:-0.024232,-0.019483,0.011531,-0.021842,-0.067815,-0.041580,0.072790,0.042381,0.022289,-0.002735,-0.023859,0.008583,-0.025861,0.040107,0.008096,-0.029386
ignited:-0.006429,0.026023,-0.012606,0.057780,0.046527,0.004718,0.127553,0.008949,0.024917,-0.031060,-0.020848,0.007519,-0.001149,-0.010554,0.017775,0.009019
ignites:-0.016129,-0.009396,0.004710,0.083070,0.055729,-0.036457,0.182389,-0.035438,-0.011991,0.004621,-0.001855,-0.063626,-0.024772,-0.033489,0.022933,-0.003739
improvements:-0.023015,0.046302,0.050669,0.009799,0.012621,0.013773,-0.006549,0.012777,-0.073673,0.019072,0.022002,0.068164,-0.055665,0.005607,0.068627,-0.008837
include:-0.014932,0.059380,0.063353,0.031087,0.069644,0.043113,0.067918,-0.015564,-0.017807,-0.055727,0.045000,-0.054304,0.033827,0.009222,0.041553,-0.021653
incoming:-0.078179,-0.014625,0.021946,-0.004231,-0.013884,-0.063924,0.044223,0.031791,0.020540,0.031612,-0.009809,-0.020214,-0.023375,-0.046929,0.073100,0.045087
increase:-0.006661,0.030993,-0.044608,-0.004662,-0.080842,-0.051283,0.044953,0.088892,-0.037586,0.000140,0.021660,-0.046886,-0.014040,0.008948,0.052987,0.050823
increases:0.001563,0.012496,-0.032628,0.022038,-0.073070,-0.050576,0.020587,0.082264,-0.008223,0.004213,0.014492,-0.009509,0.010853,0.028404,0.042805,0.040816
independently:0.048749,0.006997,-0.046572,0.065191,-0.010346,-0.004242,0.021966,-0.030376,0.059539,-0.009937,0.084850,0.025574,0.009271,-0.026053,0.068842,-0.031632
informative:0.043886,0.055498,-0.026639,0.020326,0.011607,0.016722,0.106093,0.041904,-0.004677,0.041378,0.015034,0.014554,-0.039502,0.002760,-0.017052,-0.011743
inject:-0.008074,0.057644,0.005624,0.039708,-0.032029,-0.037284,0.103550,0.010782,-0.056495,0.011292,0.040174,-0.056974,0.029813,0.041660,0.011132,0.069141
injected:0.004676,0.026355,-0.031355,0.047599,-0.087348,-0.018013,0.108782,0.023929,-0.037411,-0.035166,0.035356,-0.022777,0.063506,-0.000720,-0.007557,0.038255
innovation:-0.054359,0.020315,-0.042916,-0.045629,0.008665,-0.012459,0.020528,0.056282,-0.009831,0.017349,0.057756,0.045765,-0.017428,-0.048902,0.003036,-0.021811
intake:0.006826,0.035405,-0.011038,0.019096,0.005410,-0.048910,0.138748,0.012266,-0.002714,-0.112346,-0.025732,-0.093378,-0.056148,-0.067507,-0.075105,-0.041615
intermittent:-0.010198,-0.027081,0.068104,0.076132,-0.040270,-0.052321,0.028258,-0.018752,0.009750,-0.078312,-0.026226,0.044177,-0.010278,0.030905,-0.013013,-0.001342
into:0.018801,0.019745,-0.052871,0.068323,-0.034759,-0.045533,0.085418,0.007998,0.000466,0.009048,-0.039641,-0.058375,0.018460,-0.017731,0.061810,0.013453
introduction:-0.045066,0.058424,-0.023995,0.060462,-0.041648,0.034341,0.097795,0.089511,-0.083199,0.020475,0.009479,0.042105,0.004923,-0.079552,-0.051756,-0.007591
inventors:-0.076863,0.056792,-0.004246,0.023436,-0.095152,0.019613,0.092353,0.042208,-0.019267,0.002620,0.004663,0.001061,0.034341,-0.034005,-0.166922,0.040129
its:-0.015604,0.006627,0.003713,-0.011032,0.066524,-0.015397,0.076160,0.028763,-0.014612,-0.006275,-0.049960,-0.106968,0.002106,0.001331,-0.041948,-0.052737
jet:-0.049891,0.027905,-0.014322,0.101026,-0.025999,0.035684,0.065242,0.042393,0.000322,-0.117691,-0.018026,0.018655,-0.085806,0.059800,-0.006914,0.031829
just:-0.005218,0.025435,0.057790,-0.041360,0.091724,0.016893,-0.026338,0.014906,-0.019996,-0.031109,-0.078201,-0.040000,-0.022470,0.011340,-0.011074,0.069443
kingdom:0.002894,0.042321,-0.036833,0.026342,-0.049528,-0.059188,0.060419,-0.104230,0.055477,-0.012105,0.017621,-0.137967,-0.002906,-0.021165,0.020176,-0.016713
know:0.080736,0.035462,-0.036186,0.016804,-0.016628,-0.138693,0.020680,0.043507,0.010892,0.043733,-0.008188,-0.023174,-0.005772,0.045395,-0.039040,-0.008060
known:0.023928,0.086428,-0.005276,0.043487,-0.035965,-0.056346,0.055439,0.059132,-0.098734,0.098726,0.001162,0.007328,-0.027605,0.048070,-0.069325,0.004849
laid:-0.073592,0.007296,-0.041680,0.067167,-0.126265,0.019975,0.016049,0.029369,0.016506,0.004425,0.019659,-0.075479,-0.039513,0.035470,0.052246,-0.019691
large:0.055368,0.068904,-0.048443,0.047420,-0.060375,-0.051786,0.042768,0.089511,-0.065815,0.019425,-0.024651,-0.015958,-0.055540,-0.010846,-0.051276,0.014434
late:-0.038637,-0.011661,-0.060889,0.037086,0.066321,-0.062474,0.001478,0.052056,0.004435,0.035079,-0.024605,-0.045480,-0.017865,0.094230,0.009030,0.062284
law:-0.059089,0.065484,-0.034296,0.013881,0.051206,0.021754,0.063943,0.008742,-0.015949,0.093037,0.048730,0.008350,-0.022362,0.013208,0.041659,-0.015697
let:-0.066757,0.040445,-0.023819,-0.066066,-0.022400,-0.020249,0.040367,0.008832,-0.023053,-0.041434,-0.019039,-0.035202,-0.036281,0.036443,0.051136,0.090459
like:-0.048880,-0.002894,-0.041444,0.082331,-0.017353,0.007062,0.101541,0.019893,0.027903,0.001315,0.016071,0.011636,0.004958,0.064838,0.012693,0.033278
london:0.083410,-0.017167,0.033269,-0.017126,-0.047541,0.024923,0.072861,-0.062033,-0.013043,-0.008700,-0.006597,-0.064858,-0.008275,0.002425,-0.007530,-0.020410
long:-0.024573,0.026479,0.044696,0.009020,0.025599,0.028625,-0.021977,0.030272,-0.005981,-0.067762,-0.012872,0.021379,-0.012169,-0.021021,-0.068472,0.071032
lower:0.047460,0.052929,-0.005471,0.002391,-0.094131,-0.051269,0.014607,0.172737,0.039808,-0.042091,-0.022301,-0.028222,0.052975,-0.014215,0.052477,0.029370
mach:-0.026806,0.044211,0.004709,0.112970,-0.017269,0.002535,0.020697,0.030904,-0.001211,0.013104,0.062645,-0.066727,-0.001177,0.021898,-0.000723,-0.035548
machine:-0.072135,0.028487,-0.011771,0.019801,-0.043478,-0.031459,0.014961,0.002890,0.003245,-0.033952,0.010499,-0.010207,0.077768,-0.076556,-0.001400,-0.002102
machines:-0.055371,0.019180,0.011103,0.019964,-0.076243,-0.024339,0.024710,-0.012488,0.016689,-0.001510,0.024967,0.011722,0.097954,-0.026033,-0.020652,0.010090
main:-0.027058,0.002688,-0.034908,-0.037359,0.004450,0.013678,0.048740,0.067258,-0.070166,-0.010610,-0.054336,-0.059088,-0.018908,0.023562,-0.010629,-0.034314
making:-0.075533,-0.004827,-0.006863,0.069150,-0.069924,-0.048998,0.069901,-0.027071,-0.023642,0.030346,-0.023308,-0.102487,0.011560,-0.029153,-0.056381,-0.014327
maneuverability:-0.008326,-0.005812,-0.067119,0.009728,-0.081770,0.001882,0.094514,0.012355,-0.070138,0.036386,0.108487,0.068296,0.029136,0.023680,-0.073641,-0.013880
manufacturing:-0.050483,0.010765,-0.021325,0.007445,-0.031968,-0.019992,0.064821,0.014777,-0.042987,-0.023227,0.042212,-0.028477,0.019728,-0.005393,-0.092623,-0.033831
materials:-0.068473,-0.007244,-0.004023,0.081967,0.026740,-0.027058,0.156148,0.016845,-0.030045,0.068588,-0.033295,-0.038693,-0.023706,0.046296,-0.047227,-0.033610
meanwhile:-0.054341,0.030396,0.007132,-0.009170,0.062528,-0.093525,0.015644,0.038936,-0.009422,-0.064354,-0.026595,0.015853,0.005047,0.026515,-0.004642,-0.032226
mig:-0.116424,0.022999,-0.024517,0.078750,-0.018664,0.019694,0.129346,0.067209,0.051502,-0.060548,0.084120,-0.046462,-0.044594,0.008925,-0.008326,-0.023916
military:-0.058829,0.026830,0.006618,0.042511,-0.035950,0.022105,0.111060,-0.021008,-0.025577,0.062118,-0.001609,-0.045101,0.064370,0.013943,-0.012813,-0.044493
millions:0.065261,0.009223,-0.044197,0.045296,-0.076321,-0.005102,0.058556,0.108572,0.053287,0.048414,-0.000439,-0.042774,0.050074,-0.006533,-0.045287,0.062678
missiles:-0.041617,0.039153,-0.027465,0.000965,-0.044824,-0.010425,0.119899,0.023146,-0.001772,0.044040,0.027335,0.064508,0.066276,0.012747,0.010722,0.023310
mixed:0.026683,-0.018778,-0.003953,0.021140,-0.015622,-0.046344,0.080761,0.000951,0.012986,-0.018498,0.016524,-0.098510,-0.073117,-0.034157,-0.004837,0.022147
mixes:-0.019007,-0.071328,0.015790,0.029535,-0.042166,0.010464,0.061467,-0.055577,0.000882,-0.062925,0.017628,-0.091133,0.009344,-0.107123,0.052145,0.008004
mixture:-0.004874,-0.036926,0.003298,0.025567,0.047228,0.021180,0.150030,0.003684,0.006070,-0.079919,0.013061,-0.089307,0.009982,-0.003267,-0.006526,-0.040905
modern:0.036824,0.046611,-0.040441,-0.016700,-0.002460,-0.034620,0.018769,0.010222,-0.073957,0.057862,0.045181,0.059558,0.001533,0.041240,-0.046856,0.021189
more:-0.034173,-0.037663,0.005502,0.013767,0.009202,-0.097812,0.021219,0.098066,0.030885,-0.011230,-0.038879,-0.072752,0.023885,0.017325,-0.046796,0.073143
most:0.030570,-0.052804,0.033518,-0.034812,-0.022267,-0.046154,0.095539,0.081500,0.037204,0.033862,-0.007357,-0.025193,-0.000807,0.035267,0.032268,0.038815
motion:-0.023448,-0.022939,0.005427,-0.034677,-0.020259,0.066337,0.066824,-0.003856,0.059287,0.012873,0.096879,-0.019165,-0.057315,0.018978,-0.039861,0.004211
moving:0.035135,-0.064597,0.029326,0.014443,0.091893,0.011205,0.097860,-0.040044,0.024414,0.001420,0.066896,-0.022730,-0.018275,0.016580,-0.027420,0.007921
nearly:0.022227,0.046617,-0.042673,-0.000950,0.002344,-0.115666,0.012980,0.020650,-0.013716,-0.035206,-0.048053,-0.000650,0.044572,0.025338,0.041978,0.002812
new:-0.058694,-0.055127,-0.015212,-0.009662,0.020696,-0.051440,0.034596,0.023433,0.008694,0.001745,0.067157,-0.011196,-0.088782,-0.013833,-0.033493,-0.025936
newton:-0.029827,0.011383,-0.041951,0.071430,0.002313,0.032345,0.038421,0.046999,-0.007518,0.072877,0.062287,-0.082671,-0.048221,0.016861,-0.053853,-0.002150
next:-0.043844,-0.005236,-0.023503,0.004519,-0.064376,-0.064091,0.055647,0.087905,0.056047,-0.018596,0.019622,-0.006987,-0.014752,0.072223,-0.052879,0.022542
noise:0.000428,-0.027682,0.034886,0.030917,-0.051714,-0.029588,0.165731,-0.081026,0.041814,-0.056629,-0.021915,-0.039351,0.024171,-0.047079,-0.061629,0.029083
noisy:0.023929,-0.037094,0.070007,0.028138,-0.044070,-0.073043,0.144562,-0.087349,0.023786,-0.050024,-0.054236,-0.043246,0.025557,-0.044956,-0.085269,0.035779
nozzle:-0.070174,0.039429,0.016916,-0.035226,-0.008155,-0.038268,0.106349,-0.032692,-0.012614,-0.070895,0.069756,-0.015499,-0.034624,0.041485,-0.042122,-0.020046
oceans:-0.034604,0.035555,0.014439,-0.016570,-0.004758,-0.024515,0.064112,-0.041197,0.028775,-0.018189,-0.004742,-0.103475,-0.006389,0.025467,0.022004,0.047361
often:0.055022,-0.001702,0.003928,0.039861,-0.073025,-0.040036,0.078024,-0.004727,0.074607,-0.034287,-0.032783,0.074489,0.019700,0.047725,0.031116,0.028287
ohain:-0.078540,-0.003281,0.032584,-0.069119,0.118435,-0.080173,0.132375,0.003440,0.027159,-0.035205,0.034305,-0.018294,-0.009276,-0.009291,-0.052508,0.004112
one:-0.034243,-0.012123,-0.034629,0.008117,-0.083223,-0.030436,0.111964,0.022502,0.067980,-0.005894,-0.060786,-0.060415,0.071444,-0.022066,-0.018954,0.049374
operate:0.016259,0.061923,0.036749,0.031334,-0.137472,-0.024020,0.072362,-0.010258,0.017474,0.014169,0.047914,0.055385,-0.019814,0.014037,0.044268,-0.023344
operational:0.003500,-0.010625,-0.018944,0.041844,-0.078967,-0.044166,0.081314,0.041665,-0.005293,0.009207,0.047223,0.030982,0.001192,0.049794,0.027069,0.013575
opposite:-0.010884,0.030742,0.001416,0.051239,-0.065161,-0.059798,0.031662,0.043438,0.035111,0.038700,0.052868,0.001120,0.040006,-0.007853,0.002249,-0.001923
origins:-0.096365,0.036915,-0.062318,0.012211,-0.048302,-0.026365,0.089186,0.005369,-0.015103,0.009265,0.063898,-0.036233,0.018946,-0.010257,-0.117876,-0.019241
other:-0.070565,-0.085052,-0.060301,-0.019945,0.084928,-0.019091,0.067342,0.073055,0.008945,-0.036617,0.013065,-0.060297,-0.028736,0.077354,-0.018885,-0.032205
page:-0.097113,0.031560,-0.041520,-0.023984,-0.044387,0.007696,0.029198,-0.017269,0.020503,-0.009450,0.035926,0.089121,0.028030,-0.041121,-0.079461,-0.065209
parts:-0.011612,0.058012,0.076738,0.021125,0.038636,-0.049265,0.062980,0.008808,0.006529,-0.058409,-0.015487,-0.049384,-0.002202,-0.010381,-0.010614,-0.081106
pass:0.015837,0.055611,-0.064140,0.015842,-0.025761,-0.016871,0.085622,-0.008596,0.005899,-0.075801,-0.069004,-0.114533,0.000426,-0.000319,0.025388,0.046640
passes:0.020315,0.049021,-0.038370,0.011539,0.003276,0.025004,0.087168,-0.031246,0.027726,-0.067135,-0.078588,-0.068853,0.007011,0.020427,0.025038,0.016588
pdf:-0.041258,0.028313,-0.151007,0.023142,0.001702,-0.027744,-0.023536,0.061422,-0.021922,0.004752,0.070559,0.061476,-0.003566,0.046242,-0.090234,-0.042595
perhaps:-0.084429,-0.001475,0.049230,-0.005087,-0.016048,-0.035005,0.047142,0.067546,-0.067282,-0.009538,-0.049705,0.002902,-0.021726,0.011804,0.075201,0.018061
pinnacle:0.034719,-0.036301,-0.045513,-0.059979,-0.049626,0.033460,0.038693,0.064572,0.033476,-0.018430,-0.016812,-0.013531,0.036833,0.001123,-0.078237,-0.002966
piston:-0.122383,0.056430,-0.021375,-0.039682,-0.099213,-0.011765,0.043352,0.079155,0.024694,-0.048641,-0.040598,-0.014052,-0.059550,-0.011694,-0.088202,0.018257
planes:0.030703,-0.017544,-0.062768,0.074025,-0.032701,-0.002767,0.093338,-0.026389,0.016626,0.049864,0.002034,0.017659,-0.048467,0.018913,-0.048434,0.052097
possible:-0.052331,0.053731,-0.077230,0.029700,-0.019465,-0.062358,-0.030808,0.038518,-0.014075,-0.000088,-0.026819,-0.044817,-0.003816,0.045908,0.050296,0.026774
power:-0.054845,0.157038,-0.019523,0.091207,-0.015264,0.002121,0.096446,-0.035636,0.065565,0.024238,-0.004870,-0.013287,0.009750,-0.018444,-0.011361,0.070509
powered:-0.024415,0.074647,-0.057481,0.085726,-0.041684,-0.029304,0.061539,0.007214,0.039908,0.040956,-0.004468,-0.059319,-0.023144,0.006511,-0.026999,0.097706
powerful:0.020974,0.084657,-0.053761,0.060093,-0.077005,-0.016846,0.067774,0.010338,0.005865,-0.010588,-0.023360,0.043370,-0.011000,-0.008691,-0.013162,0.042591
predecessors:0.010329,0.026243,0.069239,-0.040691,-0.026916,0.065358,-0.053191,0.035876,-0.016959,0.021859,0.030459,0.042082,0.015946,-0.018230,-0.024790,-0.060826
pressure:-0.111866,0.053767,-0.045232,0.031964,0.000949,-0.018088,0.170707,0.000328,0.054606,-0.009141,-0.011758,-0.055064,-0.013373,0.000447,-0.037442,-0.063678
principles:-0.028868,0.048913,-0.009203,-0.018549,-0.041952,0.004198,0.054566,-0.011842,-0.017794,0.045131,0.015670,0.026229,-0.002423,0.001045,0.055710,-0.076879
printing:-0.057189,0.078491,-0.087862,0.032511,-0.048456,-0.019662,0.039347,0.023719,-0.100518,-0.033031,0.122219,0.072195,0.050461,0.004752,-0.055754,-0.037563
process:-0.080116,0.019231,-0.062580,-0.058329,0.014804,-0.053100,0.105197,0.027342,0.046551,0.036954,0.007073,0.002696,0.007659,-0.025857,-0.034786,-0.041374
producing:-0.022365,-0.009133,-0.029943,0.059699,-0.029386,-0.009272,0.018953,-0.015504,-0.037457,-0.002579,0.016368,-0.116716,0.029634,-0.042131,-0.059053,-0.030513
product:-0.088460,0.043447,-0.000244,-0.000959,0.032436,-0.031760,0.182682,0.095729,-0.006586,-0.012966,0.023900,-0.035442,0.052063,0.011154,-0.060634,0.034203
propeller:0.002684,-0.000017,0.000471,-0.025584,0.014798,-0.015457,0.045692,0.019131,0.010511,0.011690,0.101181,-0.001349,-0.034297,-0.019994,-0.032997,0.010333
propels:-0.019582,-0.000023,-0.001300,0.015854,-0.013290,0.010816,0.050420,-0.021794,0.042693,0.013824,0.035914,-0.048780,-0.046649,-0.005754,0.008920,-0.032619
propulsion:-0.011312,0.007961,0.031587,0.044770,-0.058249,-0.001903,0.032521,0.024114,-0.058717,0.003886,0.052149,-0.002015,-0.052044,0.007302,-0.040271,0.019435
provide:-0.101248,0.111978,0.039802,0.015573,-0.006681,-0.015300,0.043556,-0.010294,-0.011926,-0.063866,0.016212,-0.113344,-0.008590,-0.002110,0.031397,0.047591
providing:-0.087796,0.082950,0.022431,0.009635,-0.028269,0.015149,0.048275,-0.020350,-0.048222,-0.049291,0.016625,-0.076370,-0.005322,0.012169,0.028197,0.015488
purposes:-0.050384,0.083752,-0.020915,-0.023125,0.030644,0.001906,0.119291,0.001032,-0.032089,-0.043577,0.014332,0.019062,-0.032595,-0.031041,-0.022874,-0.005943
pushing:-0.029052,-0.025882,0.009639,0.054383,-0.045172,0.007090,-0.005107,-0.005048,0.021287,0.042940,0.056493,-0.067469,-0.037468,0.029971,-0.034084,-0.003335
quieter:0.036479,-0.024369,0.000237,0.022200,-0.010176,-0.140498,0.095122,-0.015879,0.023688,-0.019754,-0.028386,-0.014888,0.019106,-0.071763,-0.018787,0.001388
ramjet:-0.028402,0.079624,-0.037634,0.009109,-0.106886,0.005418,0.044203,0.039675,0.001907,-0.092696,-0.005356,0.067525,-0.051535,-0.001973,-0.044933,0.025042
ramjets:-0.026667,0.067336,-0.046433,0.010915,-0.110313,-0.001264,0.053880,0.041727,0.023679,-0.064789,0.003129,0.058049,-0.045150,0.004280,-0.042160,0.020610
rapid:0.009572,-0.005473,-0.050713,0.015585,-0.026805,0.018754,0.033878,0.002925,0.002876,-0.067024,0.107108,-0.022582,-0.045695,-0.022372,0.032489,-0.086073
reaction:-0.044288,0.043372,-0.017942,0.090072,0.040081,0.021016,0.093208,0.094384,0.083762,0.039922,0.040176,-0.066990,0.000524,0.006232,-0.014535,0.056099
reduce:0.012277,0.185054,0.053571,0.057201,0.009558,-0.009317,0.024018,0.056932,0.000088,0.031675,-0.027924,-0.042761,0.037370,0.032339,-0.013553,-0.013574
reduced:0.033382,0.154468,0.017029,0.082047,-0.008255,-0.007551,0.072280,0.012699,0.003725,0.017445,0.044833,-0.013311,0.035598,0.022373,-0.040700,0.002922
regional:0.104823,0.016175,0.018107,0.007041,-0.050550,-0.013342,-0.053550,-0.000878,-0.037835,-0.030683,-0.005102,-0.043903,-0.038990,0.047299,-0.025334,-0.073524
rely:-0.020570,-0.007825,-0.006744,0.060079,0.007931,0.009303,0.076383,0.011089,-0.008735,-0.070655,0.010140,0.005839,0.002214,0.028800,0.044695,0.067550
remaining:0.010901,0.030462,-0.056563,-0.002390,0.044682,-0.015277,0.070120,0.031114,0.009016,-0.019638,-0.014473,-0.050399,-0.002902,-0.014920,-0.055003,0.076580
represent:-0.006431,0.021066,0.036433,-0.007845,0.006706,0.063358,0.094377,0.014786,0.072091,-0.072566,-0.018989,-0.118326,0.011441,-0.000167,0.019156,0.010677
researchers:-0.021066,0.049471,-0.003615,0.124271,0.005717,0.007702,-0.019244,0.085154,0.051653,0.066479,0.004342,0.027309,-0.026167,0.038973,-0.072209,0.032993
revolutionized:0.035624,0.038394,-0.039975,-0.044260,-0.034735,0.011663,-0.024922,-0.007079,-0.106210,0.011740,0.048977,0.147647,0.030855,0.020884,-0.008042,-0.016795
rockets:-0.066630,0.036919,0.002859,-0.032968,-0.094215,0.040543,0.111952,-0.005539,0.043280,0.012840,-0.054035,-0.012880,0.020929,-0.031628,0.004705,-0.021080
role:-0.034168,0.053311,0.014914,0.015849,-0.056161,-0.003377,0.133608,-0.029361,-0.003732,-0.038996,-0.007769,-0.030000,-0.002386,0.055369,0.002690,-0.028522
rolls:-0.061146,0.053505,-0.095579,-0.030261,-0.118375,-0.039897,0.052162,-0.021340,-0.021953,-0.030092,0.051329,-0.020223,-0.000276,-0.001370,-0.001365,0.006705
royce:-0.046521,0.012713,-0.042228,0.058964,-0.016983,0.058574,0.046223,0.073256,0.006276,-0.107793,0.005875,-0.108355,-0.045472,-0.010379,-0.074080,0.050421
saf:-0.039690,-0.058295,-0.114414,0.027566,0.077596,0.043957,0.046181,-0.008662,-0.027282,0.011153,-0.021788,-0.075622,0.043595,0.003940,-0.012177,-0.031819
school:-0.014044,0.076060,0.014289,0.069015,-0.005907,-0.029543,0.070771,0.007752,0.077365,0.066030,0.065765,-0.018841,-0.005301,0.019456,0.001250,-0.004245
scramjet:-0.049063,0.002318,-0.081400,-0.015274,-0.056503,0.040231,0.040643,0.042535,-0.073281,-0.048363,-0.009330,0.013830,-0.069264,0.011216,-0.082246,0.008562
scramjets:-0.046394,-0.015529,-0.074166,-0.010243,-0.064167,0.032777,0.049638,0.039537,-0.055335,-0.035288,-0.005595,0.007512,-0.067128,0.025679,-0.083973,0.003368
several:0.017604,-0.072296,-0.037739,-0.004452,-0.043068,0.005784,0.035163,0.018484,0.022397,0.028059,-0.042835,-0.034788,0.022474,-0.009144,-0.012476,0.023045
shaping:-0.044129,0.022109,-0.063608,0.013403,-0.095497,-0.002546,0.059599,0.007934,-0.029411,0.018997,0.030838,-0.006975,-0.014368,0.039346,0.010998,0.024901
significantly:0.095053,0.108472,-0.002064,0.028832,0.000109,-0.016375,0.020385,0.114237,-0.034946,-0.007505,0.015776,0.029685,-0.007710,0.040849,0.028624,-0.000428
simple:0.075842,0.034571,0.002442,0.049612,0.016692,-0.022505,0.027444,0.033607,0.001376,0.055758,-0.017626,-0.079562,-0.016746,-0.019689,-0.023590,-0.056489
simplest:0.046058,0.078608,-0.015304,0.040455,-0.015000,-0.032930,0.000729,0.066176,-0.068876,0.035030,-0.018284,-0.071139,0.010304,0.026529,-0.015242,-0.026411
sir:-0.106088,0.018264,-0.066476,-0.036884,-0.043417,-0.054815,0.078940,-0.003339,-0.002000,-0.025056,-0.000390,0.004585,0.008712,0.043817,0.030994,0.064350
some:-0.036285,-0.030306,0.032840,-0.034511,-0.007811,-0.009154,0.117198,0.000969,-0.010177,0.034506,-0.042689,-0.056459,-0.010885,0.052501,0.008042,0.024202
space:0.019268,-0.026502,0.003421,0.018805,-0.074058,0.011218,0.122560,-0.012577,0.101000,0.004858,0.048952,-0.023167,0.008426,-0.005769,-0.027074,-0.061481
spaceplane:-0.004225,-0.063690,0.029255,-0.022286,-0.104213,0.011093,0.100452,0.007710,0.086183,0.046047,0.041574,-0.056082,-0.084594,-0.020074,-0.102817,-0.034533
specific:0.030819,0.007888,-0.045309,-0.006242,0.033173,-0.005465,0.053289,0.048552,-0.019183,0.024967,0.029888,-0.033307,-0.056951,0.020770,-0.020301,-0.011451
speed:-0.011466,0.066202,-0.034257,0.011115,-0.046425,-0.010371,0.041096,-0.030059,-0.000048,-0.033749,0.064678,-0.052638,-0.075285,-0.022193,-0.059692,-0.021651
speeds:0.007573,0.040049,-0.030732,0.017217,-0.047120,-0.035532,0.020111,-0.014768,0.011608,-0.034095,0.063778,-0.051802,-0.074789,-0.031124,-0.055747,-0.014160
starfighter:-0.042253,0.032799,-0.014764,0.028764,-0.003180,-0.002217,0.070912,-0.007904,-0.001332,0.023008,0.010334,-0.065220,0.055556,0.012395,-0.033134,0.042277
still:-0.051363,-0.013820,-0.046305,-0.014852,0.106974,-0.113836,0.035976,-0.025886,0.011033,-0.009262,-0.035197,-0.003827,0.012576,0.084552,-0.059174,0.003460
stream:-0.049106,-0.041544,-0.053306,-0.070483,0.065450,0.014206,0.004014,0.005864,0.033555,-0.004817,-0.061819,-0.038140,-0.090794,0.025419,-0.032002,-0.064099
students:0.016065,0.038537,-0.006869,0.008623,-0.060894,-0.064102,0.056712,-0.006625,0.052111,0.068668,0.125339,0.013415,0.001093,0.008809,-0.027604,-0.012630
such:-0.007074,0.048611,-0.055840,-0.011193,0.077387,-0.036621,-0.006296,0.005502,0.026406,0.000024,0.010823,0.021151,-0.052442,0.094898,-0.013931,0.063337
suitable:-0.056439,0.055005,-0.082543,-0.005679,0.004917,-0.037885,0.026822,0.057177,-0.068950,0.017637,0.000503,0.007682,-0.013674,0.056603,0.014944,0.034210
suited:-0.038338,-0.005847,-0.023387,0.015366,0.003149,-0.054942,0.096241,0.037733,-0.018336,-0.012921,-0.009066,-0.112216,-0.019790,0.021316,0.012305,-0.010179
supersonic:-0.031328,-0.028080,0.018990,0.027739,-0.082121,0.013337,0.060332,0.014820,-0.048986,-0.059768,0.072659,-0.021736,-0.030786,-0.049440,-0.055068,-0.014342
sure:-0.139502,-0.039791,-0.008734,0.014005,0.017042,0.018752,0.080143,0.045594,-0.080697,-0.041591,-0.006029,-0.013248,0.007567,0.033404,0.029593,0.074099
sustainability:0.004107,0.118058,0.006518,0.020163,0.064956,0.019666,-0.018542,-0.043702,-0.018906,-0.019413,0.015381,-0.060685,-0.013828,0.000329,-0.063682,0.002993
sustainable:0.009228,0.104226,-0.005203,0.054735,0.065621,0.034934,-0.033627,-0.037647,-0.039698,0.025143,0.016953,-0.064489,0.003166,-0.011636,-0.064463,0.021150
synthetic:-0.054521,-0.045035,-0.022950,0.046520,-0.020291,-0.050726,0.052424,0.013302,-0.025101,0.022968,-0.018960,-0.036293,-0.061035,0.024143,-0.051330,0.014656
systems:-0.030209,-0.002043,-0.079710,-0.058934,-0.021014,-0.024949,0.062261,0.060501,0.060867,0.034350,0.012297,0.008752,0.073778,0.002671,-0.048165,-0.065352
takeoff:0.018569,0.077383,0.023715,0.048104,-0.057428,0.033751,0.087429,-0.021787,0.019900,-0.008073,0.038935,0.043934,-0.037945,0.026266,-0.026856,0.057835
takes:-0.052195,0.074024,0.005961,0.001630,0.026070,-0.027200,0.097438,-0.016422,-0.000005,-0.015872,-0.067838,-0.024119,-0.017254,-0.000441,0.021250,0.038528
technical:-0.060561,-0.009009,0.024700,0.007596,-0.051064,-0.012132,0.127936,0.160369,0.002562,0.061395,-0.002027,-0.054052,0.033946,0.028918,-0.059916,-0.056912
technology:-0.053376,0.087075,-0.026189,-0.030772,-0.049461,-0.026710,0.114675,0.107684,0.003822,0.017177,0.055260,0.025071,0.022185,0.024033,-0.059593,-0.040829
temperature:-0.051946,0.033314,-0.045175,0.116289,-0.005618,-0.013475,0.093256,-0.003809,0.031670,0.013480,0.049845,-0.126181,0.059654,-0.013034,0.032011,-0.077475
terms:0.032504,0.031511,-0.028534,0.041499,-0.034697,-0.021231,0.069424,0.023095,-0.040113,0.037479,0.056509,-0.051457,0.025141,0.009994,-0.022989,0.022575
than:-0.025393,0.067535,-0.002983,0.045762,0.005048,-0.080986,0.000594,0.004606,0.075587,-0.015300,0.001059,-0.077491,0.035879,0.049450,0.068702,0.048840
that:-0.018246,-0.005750,-0.020971,0.006281,0.036637,-0.115665,0.022803,0.069956,-0.017740,-0.009043,0.016053,-0.028264,0.026412,0.044423,0.030885,0.016333
the:-0.047474,0.074180,-0.046913,0.042618,-0.003820,0.019375,0.030111,-0.031408,0.019496,0.028798,0.046864,-0.065936,0.006899,-0.018971,0.022841,0.035590
their:-0.040182,0.066280,-0.024235,-0.030318,0.023834,-0.029011,0.145791,0.032040,0.022484,0.019008,0.056659,-0.056151,0.045784,-0.052726,0.024381,-0.066332
then:-0.008070,0.002626,-0.078826,0.001057,0.004042,-0.089597,-0.010643,-0.003149,-0.009916,-0.039530,-0.021539,0.028714,-0.001706,0.055096,0.041956,-0.016205
there:-0.049635,0.031970,-0.086738,0.018406,0.001198,-0.034791,0.036410,0.062613,0.011559,-0.016908,-0.015977,-0.044431,-0.039911,0.017165,-0.016559,-0.005365
these:-0.075135,0.008765,-0.018251,-0.019313,0.003571,-0.049855,0.096609,-0.008774,-0.002076,0.026998,0.036007,-0.016914,-0.004154,-0.000275,-0.067005,0.022766
they:-0.144134,0.075740,0.007689,-0.002760,-0.010723,-0.027832,0.149524,-0.011688,0.001982,0.019491,0.007808,-0.022771,0.002793,-0.036640,0.000982,-0.026682
third:0.001653,-0.084030,-0.108384,-0.001664,-0.041250,-0.027055,0.092802,0.047365,0.051416,-0.056010,0.004709,-0.091011,-0.013217,0.044407,0.029106,0.047058
this:-0.067742,0.046260,-0.044020,-0.017794,0.007402,-0.038544,0.085126,0.027550,0.011735,0.030753,-0.007641,0.008194,-0.008657,0.055565,-0.039251,0.028021
thousands:0.081719,0.017873,-0.066604,0.013525,-0.095460,0.020036,0.048944,0.073012,0.052790,0.033939,0.002835,-0.060282,0.092990,-0.014884,-0.075914,0.056000
through:0.000826,-0.002625,-0.013156,0.045872,0.028288,-0.022706,0.074560,-0.050419,-0.008845,-0.026691,0.012102,-0.012462,0.014725,-0.012554,0.070631,0.014533
thrust:-0.007556,-0.007518,0.010011,0.068869,-0.080958,0.005163,0.045007,0.008692,0.017301,-0.008208,0.051981,-0.016182,-0.051331,0.032193,-0.044474,-0.002278
today:-0.055993,0.087290,-0.046595,-0.008047,-0.007476,0.025355,0.117544,0.008027,-0.046538,-0.003538,0.007819,0.078907,-0.027311,0.123665,0.009680,-0.013500
tone:-0.037384,0.023824,0.006358,-0.046465,-0.126372,0.033741,0.091363,-0.054450,-0.038839,0.004767,0.009637,0.001286,0.006514,-0.081220,0.090585,0.031006
transports:-0.003598,-0.054235,-0.016746,0.032267,-0.032609,-0.009308,0.144561,-0.000093,-0.000409,-0.024418,0.016449,-0.024125,-0.007182,0.089996,-0.103048,-0.054269
travel:0.076969,-0.001964,-0.003316,0.065094,0.035885,0.018330,0.156371,-0.029929,-0.005941,-0.001277,0.040774,-0.000801,-0.055086,0.086157,-0.022340,-0.027857
trent:-0.041954,-0.000612,0.042604,-0.011278,-0.020497,-0.019172,0.080107,0.039401,0.041776,-0.027002,-0.038600,-0.008120,-0.023380,-0.041877,-0.080161,0.029840
turbine:-0.106115,0.082516,-0.018933,0.038850,0.043874,-0.025490,0.027582,0.025845,-0.016359,-0.099346,0.030412,0.009439,-0.023273,-0.073443,-0.048854,0.066637
turbofan:-0.100832,0.061110,-0.029716,0.088606,0.045859,-0.033541,-0.036364,0.033289,0.006347,-0.045660,0.075737,0.002254,-0.029877,-0.080835,-0.007942,0.010496
turbofans:-0.102411,0.040995,-0.031464,0.096144,0.033402,-0.029104,-0.012016,0.037456,0.005308,-0.035494,0.087768,0.009833,-0.030154,-0.071841,0.003442,-0.010636
turbojet:-0.088153,0.056720,-0.040765,0.059546,-0.049881,-0.022441,0.003202,0.024540,-0.084722,-0.084181,0.038913,0.087004,-0.086997,-0.010685,-0.064118,0.021744
turbojets:-0.086758,0.044132,-0.043505,0.061743,-0.057345,-0.022894,0.019431,0.028889,-0.067365,-0.073111,0.044041,0.078028,-0.086769,0.001507,-0.057326,0.021292
turboprop:-0.132194,0.033505,-0.026519,-0.010569,0.022658,0.006759,-0.013337,0.075213,-0.105241,-0.041124,0.051977,0.041473,-0.013825,-0.076165,-0.060254,0.062029
turboprops:-0.148508,0.023993,-0.030306,0.001962,0.002560,-0.001081,-0.003185,0.084354,-0.097894,-0.037141,0.058493,0.042428,-0.006499,-0.067820,-0.060912,0.066922
two:0.016546,-0.004436,-0.095168,0.008560,-0.090733,-0.038262,0.074633,0.021898,0.045842,-0.014967,-0.067035,-0.128196,0.041490,-0.050264,-0.023278,0.087981
type:-0.047648,-0.032636,-0.011113,0.077664,-0.094982,0.005866,0.129641,0.079603,0.009860,-0.005295,-0.007587,-0.027364,-0.060417,0.020948,-0.015802,0.001425
types:-0.013962,-0.068622,0.037859,0.046837,-0.088712,0.024748,0.065900,0.048113,-0.021153,0.009177,-0.016625,-0.023175,-0.096683,0.036970,-0.010451,-0.024072
ultra:0.004179,-0.035112,-0.074818,0.021326,-0.021410,-0.039596,0.029906,0.030597,-0.021202,-0.000940,0.040390,0.007047,-0.032266,-0.005794,-0.020616,0.002040
under:-0.015109,0.035742,-0.034113,0.015327,0.007555,-0.021747,0.026401,0.038248,0.000632,-0.038098,-0.006943,0.010370,0.067740,-0.064291,0.113551,-0.003972
unimaginable:-0.004015,0.008997,-0.082563,0.057704,0.022601,0.030028,0.030603,0.000483,0.030736,-0.006983,0.009809,0.005129,0.027858,0.064047,-0.103619,-0.057023
united:0.012461,0.024266,-0.060031,-0.024321,0.023667,0.032425,0.047368,-0.068551,0.007251,0.000950,-0.024827,-0.089830,0.032442,0.018290,-0.006098,-0.048707
unlike:-0.017907,0.042693,-0.048580,0.013064,-0.036719,-0.060917,0.059032,-0.013829,0.072325,0.028684,0.009793,0.024373,0.019905,-0.017321,-0.025517,0.028380
use:-0.044532,0.042797,-0.047729,0.014366,-0.027138,-0.003889,0.098116,0.092149,-0.005258,0.028014,0.027138,0.023773,-0.004567,-0.007614,0.021163,0.039102
used:-0.053133,0.048825,-0.091608,0.016457,-0.043434,-0.044329,0.105597,0.119868,-0.007676,-0.005629,0.071034,0.019375,-0.016305,-0.012197,-0.061873,0.040849
using:-0.004534,0.038818,-0.060771,0.013129,-0.040154,-0.005063,0.129404,0.073057,0.021036,0.001752,0.052238,0.029122,0.017163,0.011655,0.038914,0.025082
varieties:0.014225,-0.021820,0.015739,0.046094,-0.007193,0.014908,0.070179,-0.068840,-0.065862,0.002806,0.081129,-0.075003,-0.021949,-0.005987,0.010747,0.046446
vehicles:0.002625,0.056903,0.019743,0.028046,-0.036139,0.009495,0.077928,0.027743,0.014350,-0.011194,0.065742,0.017909,0.033324,0.029413,-0.038540,0.027505
von:-0.002560,0.058510,-0.006610,-0.014140,-0.049823,0.097745,0.046374,0.101268,0.025722,-0.057783,0.011946,-0.048055,0.038871,0.003546,-0.066638,0.030431
want:-0.112689,0.023763,-0.107294,-0.019476,0.013233,-0.098230,0.008876,0.048707,0.020053,-0.025136,-0.038331,-0.143077,-0.075158,0.007945,-0.024604,0.093967
wartime:-0.042085,0.067877,0.010623,0.016816,-0.068520,0.049892,0.050636,-0.006541,-0.077973,0.008307,0.043591,0.022886,0.010949,0.043650,-0.036963,0.016110
was:-0.062340,0.066263,-0.002184,0.029649,0.027245,-0.000858,0.074174,0.005838,-0.026377,0.026289,-0.013580,-0.034793,0.031917,0.028344,0.013644,-0.026178
way:-0.054203,0.010288,-0.015704,-0.003552,0.005229,-0.047644,0.017392,0.021285,0.030016,0.013682,-0.044822,0.025296,0.007940,0.055107,0.013871,0.052859
where:0.007764,0.033559,0.005020,0.049062,0.058596,0.034693,0.062654,-0.011064,-0.032648,-0.000772,0.052474,-0.041367,0.015090,0.006565,0.026661,-0.013581
which:-0.060897,0.034422,-0.015971,-0.045617,-0.001187,-0.019996,0.093609,0.002272,0.026506,0.046154,-0.010091,0.016544,-0.017005,0.022727,0.067075,0.028119
while:-0.006247,-0.003558,-0.036022,-0.005590,-0.016377,0.007019,0.087181,-0.029396,-0.008345,-0.063182,-0.015300,0.000467,0.032956,0.010609,0.022278,0.034012
whittle:0.007101,0.099752,-0.023622,0.014372,0.003230,0.028229,0.101339,0.048597,0.006714,0.019702,-0.028583,-0.117352,-0.037152,0.001831,-0.030951,0.018288
with:-0.001228,0.069698,-0.018813,0.038616,-0.035510,-0.007642,0.153855,0.037000,-0.028198,-0.003385,0.049819,-0.035423,0.040614,0.004222,-0.008563,0.022901
work:-0.134374,0.074107,0.036040,-0.015515,-0.024316,-0.016232,0.092697,-0.058413,0.020161,0.013535,-0.039069,-0.033750,-0.038893,0.057580,-0.027675,0.032658
working:-0.093323,0.030422,0.022811,0.012333,-0.043737,-0.044445,0.093330,-0.037509,0.007625,-0.015670,-0.017961,-0.032928,-0.041780,0.074096,-0.007296,0.000915
written:-0.008906,0.069494,0.007503,0.056243,-0.042362,-0.031686,0.051853,0.025876,-0.036447,0.050858,-0.008414,0.084057,0.033455,-0.045542,-0.066306,0.078355
xwb:-0.040910,-0.038459,-0.082224,-0.043374,0.042617,-0.038111,0.068643,0.019140,-0.023537,-0.063434,0.054665,-0.097776,0.060853,-0.017901,-0.010430,0.107984
years:-0.053353,0.069053,0.003073,0.030894,-0.031390,0.042603,0.012706,-0.011000,-0.000476,-0.041708,-0.018994,-0.026556,0.048449,0.004128,-0.019888,0.050802
york:0.091381,-0.010921,0.070672,0.039646,-0.063678,0.003318,0.038987,-0.048450,-0.043950,-0.057898,-0.007865,-0.014760,-0.082707,0.043485,-0.059081,0.012953
you:-0.113688,0.028624,0.042877,0.014739,0.003854,-0.084255,0.094753,0.037600,-0.019429,-0.011404,-0.044955,-0.035668,0.001211,0.008749,0.020051,0.019121
china:0.025991,0.067002,-0.011360,0.044471,0.023788,-0.044630,0.057454,-0.021068,-0.033777,0.007294,0.061213,-0.090786,0.038165,0.027287,-0.063807,-0.010438
